%YAML:1.0
my_svm: !!opencv-ml-svm
   svm_type: C_SVC
   kernel: { type:LINEAR }
   C: 1.
   term_criteria: { epsilon:2.2204460492503131e-016, iterations:100 }
   var_all: 784
   var_count: 784
   class_count: 10
   class_labels: !!opencv-matrix
      rows: 1
      cols: 10
      dt: i
      data: [ 0, 1, 2, 3, 4, 5, 6, 7, 8, 9 ]
   sv_total: 45
   support_vectors:
      - [ 0., 0., 0., 0., 0., 0., 0., 0., 0., 0., 0., 0., 0., 0., 0., 0.,
          0., 0., 0., 0., 0., 0., 0., 0., 0., 0., 0., 0., 0., 0., 0., 0.,
          0., 0., 0., 0., 0., 0., 0., 0., 0., 0., 0., 2.35181360e-005,
          6.42829036e-005, 3.05735775e-005, 0., 0., 0., 0., 0., 0., 0.,
          0., 0., 0., 0., 0., 0., 0., 0., 0., 0., 0., 0., 0., 0., 0.,
          -1.22256861e-005, -1.96868743e-004, -4.65158555e-005, 0.,
          -1.17043222e-004, -3.01278807e-004, -7.19777527e-005, 0., 0.,
          0., 0., 0., 0., 0., 0., 0., 0., 0., 0., 0., 0., 0., 0., 0.,
          -2.27298151e-005, -2.02042811e-005, 0., 1.48340405e-005,
          -5.89675183e-005, -9.68863751e-005, -1.74052257e-005,
          1.44964743e-005, -3.16586025e-004, -4.39572206e-004,
          -2.04679163e-004, 0., 0., 0., 0., 0., 0., 0., 0., 0., 0., 0.,
          0., 0., 0., 0., 7.69336657e-006, 3.03951019e-005,
          -1.64701705e-004, -2.47404387e-004, -8.27719414e-005,
          -2.80800323e-005, -1.02178810e-005, -2.32594102e-004,
          -7.66312369e-005, -3.69916728e-004, 7.42868406e-006,
          -2.29826255e-004, 2.14403568e-004, -1.35125112e-004,
          -3.96550458e-004, -1.10127949e-004, -6.99938973e-005,
          -2.33148294e-005, 0., 0., 0., 0., 0., 0., 0., 0., 0.,
          3.53138125e-006, 3.65884625e-005, 1.04203260e-004,
          -1.79252922e-004, -2.22159739e-004, 3.26916488e-005,
          5.74556980e-005, -1.42490389e-004, -3.94995499e-004,
          7.92210980e-004, 5.01181814e-004, -2.13293912e-004,
          -2.25034673e-005, 4.11996472e-004, 3.42186490e-006,
          -5.40405279e-004, -6.31619303e-004, -9.55716881e-004,
          -6.06652757e-004, -4.74195185e-005, 0., 0., 0., 0., 0., 0., 0.,
          0., 4.79258870e-006, 2.41127946e-005, 4.25677354e-005,
          -5.31134756e-005, -8.53620950e-005, 3.16093137e-005,
          2.67491938e-004, 1.45839324e-004, 1.07323831e-004,
          1.21569428e-004, 3.82401282e-004, 4.18378215e-004,
          2.04373981e-004, 7.25690261e-005, -6.24481036e-005,
          -4.83276905e-004, -2.53516424e-004, -2.59567314e-004,
          3.71555361e-005, -6.99115626e-005, 0., 0., 0., 0., 0., 0., 0.,
          -9.21694664e-005, -9.65760119e-005, -2.73628812e-005,
          -1.51466462e-004, -8.27865151e-005, 2.64597853e-004,
          3.86170344e-004, 5.97894890e-004, -1.23950813e-004,
          1.65376914e-004, 1.28793137e-004, 2.72074452e-004,
          1.96905996e-004, 5.56417566e-004, 3.91341193e-004,
          2.97971186e-004, -1.51140819e-004, 1.94682041e-004,
          2.80369859e-004, 4.29875188e-004, 2.59135326e-004,
          5.58437314e-005, 0., 0., 0., 0., 0., 0., -8.67477356e-005,
          -9.24141059e-005, 7.46341038e-006, -5.24389288e-005,
          2.70563328e-006, 2.53913429e-004, 3.76306270e-004,
          1.69748964e-004, -5.54716971e-004, 1.39290176e-004,
          -2.62846675e-004, -2.09417951e-004, 6.37524121e-004,
          6.08904520e-004, -1.84640798e-004, -2.69714103e-004,
          2.92594486e-004, 3.93555791e-004, 4.14032547e-004,
          2.26742530e-004, 1.30945031e-004, 3.91831782e-005, 0., 0., 0.,
          0., 0., 0., -1.06956017e-004, -7.83731230e-005,
          1.41962635e-004, 9.33671799e-006, -1.03315433e-004,
          3.04018613e-005, 1.72293236e-004, 3.11277131e-006,
          -1.03119761e-004, -3.34940443e-004, -4.09432745e-004,
          2.46178475e-004, 1.84673481e-004, 1.83727767e-004,
          -5.26682532e-004, -4.00360994e-004, 3.80274287e-004,
          6.13390002e-004, 4.81100404e-004, 2.34630948e-004,
          5.92033066e-005, 7.15518909e-005, 0., 0., 0., 0., 0., 0.,
          -1.06956017e-004, 3.44330474e-005, 1.92210617e-004,
          1.38940333e-004, 4.70523446e-005, -2.46163807e-004,
          4.73903092e-005, -1.75262267e-005, -1.49927815e-004,
          -3.88126471e-004, 5.41458248e-005, 1.58527291e-005,
          -1.74655259e-004, 1.61115313e-004, -9.12573596e-005,
          5.88631447e-005, 3.19354760e-004, 4.54455061e-004,
          3.91877780e-004, 2.83831992e-004, 6.11703217e-005,
          7.18358278e-005, 0., 0., 0., 0., 0., 0., -9.20530583e-005,
          1.17490184e-004, 2.10441736e-004, 2.24164192e-004,
          1.91164581e-004, -7.45101861e-005, 2.88849347e-004,
          1.08416403e-004, 5.27003067e-005, -2.33605562e-004,
          1.97865549e-004, -4.32555913e-004, -4.05574247e-004,
          2.59750930e-004, 3.22127948e-004, 3.51682800e-004,
          1.52296416e-004, 4.15618531e-004, 4.21348319e-004,
          1.73654509e-004, 1.17308547e-004, 7.15518909e-005, 0., 0., 0.,
          0., 0., 0., 1.89963575e-005, 1.55078043e-004, 1.83799260e-004,
          1.44614038e-004, 2.49391393e-004, 2.87790870e-004,
          2.04346346e-004, 2.40938447e-004, 2.77314510e-004,
          -2.15056352e-004, -1.40022661e-004, -4.72433661e-004,
          -2.68010306e-004, 2.49578297e-004, 4.72901593e-004,
          4.47130966e-004, 6.68501962e-005, 5.01124305e-004,
          4.11191664e-004, 2.39035871e-004, 1.31544541e-004,
          7.15518909e-005, 0., 0., 0., 0., 0., 0., 7.41221083e-005,
          1.88197970e-004, 9.42035476e-005, 3.62354156e-004,
          4.54100547e-004, 1.50234584e-004, 3.12803022e-004,
          3.13402008e-004, 2.31366997e-004, -6.50173926e-004,
          -6.54882344e-004, -7.04903097e-004, -1.20099321e-004,
          2.62481626e-004, 8.64081725e-004, 2.80590379e-004,
          -4.57981077e-005, 5.04421885e-004, 5.53017948e-004,
          3.33274162e-004, 1.68245810e-004, 7.71553096e-005, 0., 0., 0.,
          0., 0., 0., 1.04188090e-004, 1.60976138e-004, 2.53918639e-004,
          6.15099270e-004, 3.67972185e-004, -2.48927827e-004,
          4.20906668e-004, 3.67044442e-004, -1.09862231e-005,
          -5.11509599e-004, -1.07192702e-003, -6.52633491e-004,
          -2.94442085e-004, 4.71209467e-004, 1.13076344e-003,
          1.32973684e-004, 1.98217342e-004, 5.11712278e-004,
          4.42326622e-004, 3.60802223e-004, 2.32003236e-004,
          1.14917471e-004, 0., 0., 0., 0., 0., 0., 1.46163613e-004,
          2.47991586e-004, 3.17762780e-004, 4.79906419e-004,
          1.94696986e-004, -3.67465291e-005, 4.73430468e-004,
          3.04451562e-004, -1.81023803e-004, -7.25167862e-004,
          -1.10380375e-003, -7.54350549e-005, 1.49391315e-004,
          7.59073300e-004, 2.71725177e-004, 9.98780888e-005,
          3.78532364e-004, 4.45588259e-004, 3.01351014e-004,
          3.56081466e-004, 2.30468213e-004, 9.82653437e-005, 0., 0., 0.,
          0., 0., 0., 1.57030037e-004, 2.52529106e-004, 2.52884172e-004,
          7.06537860e-004, 2.02303127e-004, 4.96275839e-004,
          4.99622372e-004, 1.44509695e-005, -1.06654334e-004,
          -6.34431548e-004, -6.54294970e-004, -1.39680094e-004,
          6.17800921e-004, 7.81952112e-004, 1.73871318e-004,
          1.96808149e-004, 7.08203705e-004, 2.58946820e-004,
          1.91370636e-004, 1.79154114e-004, -1.29034670e-004,
          -2.28373938e-005, 0., 0., 0., 0., 0., 0., 1.70797197e-004,
          2.09701524e-004, 2.45350326e-004, 3.22394422e-004,
          2.52351718e-004, 7.39337644e-004, 6.82479818e-004,
          2.49225151e-004, -1.71995503e-004, -5.51021250e-004,
          -2.87762028e-004, -1.53996065e-004, 8.31707948e-005,
          4.13995993e-004, 5.06185461e-004, 2.52285128e-004,
          4.36874310e-004, -2.04826774e-005, 1.30154760e-004,
          1.64300218e-004, -2.18709654e-004, -3.48382746e-004, 0., 0.,
          0., 0., 0., 0., 1.31765031e-004, 2.97417864e-004,
          1.89137689e-004, 9.28367153e-005, 2.43156886e-004,
          3.99701355e-004, 4.12667840e-004, 2.17114881e-004,
          -2.17932364e-004, -2.83231289e-004, -1.48288091e-004,
          -4.73410437e-005, -3.40938423e-004, 3.14920966e-004,
          1.15175077e-004, 4.77245660e-004, 1.15261864e-004,
          1.00297992e-004, 2.70505494e-004, 2.05231729e-004,
          -3.20987252e-004, -3.94214294e-004, 0., 0., 0., 0., 0., 0.,
          1.23783248e-004, 3.15955986e-004, 4.10764660e-005,
          1.40505465e-004, 2.89499119e-004, 2.30368732e-005,
          -3.39762628e-004, -5.96930222e-005, 1.22297191e-004,
          1.90556111e-005, 1.23720529e-004, -3.04476307e-005,
          -1.18018570e-005, 7.43502169e-005, 3.08667973e-006,
          2.72964360e-004, 1.52246779e-004, 1.01204598e-004,
          1.01507554e-004, -1.89621816e-004, -4.84663731e-004,
          -4.02295846e-004, 0., 0., 0., 0., 0., 0., 1.38703937e-004,
          8.11169666e-005, -2.52284837e-004, 2.16808709e-004,
          5.24776988e-005, -3.33621952e-004, -3.52713309e-004,
          3.85372732e-005, 5.85796311e-004, 3.48270551e-004,
          -1.94631590e-004, -2.10151542e-004, -2.78769614e-004,
          -6.20495412e-004, -4.98807349e-004, -2.00930590e-004,
          -2.00006747e-004, -1.18627191e-004, -2.98659550e-004,
          -5.38565044e-004, -5.09533565e-004, -2.83322006e-004, 0., 0.,
          0., 0., 0., 0., 4.62591597e-005, -9.21379979e-005,
          -3.00185086e-004, -3.84128507e-004, 6.41639281e-006,
          -9.59678218e-005, 9.02345855e-005, 4.71578795e-004,
          5.44145994e-004, 3.37796402e-004, -1.68095619e-004,
          -1.23453268e-004, -5.19725785e-004, -3.63397150e-004,
          -4.54009016e-004, -3.04510060e-004, -6.05747104e-004,
          -5.17608889e-004, -3.25745699e-004, -2.97438441e-004,
          -4.22276149e-004, -1.30573142e-004, 0., 0., 0., 0., 0., 0.,
          -9.76838201e-005, -1.61406744e-004, 1.67245871e-005,
          -2.72694626e-004, -1.30711938e-004, -2.09830687e-004,
          1.72465181e-004, 6.32834330e-004, 9.11167765e-004,
          -1.06046034e-004, 1.47770203e-004, 1.46331222e-004,
          7.02067746e-006, -1.34098169e-004, -1.54691224e-004,
          6.03554145e-005, -3.28273280e-004, -2.40797744e-004,
          -2.72212346e-005, -3.79936027e-005, -7.15130736e-005,
          -3.83260849e-005, 0., 0., 0., 0., 0., 0., -5.81376080e-005,
          6.00140884e-005, 2.52828497e-004, 2.70661636e-004,
          1.19974538e-004, -5.19983470e-004, 1.39229407e-004,
          6.09034731e-004, 1.68317914e-004, -3.47003312e-004,
          7.29248641e-005, 8.36576219e-005, -1.26530678e-004,
          -1.03825449e-004, -5.53968312e-005, 8.52365629e-005,
          -1.74518427e-004, 2.83487543e-006, 1.08463855e-005,
          1.38732833e-006, 0., 0., 0., 0., 0., 0., 0., 0.,
          3.02108801e-005, 2.46960903e-004, 2.33445273e-004,
          7.90979830e-005, 1.50385778e-004, -1.31475681e-004,
          -3.16378893e-004, 4.83267941e-005, 4.89609083e-004,
          1.74213001e-005, 3.55598459e-005, -5.46079718e-005,
          -7.77681344e-005, -1.73452267e-004, 1.02250080e-004,
          2.32159437e-006, -5.42734642e-006, 0., 0., 0., 0., 0., 0., 0.,
          0., 0., 0., 0., 0., 0., 0., 0., 0., 0., 0., -2.66343723e-005,
          -3.09149618e-004, -3.65973014e-004, 0., 0., 0., 0., 0., 0., 0.,
          0., 0., 0., 0., 0., 0., 0., 0., 0., 0., 0., 0., 0., 0., 0., 0.,
          0., 0., 0., 0., 0., 0., 0., 0., 0., 0., 0., 0., 0., 0., 0., 0.,
          0., 0., 0., 0., 0., 0., 0., 0., 0., 0., 0., 0., 0., 0., 0., 0.,
          0., 0., 0., 0., 0., 0., 0., 0., 0., 0., 0., 0., 0., 0., 0. ]
      - [ 0., 0., 0., 0., 0., 0., 0., 0., 0., 0., 0., 0., 0., 0., 0., 0.,
          0., 0., 0., 0., 0., 0., 0., 0., 0., 0., 0., 0., 0., 0., 0., 0.,
          0., 0., 0., 0., 0., 0., 0., 0., 0., 0., 0., 3.18529637e-005,
          8.70647709e-005, 4.14088536e-005, 0., 0., 0., 0., 0., 0., 0.,
          0., 0., 0., 0., 0., 0., 0., 0., 0., 0., 0., 0.,
          -2.83326553e-005, -5.64439615e-005, -5.64439615e-005,
          -5.64439615e-005, -5.64439615e-005, -5.64439615e-005,
          -4.22776320e-005, -1.24061726e-005, 7.07843640e-007, 0., 0.,
          0., 0., 0., 0., 0., 0., 0., 0., 0., 0., 0., 0., 0., 0., 0., 0.,
          1.21509561e-006, -1.48886220e-005, -1.15146313e-005,
          -4.62939024e-005, 3.88982371e-005, 1.77557187e-004,
          3.03639426e-005, -2.00790731e-004, -1.63769902e-004,
          -7.97242683e-005, -1.90679391e-004, -8.85056070e-005,
          8.97053687e-005, -1.89477123e-005, 0., 0., 0., 0., 0., 0., 0.,
          0., 0., 0., 0., -2.01608455e-005, -1.59611402e-004,
          -5.48152893e-005, 8.41501605e-005, 6.79149598e-005,
          2.30604401e-005, 2.16512235e-005, -7.01996833e-005,
          5.37818378e-005, -2.14541666e-004, -2.58223718e-005,
          3.16545884e-005, 1.47085550e-004, 1.89800252e-004,
          1.03664524e-005, 2.81865447e-004, 3.54170887e-004,
          4.42250923e-004, 1.80088624e-004, 1.91970121e-005, 0., 0., 0.,
          0., 0., 0., 0., 0., -1.57840899e-004, -9.57748780e-005,
          7.71654668e-005, 5.56715931e-005, -1.06399719e-004,
          7.54760476e-005, 1.55595393e-004, 1.84163400e-005,
          6.10927382e-005, -1.83036696e-004, -9.33553456e-005,
          -2.70450488e-004, -1.43182260e-004, 2.53798877e-004,
          1.25248000e-004, 1.52930570e-005, -2.68277770e-004,
          1.22102487e-004, 1.36390125e-004, 8.63865571e-005, 0., 0., 0.,
          0., 0., 0., 0., 0., -3.36017365e-005, -7.29210224e-005,
          -3.32214913e-005, 5.16814180e-005, -2.32372520e-004,
          -2.91621138e-004, -1.82398071e-004, -1.73735025e-004,
          2.15092325e-004, 8.53673646e-006, -1.84275879e-004,
          1.20755176e-005, 1.76686444e-005, -9.22845284e-005,
          -9.34380951e-005, 2.59299064e-004, 1.83750031e-004,
          7.84478107e-005, 8.79623767e-005, 1.28205706e-004, 0., 0., 0.,
          0., 0., 0., 0., -1.09886814e-005, -1.09889370e-004,
          -4.71135572e-005, -2.26068169e-005, -1.69125284e-004,
          -2.58091295e-005, 3.22409069e-005, -1.27656444e-004,
          -1.30325105e-004, -1.55540998e-004, -5.24896277e-005,
          -3.86370550e-004, 1.21800447e-004, 2.16883025e-004,
          -1.79382587e-005, 1.12680253e-004, 2.02075928e-004,
          2.24211777e-004, 2.52153783e-004, 1.87140467e-004,
          2.20389265e-004, 1.38189716e-006, 0., 0., 0., 0., 0., 0.,
          8.82232086e-007, -2.19951630e-006, 5.87602585e-007,
          -1.05853527e-004, 7.05491329e-005, 1.79208248e-004,
          -1.07010797e-004, -2.60970410e-004, 2.09188336e-004,
          -1.10351517e-004, 7.38051531e-005, -1.11518784e-006,
          1.49409811e-004, -8.54465179e-006, 8.51700461e-005,
          -1.52468827e-004, 1.06314947e-004, -1.96317982e-004,
          1.35504073e-004, 3.86873799e-005, 1.94613167e-004,
          4.76754540e-005, 0., 0., 0., 0., 0., 0., 3.03120923e-005,
          1.06038860e-005, 7.94671068e-005, -8.76920167e-005,
          2.62401591e-004, 7.10967433e-005, 7.08976984e-007,
          2.30541569e-004, -1.59242300e-005, -5.99814084e-005,
          -5.39912762e-005, -2.75789760e-004, -2.14433108e-004,
          -1.36667688e-004, 1.12351545e-005, 3.15733982e-004,
          -4.90946077e-005, -9.45372813e-005, -2.61680019e-004,
          1.92492531e-004, 1.26835264e-004, 8.70595250e-005, 0., 0., 0.,
          0., 0., 0., -4.48965038e-005, -4.15249960e-005,
          -2.32402890e-004, -4.45047663e-005, 1.17147414e-004,
          -1.69745181e-004, -3.37680249e-005, -9.38865051e-005,
          -2.22324205e-004, 9.00153173e-005, -8.83548564e-005,
          -1.53357643e-004, 3.50868213e-004, 3.70876456e-004,
          6.05719242e-006, -3.88796652e-005, 4.53966641e-005,
          1.08976157e-004, 9.66645966e-005, -4.77383728e-005,
          3.04452278e-005, 5.25702380e-005, 0., 0., 0., 2.90567368e-005,
          0., 0., -1.11767935e-004, -3.83929641e-004, 3.38814716e-005,
          1.66181329e-004, 3.74663330e-004, 3.42547828e-005,
          2.88143725e-004, 3.74089577e-004, -1.26317918e-005,
          3.26163339e-004, -7.03853657e-005, 2.40993377e-005,
          1.37079769e-004, 4.41920944e-004, 3.40275699e-004,
          1.03800776e-004, 7.68669852e-005, -1.22836616e-004,
          8.74497491e-005, 5.11102080e-005, -7.12764595e-005,
          -1.74447559e-005, 0., 0., 0., 0., 0., 0., -3.07227638e-005,
          1.03470687e-004, 3.37584439e-004, 2.60807807e-004,
          1.88620732e-004, 6.00759813e-005, 4.17118417e-006,
          -1.18989832e-004, 1.90170947e-004, -1.48463834e-004,
          -2.83759437e-004, -8.37239495e-005, 8.54095779e-005,
          8.13599763e-005, -5.41290001e-006, 1.38308140e-004,
          1.25925391e-004, -6.97326468e-005, 9.23803673e-005,
          1.93755259e-004, 3.92830771e-006, 6.77591815e-005, 0., 0., 0.,
          0., 0., -2.05346023e-005, 1.69860083e-004, 4.90389415e-004,
          3.95625422e-004, 3.48794652e-004, 1.21737918e-004,
          1.46007049e-004, -3.14097095e-004, -9.09511655e-005,
          3.76117459e-005, -2.99728679e-004, -2.19979775e-004,
          -3.15430429e-004, -1.30839135e-006, -1.19803233e-004,
          -8.46990224e-006, 6.00426465e-005, 6.18886988e-005,
          2.93743331e-004, 1.83377226e-004, 6.81182282e-005,
          -2.05475735e-005, 8.03355579e-005, -2.80165250e-006, 0., 0.,
          0., 0., -6.24552558e-005, 2.92993791e-004, 2.61064124e-004,
          2.07997175e-004, 1.09717505e-004, -1.08050972e-006,
          1.41033335e-004, 1.39020858e-005, 6.55445328e-005,
          -1.75454523e-004, -4.81046009e-005, -3.39021266e-004,
          -1.08396031e-004, -2.88047275e-004, -4.02557889e-005,
          1.31146171e-005, -2.37022788e-004, -4.34028952e-005,
          2.18406116e-004, 2.90149503e-004, 1.18515025e-004,
          -8.21440699e-005, -6.81714446e-005, -8.83480388e-005, 0., 0.,
          0., 0., -1.54560868e-004, 2.18132656e-004, -2.11388178e-005,
          -1.58033836e-005, -8.47005776e-006, -2.88323557e-004,
          -7.34923378e-005, 2.42272625e-004, -1.36967326e-004,
          -7.07251529e-005, 3.90854366e-005, -2.68544856e-004,
          -2.57002161e-004, -1.84959790e-004, -2.05514807e-004,
          7.61221818e-005, -1.77316295e-004, 1.57128408e-004,
          2.73567217e-004, 2.10824786e-004, 3.82168975e-004,
          -4.18688833e-005, -2.29359561e-004, -1.16465402e-004, 0., 0.,
          0., 0., -1.69737323e-004, -6.01190222e-005, 2.23188850e-004,
          1.09613084e-005, -2.13314299e-004, -2.19637499e-004,
          3.15181787e-005, 3.65146640e-004, 1.46633771e-004,
          -6.52501258e-005, -3.34343873e-004, -2.73591082e-004,
          -1.31211113e-004, -2.24786432e-004, -2.70316901e-004,
          -2.53256934e-004, 1.09615539e-004, -6.74795592e-005,
          -1.19504824e-004, -3.87295731e-005, 1.50887630e-004,
          -1.00546466e-004, -3.04670946e-004, -3.34788347e-005, 0., 0.,
          0., 0., -1.28331478e-004, -2.64594419e-004, 2.21181908e-004,
          -2.71878398e-005, -1.96458845e-004, -1.49343527e-004,
          1.87258862e-004, -1.74190107e-004, -5.92485594e-005,
          -2.38091117e-004, -5.39916975e-004, -3.43077874e-004,
          -1.55327623e-004, -2.14194850e-004, 1.29843742e-004,
          1.30148794e-004, 8.16673491e-005, 4.22724224e-005,
          -2.12773986e-004, -1.28542219e-004, 3.26616719e-005,
          -6.33972595e-005, -1.63273449e-004, -1.88226059e-005,
          -2.70212640e-005, 0., 0., 0., -1.01136655e-004,
          -3.53872048e-004, -1.43570258e-004, -1.16999807e-004,
          -1.32436617e-004, 7.96550303e-005, -1.17859905e-004,
          -5.92610158e-005, 1.29194450e-004, 1.40702890e-004,
          8.26554533e-005, 7.38207818e-005, -1.86470425e-005,
          -2.71345605e-004, 5.22044356e-005, -8.68620482e-005,
          -9.27052315e-005, -2.11442617e-004, -8.33524336e-006,
          -1.27697122e-005, -8.74483521e-005, -1.42912060e-004,
          -1.15520976e-004, -8.89693547e-005, -6.00031017e-005, 0., 0.,
          0., 3.22461819e-005, -3.48164496e-004, 1.55130401e-005,
          7.88721081e-005, -2.47018819e-004, -1.25186983e-004,
          -6.05163332e-005, -3.37702222e-005, -4.28454587e-005,
          1.58536423e-005, -1.66150436e-004, -1.49263258e-004,
          -2.43249349e-004, -1.85282610e-004, 8.14717496e-005,
          3.99439559e-005, -5.31218902e-005, 2.46940199e-005,
          -8.03798612e-005, -1.92266176e-004, -2.77347226e-005,
          2.92390814e-006, -7.47598533e-005, -5.16582986e-006, 0., 0.,
          0., 0., 2.81229059e-005, -3.42972140e-004, -1.87044119e-004,
          5.42231392e-005, -1.32575893e-004, 2.75794562e-004,
          -1.36649192e-004, -6.91557580e-005, 2.70629360e-004,
          -3.35818913e-005, 7.38283852e-005, 1.96393070e-004,
          -2.38700901e-004, -3.98561315e-005, 3.28967108e-005,
          1.43603073e-004, -6.62638995e-005, 5.08943303e-005,
          -1.31089037e-004, 1.30812477e-005, -9.86589366e-005,
          -7.42354750e-005, -5.39588582e-005, 0., 0., 0., 0.,
          1.80320276e-005, -4.09224185e-006, -1.31388704e-004,
          -2.85144604e-004, -2.81570334e-004, -2.54215294e-004,
          -1.98865542e-004, -1.45344457e-004, 6.44964748e-005,
          7.38587478e-005, 2.33424638e-004, -4.08713931e-005,
          1.18168991e-005, 1.59255607e-004, 5.96684367e-005,
          -2.48917408e-004, 2.15051969e-005, -1.06354935e-004,
          -1.58780196e-004, -8.59674328e-005, -2.07526668e-004,
          -2.06375393e-004, -2.70874680e-005, 0., 0., 0., 0., 0., 0.,
          6.11598880e-005, -5.83703913e-005, -2.89994459e-005,
          -4.24391474e-005, -8.33195008e-005, -1.33261899e-004,
          -5.60803455e-005, 1.51275162e-004, -2.64036935e-004,
          2.34333827e-004, 1.97867339e-004, 2.32717968e-004,
          -9.80374753e-005, 7.23456833e-005, 1.55686830e-005,
          -3.22616543e-005, 1.23815480e-004, -6.14871578e-006,
          -8.00709859e-006, 4.44779762e-005, 1.41074133e-006,
          -2.54799011e-006, 0., 0., 0., 0., 0., 0., 0., -1.06327658e-004,
          -1.18825228e-005, 9.32482581e-005, 1.57314644e-004,
          2.74652884e-005, 6.21167783e-005, 1.48300751e-004,
          -6.88198706e-005, 4.98463887e-005, 6.63709798e-005,
          -2.45314077e-005, -8.31587458e-005, -1.16962648e-004,
          1.11576483e-004, -1.42616322e-004, -2.68107906e-005,
          -6.24984241e-005, -1.29656371e-004, -2.60289467e-004,
          -2.47081567e-004, -3.75435266e-005, 0., 0., 0., 0., 0., 0., 0.,
          6.82598111e-005, 1.01868471e-004, 4.12214249e-005,
          4.75035267e-005, -1.97901863e-005, -2.83977308e-004,
          -2.55277351e-004, -1.27587497e-004, 3.82233156e-005,
          3.66622466e-004, 3.57636018e-004, 2.54891289e-004,
          2.43243285e-005, 6.13869634e-005, -5.86371134e-005,
          -2.40488996e-004, -2.78015068e-004, -2.54938728e-004,
          -1.34416361e-004, -6.51496957e-005, -1.09350071e-006, 0., 0.,
          0., 0., 0., 0., 0., 0., 0., 0., 0., 0., 0., -3.33449643e-005,
          -7.76786110e-005, -9.96836534e-005, -1.56867201e-004,
          -1.29779495e-004, -9.08068978e-005, -2.02338284e-004,
          -2.02338284e-004, -1.42073361e-004, 0., 0., 0., 0., 0., 0., 0.,
          0., 0., 0., 0., 0., 0., 0., 0., 0., 0., 0., 0., 0., 0., 0., 0.,
          0., 0., 0., 0., 0., 0., 0., 0., 0., 0., 0., 0., 0., 0., 0., 0.,
          0., 0., 0., 0., 0., 0., 0., 0., 0., 0., 0., 0., 0., 0., 0., 0.,
          0., 0., 0., 0., 0., 0., 0., 0., 0., 0. ]
      - [ 0., 0., 0., 0., 0., 0., 0., 0., 0., 0., 0., 0., 0., 0., 0., 0.,
          0., 0., 0., 0., 0., 0., 0., 0., 0., 0., 0., 0., 0., 0., 0., 0.,
          0., 0., 0., 0., 0., 0., 0., 0., 0., 0., 0., 3.85216663e-005,
          1.05292558e-004, 5.00781680e-005, 0., 0., 0., 0., 0., 0., 0.,
          0., 0., 0., 0., 0., 0., 0., 0., 0., 0., 0., 0., 0., 0., 0., 0.,
          0., 0., 0., 1.92608331e-005, 8.56037047e-007, 0., 0., 0., 0.,
          0., 0., 0., 0., 0., 0., 0., 0., 0., 0., 0., -1.13869479e-004,
          -1.13422931e-004, -1.11636749e-004, -5.74444530e-005,
          -2.63752027e-005, -1.27848849e-004, -1.56180788e-004,
          -1.49356667e-004, 1.86157209e-004, 9.93031717e-005,
          -4.94540145e-005, -2.02710347e-004, -2.42820141e-004,
          -1.81423689e-004, -1.28944914e-004, -2.41059843e-005,
          -3.71170427e-005, -1.45955382e-005, 0., 0., 0., 0., 0., 0., 0.,
          0., 0., -9.81003268e-006, -1.86764606e-004, -1.75146735e-004,
          -1.70106432e-004, -1.83013501e-004, -2.51230522e-004,
          -2.82466470e-004, 1.04119303e-004, -1.21793710e-004,
          -7.62263471e-006, 4.59919574e-005, -3.41093226e-004,
          -3.36806115e-004, -2.24972420e-004, -1.38133937e-005,
          -1.17613345e-005, 5.13813502e-005, -2.12639934e-004,
          -1.91938962e-004, -8.85952250e-005, 1.90133742e-005, 0., 0.,
          0., 0., 0., 0., 0., -3.41015402e-005, -2.04102689e-004,
          -1.35718015e-004, -2.40004621e-004, -1.46918464e-004,
          -1.23654172e-004, 6.48443747e-005, -2.47456075e-004,
          -5.40818844e-004, 2.49810637e-005, 3.33006523e-004,
          1.35041657e-004, -1.19995842e-004, 9.21990068e-005,
          1.63596225e-004, 9.37849472e-006, -1.83186101e-004,
          -7.00959863e-005, -2.15607761e-005, -3.63119354e-004,
          -4.57536007e-005, 0., 0., 0., 0., 0., 0., 0., -1.72843429e-005,
          -7.13355112e-005, -1.74267698e-004, 2.67983105e-005,
          2.44314782e-004, -9.55572905e-005, -9.80313853e-005,
          5.70617813e-005, -2.17781126e-004, 9.62651829e-005,
          2.06667537e-004, -1.54912297e-004, 3.68359353e-004,
          -1.76061367e-004, 1.51861284e-004, 2.51949041e-005,
          1.49499820e-005, -1.41518030e-004, 1.14834998e-004,
          -2.31095662e-004, -1.20010343e-004, 0., 0., 0., 0., 0., 0.,
          -1.06741243e-006, -3.47794703e-005, -2.35358108e-004,
          -1.55203525e-004, -9.37446021e-005, -7.27094812e-005,
          -1.67913284e-004, 1.37174095e-004, 4.25391627e-005,
          -3.05920432e-004, 1.56345937e-004, 2.24830670e-004,
          -4.21832883e-005, -1.85442404e-004, -2.50308221e-004,
          4.64576697e-005, 1.70363855e-004, 1.59059622e-004,
          2.48405937e-004, 1.64866986e-004, -1.20936696e-004,
          -1.34873888e-004, 1.25821236e-006, 0., 0., 0., 0.,
          1.74986999e-005, -3.08592280e-005, -1.33167923e-004,
          -3.98357457e-004, -1.42981124e-004, 1.79942581e-005,
          2.14230880e-004, 3.74995696e-004, 1.66300433e-005,
          -2.87253264e-004, -2.69992506e-005, 1.29308013e-004,
          2.46393145e-004, 9.22703839e-005, -1.68874365e-004,
          -3.97526492e-005, 2.36623935e-004, 2.68494859e-005,
          -9.82811471e-005, -8.28325719e-005, -3.29658884e-004,
          -2.20346774e-004, -1.36199946e-004, 4.34083267e-005, 0., 0.,
          0., 0., 7.17895409e-006, -7.84071744e-005, -2.22115646e-004,
          -2.59666122e-004, 1.93447500e-004, -3.98064622e-005,
          -9.47783410e-005, -6.61966915e-005, 4.78458242e-005,
          -1.11969821e-005, -4.58937284e-005, -3.24557186e-005,
          -7.59547902e-007, -5.17462504e-005, -2.16439003e-004,
          2.40070309e-004, -3.95805371e-004, -7.48425882e-005,
          1.34801565e-004, -3.48537113e-004, -3.75836273e-004,
          -2.91169912e-004, 3.86969150e-005, 7.92673745e-005, 0., 0., 0.,
          0., 0., -3.69321242e-005, -7.49738319e-005, 1.23863982e-004,
          3.41167091e-004, -3.58315701e-005, -1.31978100e-004,
          -1.53843110e-004, 1.61198142e-004, -2.75340949e-006,
          -8.25400639e-006, -1.30055982e-004, 4.27458726e-005,
          -4.74107328e-005, 2.02816256e-004, 1.80203075e-004,
          9.10157250e-005, 3.59350321e-004, 3.44945263e-004,
          1.85534460e-004, 9.04771514e-005, -6.51947339e-005,
          -5.55287043e-005, 7.95819287e-005, 0., 0., 0., 0., 0.,
          -5.82904613e-005, 2.44588737e-005, 9.31410104e-005,
          2.53480568e-004, 7.34469650e-005, -1.14997834e-004,
          2.22079703e-004, 3.68203328e-004, 1.82578860e-005,
          3.54462391e-005, -1.28882515e-004, 2.76800529e-006,
          -6.55068470e-006, -1.48874737e-004, -1.11988265e-004,
          1.85779762e-004, -6.44837637e-005, 5.48685930e-005,
          2.68899195e-004, 5.93123259e-004, 5.05793607e-004,
          9.34615600e-005, 7.92673745e-005, 0., 0., 0., 0., 0.,
          -5.82904613e-005, 2.22118091e-004, 1.58204901e-004,
          1.48878229e-004, 5.01293725e-005, 5.59392865e-005,
          1.18687269e-004, -4.14969509e-005, 1.46028309e-004,
          2.84481270e-004, -2.38193490e-004, -4.92529827e-004,
          -4.72504267e-004, -2.35375992e-004, -2.72194047e-005,
          1.56316630e-004, -3.53441719e-004, -1.96184206e-004,
          4.14711802e-004, 5.30540477e-004, 2.64904083e-004,
          2.35833504e-004, 8.05168311e-005, 0., 0., 0., 0., 0.,
          -4.71663261e-005, 2.22553950e-004, 4.87227408e-005,
          6.00126368e-005, 3.22216016e-004, 2.16856890e-004,
          1.83466313e-004, 1.38493551e-005, 6.61651575e-005,
          -7.21061006e-005, -8.43015805e-005, -1.75670546e-004,
          -2.23021256e-004, -7.87197787e-005, -2.08112688e-004,
          -1.61170101e-004, 2.36471518e-004, -1.61115298e-004,
          3.31361633e-004, 4.95998829e-004, 1.98439535e-004,
          1.96901572e-004, 8.17662803e-005, 0., 0., 0., 0., 0., 0.,
          1.19607481e-004, 1.72861459e-004, 9.04723347e-005,
          1.87683268e-004, 2.60672619e-004, 1.59271629e-004,
          2.39113928e-004, 1.90469204e-004, 2.11927530e-004,
          2.49711593e-004, -3.86459258e-004, -2.37890126e-004,
          -2.24833580e-004, -4.15433227e-004, -1.98339418e-004,
          2.87599221e-004, -1.92223815e-004, 3.98724551e-005,
          3.08781833e-004, 1.83198412e-004, 1.94067397e-004,
          1.24673068e-004, 0., 0., 0., 0., 0., -2.00394652e-006,
          2.24748088e-004, 1.36974631e-004, -2.71305005e-004,
          2.56042083e-004, 5.48446224e-005, 7.44872232e-005,
          5.85055910e-004, 2.55314953e-004, 1.24609534e-004,
          -3.02436994e-004, -4.42062650e-004, 1.96246901e-006,
          -2.25851240e-004, 1.16071737e-004, 2.24381918e-004,
          -1.19499688e-004, 1.67146747e-004, 8.65223774e-005,
          -1.34390808e-004, 1.47555009e-004, -8.42866575e-005,
          8.56254774e-005, 0., 0., 0., 0., 0., -8.81736414e-005,
          2.68343458e-004, 8.96274942e-005, 1.54192167e-004,
          3.22978565e-004, 2.23605719e-004, 1.31974259e-004,
          -2.97656195e-004, -1.21326457e-005, 1.03451857e-005,
          -6.39954873e-004, -3.51494993e-004, -2.55115319e-005,
          3.90285968e-005, 1.37348063e-004, -3.91497219e-004,
          1.58593743e-004, 1.93002605e-004, 2.58964312e-004,
          4.34127423e-006, 7.10161403e-005, -2.85757444e-004,
          5.82593639e-005, 0., 5.51951234e-006, 0., 0., 0.,
          -2.08575570e-004, 1.63240784e-005, 8.87510687e-005,
          3.68935318e-004, -1.66054651e-005, 6.21711952e-005,
          5.19897731e-004, 2.06050958e-004, -5.79825537e-005,
          -1.09923909e-004, -4.53450368e-004, 1.58308176e-004,
          2.82682478e-004, 9.40992413e-006, -2.93691206e-004,
          -1.61572752e-004, -8.39942550e-006, -3.64553780e-005,
          1.06103376e-004, 1.50368956e-004, 9.59679383e-005,
          -7.45185534e-005, 9.05134857e-006, 0., 4.78357724e-005, 0., 0.,
          0., -3.17068014e-004, -1.70101615e-004, -4.59531693e-005,
          -5.02367766e-005, 4.03616796e-005, 1.03777886e-004,
          3.26800946e-004, 1.51101180e-004, 1.38591917e-004,
          -1.84264849e-004, -2.56588188e-004, -9.67790111e-005,
          -7.04632257e-005, -5.37009269e-004, 1.17971489e-004,
          -5.56995910e-005, 8.21177819e-005, -4.09667264e-004,
          3.58409852e-005, -1.00559218e-005, 1.10543151e-004,
          -6.78055803e-005, 0., 0., 0., 0., 0., -2.85577153e-005,
          -1.77806520e-004, -1.25511986e-004, -3.44615946e-005,
          1.63696677e-005, 9.94061847e-005, 5.66269846e-005,
          -6.11845753e-005, -2.27122528e-005, 6.23727974e-005,
          1.76639864e-004, 1.37819487e-004, -2.37474524e-004,
          4.92921507e-004, 2.20279748e-004, -3.02440312e-004,
          2.54184182e-004, -2.15945547e-004, -2.92532466e-004,
          7.59165705e-005, -1.35932074e-004, 4.98941808e-005,
          -1.27706371e-004, 0., 0., 0., 0., 0., 0., -1.50924592e-004,
          -1.40559467e-004, 9.95286973e-005, -7.51145853e-005,
          3.68435023e-004, -3.57763088e-006, -1.21538789e-004,
          1.79153052e-004, 3.25028202e-004, 1.28141648e-004,
          -3.51806411e-005, -1.54377602e-004, 7.14535345e-005,
          -1.20601635e-005, -1.07603802e-004, -1.73647961e-004,
          -2.22592626e-005, -1.45687300e-004, -8.81563465e-005,
          -6.64940308e-005, -1.88227335e-004, -5.72700446e-005, 0., 0.,
          0., 0., 0., 0., -8.82160602e-005, -6.72271199e-005,
          2.35208805e-004, -1.79396447e-004, 1.36633782e-004,
          3.20387153e-005, 1.26785308e-004, 1.39924974e-004,
          3.55838885e-004, -6.12102667e-005, 2.07502399e-005,
          -1.81745738e-004, -1.19255863e-004, 1.73772263e-004,
          -1.51242624e-004, 1.43899626e-004, -4.04348611e-005,
          -1.98471298e-005, -2.26171571e-004, -1.40763586e-004,
          4.78695620e-005, 2.18693294e-005, 0., 0., 0., 0., 0., 0.,
          -9.14131379e-005, -1.59255665e-004, -1.70321160e-004,
          1.84605582e-004, -3.77418728e-005, 4.11332949e-005,
          -9.35403004e-005, -2.46583426e-004, 3.31527088e-004,
          5.16121741e-004, 1.37654017e-004, -6.74541807e-005,
          -7.83657160e-005, -2.10688268e-006, -2.28178644e-004,
          -1.21286444e-004, -3.55939555e-005, -2.20875620e-004,
          -1.21885814e-005, -1.86686812e-005, 5.62489913e-005,
          4.93866582e-006, 0., 0., 0., 0., 0., 0., -6.95351700e-005,
          -1.44481193e-004, -3.86829670e-005, 2.82822862e-006,
          -3.18223611e-005, -4.91617320e-005, 3.30773514e-006,
          -2.53165217e-005, -3.33085627e-005, 3.44545842e-005,
          -8.69594078e-005, 1.39308642e-004, 1.94369291e-004,
          -2.89421820e-004, 8.03037619e-005, -8.17265845e-006,
          -1.24168946e-004, -2.47151947e-005, 2.52606587e-005,
          4.64689401e-005, 1.10972123e-005, 0., 0., 0., 0., 0., 0., 0.,
          0., 6.35517135e-005, 2.77084437e-005, -1.89230428e-004,
          -7.62010895e-005, -7.22480618e-005, -1.05598861e-004,
          -2.14943750e-004, -2.49623699e-004, 2.80473178e-005,
          8.93948527e-005, 2.69698037e-004, -1.03188977e-004,
          -1.18320320e-004, -9.78313547e-005, -1.24637241e-004,
          -2.82240089e-005, -1.40957718e-006, 0., 0., 0., 0., 0., 0., 0.,
          0., 0., 0., 0., 0., -1.48603067e-004, -2.21743641e-004,
          -2.96045182e-004, -2.96045182e-004, -2.96045182e-004,
          -2.97825027e-004, -3.55131342e-004, -4.32388100e-004,
          -3.03232489e-004, -2.07075311e-004, -2.06510391e-004,
          -1.89285667e-004, -6.54099058e-005, -3.55972297e-005, 0., 0.,
          0., 0., 0., 0., 0., 0., 0., 0., 0., 0., 0., 0.,
          -7.43015335e-005, -1.48603067e-004, -1.48603067e-004,
          -1.48603067e-004, -1.48603067e-004, -2.11874329e-004,
          -2.79664964e-004, -2.91528326e-004, -1.42925273e-004,
          -1.42925273e-004, -1.13549322e-004, 0., 0., 0., 0., 0., 0., 0.,
          0., 0., 0., 0., 0., 0., 0., 0., 0., 0., 0., 0., 0., 0., 0., 0.,
          0., 0., 0., 0., 0., 0., 0., 0., 0., 0., 0., 0., 0., 0., 0., 0.,
          0. ]
      - [ 0., 0., 0., 0., 0., 0., 0., 0., 0., 0., 0., 0., 0., 0., 0., 0.,
          0., 0., 0., 0., 0., 0., 0., 0., 0., 0., 0., 0., 0., 0., 0., 0.,
          0., 0., 0., 0., 0., 0., 0., 0., 0., 0., 0., 1.79103416e-004,
          4.89549304e-004, 2.32834442e-004, 0., 0., 0., 0., 0., 0., 0.,
          0., 0., 0., 0., 0., 0., 0., 0., 0., 0., 0., 0., 0., 0., 0., 0.,
          -9.42583665e-006, -6.16304751e-005, -1.10146430e-004,
          -2.32357152e-007, -3.05251706e-005, 0., 0., 0., 0., 0., 0., 0.,
          0., 0., 0., 0., 0., 0., 0., 0., 0., -9.32578496e-006,
          -7.64112701e-005, -7.64112701e-005, -2.34648778e-005,
          8.67500512e-006, 4.60442570e-005, 7.77413952e-005,
          3.39342114e-005, -6.96349671e-005, -1.79601862e-004,
          1.20659206e-005, 1.30822067e-004, 2.82676687e-004,
          1.12507107e-004, -2.05656484e-004, -1.36249262e-004,
          -5.20717294e-005, -1.92295338e-005, 0., 0., 0., 0., 0., 0., 0.,
          0., 0., -1.18686830e-005, -2.84369053e-005, -8.24414201e-006,
          4.48617038e-006, 2.03455693e-006, 1.34939241e-004,
          2.78768770e-004, 1.09419467e-004, -6.40902435e-005,
          -2.60652567e-004, 5.63093749e-007, 2.59229419e-004,
          -1.12285328e-004, -3.15145771e-005, 2.56764688e-005,
          -1.30271335e-004, -2.32493956e-004, 4.41170050e-005,
          7.66814774e-005, -2.84848997e-004, -2.22064511e-004, 0., 0.,
          0., 0., 0., 0., 0., -4.54977417e-005, 4.48370047e-005,
          2.88037299e-005, -1.08787528e-004, 5.73677244e-006,
          1.74373810e-004, 1.86349760e-004, 1.00048434e-004,
          1.39560332e-004, -8.21461217e-005, 1.72090542e-004,
          2.25517302e-004, 1.41958124e-004, 8.50587821e-005,
          -4.09905042e-005, -2.61959358e-004, -4.95352433e-005,
          -2.30981561e-004, -4.46344522e-004, -1.93184023e-004, 0., 0.,
          0., 0., 0., 0., 0., -1.47552091e-005, -1.86324287e-005,
          4.56410962e-005, 3.72779832e-005, -8.98943181e-005,
          -2.25555763e-004, 1.33656897e-004, -6.45591499e-005,
          -1.77606838e-004, 6.09448907e-005, 5.33794577e-004,
          7.02643956e-005, 1.40622855e-004, -1.13224211e-004,
          -1.34813527e-004, -1.77817012e-004, -3.34179931e-004,
          -1.27938925e-004, 3.46375818e-005, -3.66231805e-004,
          -2.23501775e-004, 0., 0., 0., 0., 0., 0., 0., -4.01401085e-005,
          -1.86237565e-004, -3.16498772e-005, -2.13644467e-004,
          -1.41723460e-004, 2.23686093e-005, -1.44288759e-004,
          -1.04089369e-004, -3.83701190e-005, 5.43036091e-004,
          5.19022462e-004, 1.44057412e-004, 3.27559392e-004,
          2.95578677e-004, -6.30903451e-005, -1.04550294e-004,
          -6.86412532e-005, -4.54235589e-004, 3.39533062e-006,
          -5.87297473e-005, -2.27847831e-005, 5.23248855e-005,
          -4.77613430e-005, 0., 4.22777157e-005, 0., 0., 0.,
          -1.01725265e-004, -1.73639259e-004, 2.29569505e-005,
          -9.38074008e-005, 4.77694957e-005, 3.61698942e-004,
          -1.31112174e-004, -8.29337514e-005, 5.74001897e-005,
          6.93174070e-006, 2.57883716e-004, 3.96425457e-004,
          3.70789465e-004, 2.78681371e-004, 5.94298353e-006,
          1.86834641e-005, 6.46499029e-006, 2.69246157e-005,
          2.93725170e-004, -1.20992969e-004, -3.11079290e-004,
          -1.05833562e-004, -1.02403552e-004, 0., 0., 0.,
          8.49736716e-006, 1.88830381e-006, -5.51188277e-005,
          1.73072240e-005, 2.67889496e-004, -5.25613068e-005,
          -4.63073011e-005, 1.86625883e-004, 3.69573041e-004,
          1.62008990e-004, 2.67338153e-004, -3.18342791e-004,
          -4.09254935e-005, 3.22011067e-004, 4.38219548e-004,
          -2.29838406e-004, -3.31266318e-004, 3.68122448e-004,
          2.55459337e-004, -4.07266663e-004, 8.68509742e-005,
          -1.01803716e-005, -1.21378172e-004, -8.92757744e-005,
          -8.05466698e-005, 0., 0., 0., 4.37457056e-005, 4.08664819e-005,
          5.52339116e-005, 1.11415131e-004, 9.85055085e-005,
          7.36137463e-006, 3.73473813e-005, 2.33623796e-004,
          -3.00580832e-005, 3.11068463e-004, 1.63832898e-004,
          3.91880109e-004, 4.13308502e-004, 3.11259559e-004,
          4.01534489e-004, 1.70214975e-004, 4.49356128e-004,
          2.92407465e-004, 4.57380054e-004, -6.22485604e-005,
          3.25388712e-004, 3.54397198e-004, -3.09236930e-005,
          -1.50789310e-005, -5.26184249e-006, 0., 0., 1.47559485e-005,
          0., 1.41855009e-004, 2.37775443e-004, 5.28690580e-005,
          -6.76968193e-005, 2.31248869e-005, 4.60063748e-005,
          -1.28853542e-004, -3.74330644e-004, 1.11971174e-004,
          -4.23012883e-004, 8.73781828e-005, 1.11354799e-004,
          3.03978100e-004, 6.14702949e-005, 3.25950299e-004,
          1.55741887e-004, 8.37092884e-005, 3.93686962e-004,
          -5.67979041e-005, 4.62977419e-004, 6.07572845e-004,
          3.50882969e-004, 9.76927113e-005, 0., 0., 0., 0., 0.,
          1.33244437e-004, 1.92616048e-004, -7.21661345e-005,
          1.64570316e-004, -4.61553500e-005, -2.73671962e-004,
          -9.61215264e-005, 1.02054335e-004, -9.72959460e-005,
          -3.49303038e-004, -2.16213921e-005, 1.47996307e-005,
          7.78781759e-005, 1.03283361e-004, 4.62950738e-005,
          7.04146078e-005, 2.16408560e-004, 2.55517865e-004,
          6.35838751e-006, 3.86774685e-004, 3.60690698e-004,
          9.04015542e-005, -1.91288884e-004, -1.16400930e-004, 0., 0.,
          0., 0., 1.13787777e-004, 7.90410049e-005, -2.02931951e-005,
          2.15712091e-004, 2.82865567e-005, 7.95740707e-005,
          3.30722512e-004, -2.64641916e-004, -4.29275970e-004,
          -2.72840516e-005, -2.18540663e-004, -6.72073569e-004,
          -1.85174780e-004, -3.56169970e-004, -4.80493531e-004,
          -1.62184311e-004, 2.28028352e-004, 1.33526293e-004,
          2.82888039e-004, 4.13597299e-004, 9.51168040e-005,
          -1.57697781e-004, -3.21378408e-004, -2.47505144e-004, 0., 0.,
          0., 0., -3.78399709e-005, -2.32976992e-004, 5.25416690e-004,
          1.35507697e-004, -2.09489386e-004, -4.85375349e-005,
          3.24783672e-004, -6.15131576e-005, -1.00732766e-004,
          -2.46094733e-005, -1.36323206e-006, -8.86766880e-004,
          -5.96624624e-004, -7.47311802e-004, -1.18972275e-005,
          1.07493302e-004, 3.57462050e-005, -4.60733136e-005,
          3.01621767e-004, 2.06534285e-004, -3.75579955e-004,
          2.35955929e-004, -2.12312443e-005, -1.71749416e-005, 0., 0.,
          0., 0., -3.56980854e-005, 1.41939709e-005, 1.48876570e-004,
          -8.41315559e-005, 6.07470320e-005, -8.84910914e-005,
          -1.21863581e-004, 5.91551270e-006, -2.25351483e-004,
          -1.76283982e-004, 2.12430714e-005, -5.52312238e-004,
          -2.30104357e-004, -3.36737779e-004, -2.48363533e-004,
          2.64791706e-005, 1.27201842e-004, 4.63634351e-005,
          2.19746202e-004, 1.81216266e-004, 8.88795548e-005,
          5.57143823e-004, 4.26050865e-005, -8.19860434e-005, 0., 0., 0.,
          0., 0., -1.21533478e-004, -9.87351523e-005, 2.75577186e-005,
          -3.09098868e-005, 9.50521098e-006, -3.47237365e-004,
          2.05877193e-004, -6.42115847e-005, -1.15031791e-004,
          -1.76910427e-004, -2.62744234e-005, -5.36935695e-004,
          -2.99785141e-004, -2.16009808e-004, -2.23695552e-005,
          -2.43446601e-004, -2.80034554e-004, -3.12807300e-004,
          7.26627622e-005, 2.20252899e-004, 3.38600075e-004,
          -6.82954123e-005, -8.19860434e-005, 1.16886295e-005, 0., 0.,
          0., -3.06370275e-005, 2.31963531e-005, -2.82562214e-005,
          -8.03652947e-005, 2.99358624e-004, 2.58585875e-004,
          1.65947087e-004, 3.34577373e-004, 2.45675270e-004,
          1.47081460e-004, -8.84660476e-005, -2.92961282e-004,
          -3.07100796e-004, -1.73838620e-004, -9.56579825e-005,
          -9.88901957e-005, -7.86766686e-005, -1.54555542e-004,
          -2.86046678e-004, 2.82764144e-004, 2.18204423e-006,
          1.12951411e-005, -4.86083263e-005, -2.94890506e-005,
          1.01301455e-004, 0., 0., 0., -8.97981809e-005, 3.20392282e-004,
          -8.60349392e-005, -3.04649118e-004, 1.29988810e-004,
          3.81380669e-004, 2.28282050e-004, 2.74803548e-004,
          -1.72438624e-004, -2.82380381e-004, -2.24129399e-004,
          -3.11141514e-004, -3.96932330e-004, -3.08041432e-004,
          -3.12803459e-005, -4.48215724e-004, -2.12920655e-004,
          -5.48102835e-004, -1.05364059e-004, 6.27697445e-005,
          -3.74309784e-005, -6.13502198e-005, 0., 0., 0., 0., 0., 0.,
          -2.68338103e-004, 1.85857629e-004, 1.30402579e-004,
          1.13890223e-004, 3.78636323e-004, 2.18536006e-004,
          7.79080874e-005, 2.12232204e-004, 3.60458071e-005,
          4.21163480e-004, 4.74698434e-004, -4.50412626e-005,
          -7.43466007e-005, -3.30867857e-004, 1.80403964e-004,
          -1.49511878e-004, -4.71177782e-006, -3.20895560e-006,
          -8.57878695e-005, -5.34192950e-005, -1.32261295e-004,
          -5.25662363e-005, 0., 0., 0., 0., 0., 0., -1.46846447e-004,
          1.04652121e-004, 2.64668226e-004, 1.35329668e-004,
          2.24658448e-004, 4.15256975e-004, 1.48882245e-004,
          9.79168035e-005, 4.58615134e-004, 6.95337134e-004,
          1.53054687e-004, -7.34604764e-005, -2.23770781e-004,
          -2.47285381e-004, 2.48292417e-005, -9.85303705e-005,
          -1.60460331e-004, -1.55570277e-004, -1.16190909e-004,
          -2.90941651e-004, -2.09573263e-004, -1.36758579e-004, 0., 0.,
          0., 0., 0., 0., -6.02176042e-005, 7.59523609e-005,
          1.44919368e-005, 3.01361899e-004, 5.44734241e-004,
          -1.92658030e-004, 3.08567542e-004, 3.36526195e-004,
          4.45395388e-004, 3.39402759e-004, 1.69011662e-004,
          -5.81250933e-005, -7.47436570e-005, 2.36290289e-004,
          -2.47079734e-005, -6.24341774e-005, -2.62849615e-004,
          -3.71080998e-004, -3.63002939e-004, -4.43558849e-004,
          -1.86379184e-004, -1.70822037e-004, 0., 1.86152494e-004, 0.,
          0., 0., 0., 0., 1.20658682e-004, 1.67842707e-004,
          3.85910302e-004, 3.10027390e-004, 3.66075779e-004,
          5.38378779e-004, 2.99183710e-004, 4.12885274e-004,
          6.51026843e-004, 3.83454491e-004, 4.30699176e-004,
          3.86590516e-004, -4.53507855e-005, -2.00612922e-004,
          -2.32575869e-004, -1.61048200e-004, -3.97587777e-004,
          -4.42727527e-004, -3.46041285e-004, -1.08253982e-004,
          -1.59531395e-004, 0., 1.91909785e-005, 0., 0., 0., 0., 0.,
          7.69038525e-005, 2.13495354e-004, 3.09973228e-004,
          1.07526896e-004, -5.48144271e-005, 3.19894389e-005,
          2.03504605e-004, 1.30190005e-004, -4.64870100e-005,
          2.83145520e-004, 2.82158144e-004, -3.78106342e-005,
          -3.28991679e-004, 1.34105430e-004, 1.84214528e-004,
          -2.61799341e-005, -4.93187341e-004, -3.92871618e-004,
          -5.20762915e-005, -4.55279660e-005, -6.57195560e-005, 0., 0.,
          0., 0., 0., 0., 0., 7.69038525e-005, 9.51346374e-005,
          1.93636733e-005, -1.37746087e-004, -4.37283539e-004,
          -3.05190479e-004, 3.26567133e-005, -3.84457904e-004,
          -1.48472449e-004, -9.04154786e-006, -2.07050525e-005,
          5.49339711e-005, 2.00059905e-004, 5.17992012e-004,
          1.44406498e-004, -1.65382095e-004, -1.18350923e-004,
          -5.16057189e-005, -1.29014297e-005, 0., 0., 0., 0., 0., 0., 0.,
          0., 0., -6.86463463e-005, -2.42823648e-004, -1.32169836e-004,
          -6.45480541e-005, -1.17290278e-004, -3.70850234e-004,
          -4.14479262e-004, -2.67238647e-004, -1.08783614e-004,
          -3.49495203e-005, -2.01909497e-005, -8.99068691e-005,
          -7.69541875e-005, -1.14288389e-006, 0., 0., 0., 0., 0., 0., 0.,
          0., 0., 0., 0., 0., 0., 0., -6.96709176e-005, -2.59216788e-004,
          -2.49995646e-004, -5.32777594e-005, 0., 0., 0., 0., 0., 0., 0.,
          0., 0., 0., 0., 0., 0., 0., 0., 0., 0., 0., 0., 0., 0., 0., 0.,
          0., 0., 0., 0., 0., 0., 0., 0., 0., 0., 0., 0., 0., 0., 0., 0.,
          0., 0., 0., 0., 0., 0., 0., 0., 0. ]
      - [ 0., 0., 0., 0., 0., 0., 0., 0., 0., 0., 0., 0., 0., 0., 0., 0.,
          0., 0., 0., 0., 0., 0., 0., 0., 0., 0., 0., 0., 0., 0., 0., 0.,
          0., 0., 0., 0., 0., 0., 0., 0., 0., 0., 0., 1.02435202e-004,
          2.79989559e-004, 1.33165770e-004, 0., 0., 0., 0., 0., 0., 0.,
          0., 0., 0., 0., 0., 0., 0., 0., 0., 0., 0., 0., 0., 0., 0., 0.,
          0., 0., 0., 5.12176011e-005, 2.27633791e-006, 0., 0., 0., 0.,
          0., 0., 0., 0., 0., 0., 0., 0., 0., 0., 0., 0., 0., 0., 0., 0.,
          7.01802346e-005, 6.01808642e-005, 4.28672211e-005,
          7.90096165e-005, -6.03503941e-005, -1.16536139e-005,
          6.12101358e-005, -1.10453853e-004, -1.76149479e-004,
          -2.80581298e-004, -1.59647650e-004, -8.39144413e-005,
          -1.11602872e-004, -8.66585178e-005, -5.33886523e-005, 0., 0.,
          0., 0., 0., 0., 0., 0., 0., -2.77030358e-006, -4.48171304e-005,
          4.60017473e-005, 4.30165201e-005, -4.00967619e-005,
          4.24458885e-005, 9.22875333e-005, 2.08546087e-004,
          1.09437417e-004, 9.43634659e-005, -1.74016568e-005,
          4.71026615e-005, 4.20211072e-005, 1.11251007e-004,
          2.25724099e-004, -9.08775837e-005, -1.19930250e-004,
          -1.15593219e-004, -1.42549325e-004, 0., 0., 0., 0., 0., 0., 0.,
          0., -3.94400267e-005, -8.98289582e-005, 1.76238627e-005,
          -5.17733088e-006, -6.20174687e-005, 2.62179878e-004,
          -1.05820160e-004, -1.74579109e-004, -6.15272220e-005,
          5.33296989e-005, 5.56991035e-005, -9.69471876e-005,
          -1.13075266e-005, 3.13658493e-005, 1.37211493e-004,
          -1.00753437e-004, -9.36542056e-005, -1.02111859e-004,
          -9.07684953e-005, -9.09828595e-005, -6.45498460e-007, 0., 0.,
          0., 0., 0., 0., 0., -3.14053214e-005, -3.46336601e-005,
          -2.34929703e-005, -2.44125156e-004, -5.11448670e-005,
          -1.33102250e-004, 4.18371819e-005, -1.90409744e-004,
          -6.99022567e-005, -7.71037958e-005, -4.09983331e-004,
          7.99848131e-005, -9.92826244e-005, -1.80899195e-004,
          -2.04160606e-004, -7.12934052e-005, 1.10953326e-004,
          2.09602469e-004, 6.96810966e-005, -2.01107789e-004,
          -7.63222124e-005, 0., 0., 0., 0., 0., 0., 0., 2.78510815e-005,
          -9.13232088e-006, 5.03364354e-005, -9.80049372e-005,
          5.92115975e-005, -2.58522778e-004, 1.40420147e-004,
          1.59967094e-004, -1.94662192e-004, -2.27540339e-004,
          -1.92608597e-004, 5.99960149e-005, -1.90668125e-005,
          1.94755645e-004, -6.18963022e-005, -1.89545986e-004,
          -1.07351887e-004, -4.50540829e-005, 1.45393715e-004,
          -4.10927933e-005, -2.66979594e-004, 0., 0., 0., 0., 0., 0.,
          -4.05801529e-006, -7.75186709e-005, 1.00727462e-004,
          5.89232150e-005, -6.44196625e-005, 1.52246910e-004,
          5.15304191e-006, -1.61753778e-005, 3.37297824e-005,
          -1.68589377e-005, 6.32440278e-005, 2.01379480e-005,
          1.64991376e-004, 1.64648198e-004, 1.75156281e-004,
          2.03822230e-004, -1.91370593e-004, -1.31921828e-004,
          4.91910505e-005, -1.05981526e-004, -2.34584149e-004,
          -2.50816549e-004, 0., 0., 0., 0., 2.14185657e-005,
          4.75968136e-006, 1.25326060e-005, -2.83741720e-005,
          2.09165461e-004, -4.18920681e-005, -1.61267933e-004,
          2.86362687e-004, -7.84363947e-005, -3.43342050e-004,
          -1.48844803e-004, 1.26972038e-004, -2.45772622e-004,
          -1.68082232e-004, 9.48424895e-006, -1.65758742e-004,
          -1.54482928e-004, 3.76831478e-004, 3.73916497e-004,
          7.91690691e-005, -1.40970569e-005, 1.04296414e-004,
          -4.06814768e-004, -2.80025240e-004, -4.19417593e-005, 0., 0.,
          0., 1.10265952e-004, 1.06662592e-004, 2.86457780e-005,
          -1.07141359e-005, -1.73085846e-005, 5.27876837e-005,
          8.83391294e-006, 6.90478046e-005, -1.32210655e-004,
          -2.12150371e-005, 6.95325434e-005, 1.59575909e-004,
          -2.67819978e-005, 2.39455694e-005, 1.12072055e-004,
          4.95631211e-005, 8.40268549e-005, 2.51958772e-005,
          1.41770972e-004, -9.59294775e-005, 2.12729879e-004,
          2.68702279e-004, -5.07388089e-004, -2.90868687e-004,
          -8.55548496e-005, 0., 0., 0., 0., 1.08468506e-004,
          -4.70487685e-005, 2.69699249e-005, -3.09154479e-004,
          -2.41673079e-005, 1.77504073e-004, 5.49137985e-005,
          -1.88771257e-004, 6.26299370e-005, -1.92189269e-004,
          -1.02997146e-005, -1.27651787e-004, -2.12209663e-004,
          -1.58285678e-004, -3.93436239e-005, 9.79988690e-005,
          1.95199143e-004, 1.58385839e-004, 5.59932923e-005,
          2.97792343e-004, 2.38342589e-004, -1.38747506e-004,
          2.13906660e-005, -1.19059114e-004, 0., 0., 0., 0.,
          8.64870017e-005, 2.33041064e-005, 4.07445659e-005,
          -2.74133727e-005, -1.26560670e-004, 1.40213990e-004,
          8.54629325e-005, -2.77657473e-005, -2.45684041e-005,
          -4.51091582e-005, 2.21837690e-004, 2.22049915e-004,
          6.62031962e-005, -1.01545578e-004, 2.21090686e-005,
          1.20305209e-004, 4.09286076e-005, 1.75236695e-004,
          3.23989312e-004, -1.96792607e-005, 2.22075498e-004,
          3.29782662e-004, 2.48808374e-005, -1.36547475e-004, 0., 0., 0.,
          0., 5.33486527e-005, 5.09458769e-005, 1.34426198e-004,
          1.37649127e-004, -1.40401622e-004, -9.88708780e-005,
          3.29691029e-005, -2.22747622e-005, 8.59964930e-005,
          -2.82766314e-006, -1.91154046e-004, -2.78440566e-004,
          -6.64562249e-005, -2.71819095e-004, 4.70990053e-005,
          5.76545863e-005, -8.26990458e-007, -1.27477382e-004,
          1.05577456e-004, 4.77404246e-004, 3.65384767e-004,
          4.81117691e-004, 1.73804117e-004, -2.54544666e-005, 0., 0., 0.,
          0., -9.56463118e-005, 5.31666842e-007, 2.94449244e-004,
          2.11518811e-004, 2.20500355e-004, -7.62736745e-005,
          5.26118856e-005, 1.47746192e-004, 1.49509957e-004,
          1.87747995e-004, -1.69229927e-004, -8.41656467e-004,
          8.75705009e-005, -3.91345180e-004, 2.08506361e-004,
          -1.16600540e-005, -5.88958319e-005, -9.84029029e-005,
          3.03022331e-004, 2.72466801e-004, 3.37847712e-004,
          2.82983761e-004, 1.18366799e-004, 0., 0., 0., 0., 0.,
          -1.26073253e-004, -7.06193969e-005, 8.12593862e-005,
          3.51019873e-004, 1.57528193e-004, -1.92388150e-004,
          -1.86672492e-004, -1.21113306e-004, -2.03251999e-004,
          -4.28063795e-005, -1.65393532e-004, -4.75324487e-004,
          2.19675625e-004, 1.36761082e-004, 6.71450543e-005,
          -1.20334320e-004, 8.10964502e-006, 1.21188648e-004,
          -1.07829910e-004, 1.31425157e-004, 1.21313053e-004,
          8.62415036e-005, 1.07548394e-005, 0., 0., 0., 0., 0.,
          -1.15423943e-004, 2.18951391e-004, 1.60763057e-006,
          8.13619044e-005, -4.74262997e-005, -6.22850712e-005,
          1.25102408e-004, -3.61210587e-005, 9.31424584e-005,
          -1.58044437e-004, -1.91428073e-004, 1.43950048e-004,
          -6.74825860e-005, 3.14224773e-004, 2.03947304e-004,
          -5.03059891e-005, 8.21312060e-005, 2.93032033e-004,
          -1.98722246e-005, 7.25394639e-005, -6.54399046e-005,
          1.22429965e-005, 4.12741319e-005, 0., 0., 0., 0., 0.,
          -3.80308375e-005, 3.50203918e-004, 1.58447685e-004,
          2.85786700e-005, -2.11877195e-005, -1.47485116e-004,
          3.09056515e-004, 1.36309653e-004, 3.76690332e-005,
          2.36851658e-004, -1.43512210e-004, -1.77246242e-004,
          -8.56495899e-005, 4.02476981e-005, -1.03000319e-004,
          1.43770812e-004, -1.42980483e-004, 3.42638559e-005,
          -4.49860308e-005, -8.48092677e-005, -5.00916249e-005,
          8.34212333e-005, 5.63810318e-006, 0., 0., 0., 0., 0., 0.,
          5.63875838e-005, -4.95374006e-005, -1.87682905e-004,
          2.34780280e-004, 1.95251196e-004, 1.59569739e-004,
          6.81699748e-005, 4.79437258e-005, -7.93486615e-005,
          2.39640194e-005, -1.69738851e-004, 1.55223737e-004,
          -2.34277162e-004, 9.44682979e-005, -2.58882992e-005,
          -2.05051852e-004, -2.57496402e-004, 1.20841660e-005,
          -3.68934634e-005, -1.61272419e-005, 2.32974071e-005,
          3.17618724e-005, 0., 0., 0., 0., 0., 0., -3.23445092e-005,
          -1.08842090e-004, -7.07010695e-005, 1.48271400e-004,
          2.23117197e-004, 2.32513223e-004, 2.09909267e-004,
          4.96908160e-006, -1.30810557e-004, -7.73949751e-007,
          3.40808219e-005, 1.16499386e-005, 1.91449635e-005,
          -1.39465963e-004, -2.81641260e-004, 7.58209790e-005,
          -2.32638544e-004, 1.67872320e-004, 6.81118490e-006,
          4.74017943e-005, -1.97118825e-005, -1.06329435e-005, 0., 0.,
          0., 0., 0., 0., -2.12776431e-004, -3.77915676e-005,
          -2.28570789e-004, 1.56803464e-004, -8.38745254e-005,
          -2.39501853e-004, 5.73579882e-006, 6.10193047e-006,
          1.89199709e-004, 1.20661338e-004, 2.10436410e-005,
          -1.14094488e-004, -3.06026894e-004, -7.61712290e-005,
          -6.36421009e-006, 2.74602382e-004, 2.96415121e-004,
          -2.04606386e-005, -4.51470150e-005, -5.84538066e-005,
          -4.16970470e-005, -5.90959608e-005, 0., 0., 0., 0., 0., 0.,
          5.18737470e-005, 1.35260279e-005, -5.41647896e-005,
          1.42841003e-004, -5.29155623e-005, -2.23432762e-005,
          4.41291486e-005, -2.20194241e-004, 2.78672578e-005,
          1.07744141e-004, 7.64264405e-005, 1.67483551e-004,
          2.70303921e-004, 1.00296056e-004, 1.65264355e-004,
          1.71119013e-004, 3.01565651e-005, -1.60757947e-004,
          -5.30911984e-006, 8.88903451e-005, 5.08228004e-005,
          -8.24425151e-005, -6.56621796e-006, 0., 0., 0., 0.,
          -7.48749153e-005, 7.07579820e-005, 8.83828761e-005,
          1.57076371e-004, -3.09909738e-005, 6.95531926e-005,
          -4.79375449e-005, 1.18207572e-004, -4.12696245e-004,
          2.09274745e-004, 1.36597242e-004, 7.54956709e-005,
          3.00287036e-004, -1.42322984e-004, 1.02474252e-004,
          -2.51701509e-004, -9.59167228e-005, -1.09144319e-004,
          -3.31764422e-005, 2.42194874e-005, 5.11164253e-005,
          -3.90802852e-005, -9.26566281e-005, -3.50198279e-005, 0., 0.,
          0., 0., -5.75258491e-005, -3.82505168e-005, -5.95928723e-005,
          -2.59583485e-005, -1.05241394e-004, -2.61640653e-005,
          2.32499515e-005, 1.91519313e-004, 7.76628804e-005,
          3.53469986e-005, 1.54653026e-004, 1.33667301e-004,
          2.27548982e-004, -1.11617584e-004, 2.29637750e-004,
          -1.60118725e-004, -2.59738532e-004, 5.05165053e-006,
          -7.34111309e-005, 1.04746432e-004, -2.75010989e-005,
          -9.18148289e-005, -9.26566281e-005, -2.11578135e-005, 0., 0.,
          0., 0., 0., -1.49162006e-005, -6.25541506e-005,
          -8.27948461e-005, -1.50913693e-004, -1.71005289e-004,
          -2.29903708e-005, -5.11354046e-005, -1.76111454e-004,
          -7.83379364e-005, 5.16148539e-005, -7.60619587e-005,
          6.42656014e-005, 3.43192551e-005, 5.78090403e-005,
          -8.88838895e-006, -7.77830355e-005, -4.25470462e-005,
          4.78956790e-005, 2.56748881e-005, 0., 0., 0., 0., 0., 0., 0.,
          0., 0., 0., 0., -1.14496106e-005, -1.88100748e-005,
          -4.28334388e-005, -1.86060381e-004, -2.49134435e-004,
          -2.29848854e-004, -7.62782875e-005, -5.58440079e-005,
          -7.10996828e-005, -1.00606427e-004, -1.11491878e-004,
          -9.19124941e-005, -8.98870348e-005, -6.00431194e-005,
          -1.66983828e-005, 0., 0., 0., 0., 0., 0., 0., 0., 0., 0., 0.,
          0., 0., 0., 0., -9.67296182e-006, -9.23767802e-005,
          -4.98157497e-005, -5.32012882e-006, 0., 0., 0., 0., 0., 0., 0.,
          0., 0., 0., 0., 0., 0., 0., 0., 0., 0., 0., 0., 0., 0., 0., 0.,
          0., 0., 0., 0., 0., 0., 0., 0., 0., 0., 0., 0., 0., 0., 0., 0.,
          0., 0., 0., 0., 0. ]
      - [ 0., 0., 0., 0., 0., 0., 0., 0., 0., 0., 0., 0., 0., 0., 0., 0.,
          0., 0., 0., 0., 0., 0., 0., 0., 0., 0., 0., 0., 0., 0., 0., 0.,
          0., 0., 0., 0., 0., 0., -1.78438131e-005, -1.69516221e-004,
          -9.45722059e-005, 0., 0., 9.97957250e-005, 2.72774982e-004,
          1.29734442e-004, 0., 0., 0., 0., 0., 0., 0., 0., 0., 0., 0.,
          0., 0., 0., 0., 0., 0., 0., 0., 0., -1.04386309e-004,
          -2.26616423e-004, -1.82344651e-004, -5.71311793e-005,
          -1.31166365e-004, -1.04686340e-004, -4.24129612e-005,
          -1.49796673e-004, -1.14830553e-004, -1.67791472e-006, 0., 0.,
          0., 0., 0., 0., 0., 0., 0., 0., 0., 0., 0., -2.73064106e-005,
          -6.08705377e-005, -4.92084255e-005, -2.49569553e-007,
          -4.27450505e-005, -2.74256221e-004, -4.60173651e-005,
          1.20515084e-004, -1.59667237e-004, -3.62371735e-004,
          -2.20549482e-004, 4.53684333e-005, 1.02809834e-004,
          -5.82998655e-005, 1.32454115e-005, 1.32529574e-004,
          2.90345106e-005, -7.20726939e-006, -5.50692039e-006,
          -4.23609265e-007, 0., 0., 0., 0., 0., 0., 0., 0.,
          -1.52942142e-004, -1.42166973e-004, -2.22697163e-005,
          -1.65900012e-004, -3.82723629e-005, -2.86360329e-004,
          1.72959655e-004, 8.69248906e-005, 6.33102900e-005,
          -8.66417831e-005, 2.83154259e-005, -4.87538018e-005,
          1.92458479e-004, -6.50560614e-005, 1.54631300e-004,
          -7.00823948e-005, -3.26054869e-004, -2.64870148e-004,
          -2.76351173e-004, -8.03820585e-005, 0., 0., 0., 0., 0.,
          -4.07387270e-005, 0., 0., -1.24501894e-004, -9.93673893e-005,
          -2.95414473e-004, -1.40392731e-004, 6.60103324e-005,
          8.89451258e-005, -1.14540462e-005, 1.62231172e-005,
          -9.01873864e-005, -1.38551331e-004, 1.06408206e-005,
          -1.74016881e-004, -9.29875532e-005, -1.44186459e-004,
          -2.60060333e-004, -2.41567992e-004, -5.25139694e-005,
          -1.78860253e-004, -2.14358835e-004, -2.89342599e-004, 0., 0.,
          0., 0., 0., -1.81061012e-006, 0., 0., -1.01564074e-004,
          2.03515697e-006, -1.51918401e-004, 2.44282564e-004,
          1.31090812e-004, 4.47664752e-005, 5.67565876e-005,
          8.73906756e-005, 4.85338605e-005, -7.51909538e-005,
          -2.08525758e-004, -7.58115348e-005, 1.52020672e-004,
          2.80945853e-004, 2.10995713e-004, -7.77662644e-005,
          3.16593854e-004, 2.07119258e-004, -1.27386607e-004,
          -1.88491933e-004, -5.24524294e-005, 0., 0., 0., 0., 0., 0., 0.,
          -1.02490158e-004, -4.04699676e-005, -7.82880215e-006,
          1.32719972e-004, 5.71652708e-005, -5.78291838e-005,
          -7.17378061e-005, -6.79010845e-005, 3.16333171e-004,
          -3.50354458e-005, -1.01562131e-004, -1.70733329e-004,
          1.34454822e-004, -4.32444722e-005, -5.15313186e-005,
          -1.43942074e-004, -8.02127252e-005, 2.02613126e-004,
          1.93671571e-004, -1.27532958e-005, -1.51917620e-005, 0., 0.,
          0., 0., 0., 0., 0., -1.00719793e-004, -1.10520647e-004,
          -4.44769830e-005, -8.79168965e-006, 1.42833369e-005,
          1.35630704e-004, -2.25223965e-004, -2.28253964e-004,
          1.88253325e-004, 1.70300234e-004, 2.49771227e-004,
          2.96278304e-004, 1.18499942e-004, 2.84229434e-004,
          4.77992988e-004, -4.93826701e-005, -2.36686450e-004,
          -3.40660381e-006, 4.20367978e-005, 2.32217935e-004,
          1.35005303e-005, 0., 0., 0., 0., 0., 0., 0., -3.37939564e-005,
          3.33393218e-005, -2.95455538e-005, 1.41164826e-004,
          1.36644458e-005, -4.51252708e-006, -1.45667252e-006,
          7.21398537e-005, 1.76892834e-004, 2.02106618e-004,
          1.70383682e-005, 2.66925199e-004, 1.88396254e-004,
          2.56446328e-005, -2.96268026e-005, -8.20879941e-005,
          -1.98404145e-004, 6.99392622e-005, 1.11659050e-004,
          1.34732662e-004, 1.35005303e-005, 0., 0., 0., 0., 0.,
          6.70411100e-006, 6.36890536e-006, -7.39641837e-005,
          1.35923838e-004, 7.58136521e-005, 1.08195003e-004,
          5.64499896e-005, -6.44540341e-005, 1.80922172e-004,
          -9.58176097e-005, -2.73576479e-005, 1.59289164e-004,
          1.73062381e-005, 3.41709616e-004, 3.86058062e-004,
          4.89863778e-005, 3.26059271e-005, -2.60198158e-005,
          1.75377441e-004, 3.89481313e-004, 1.74876201e-004,
          -1.63256445e-005, 6.95481822e-006, 0., 0., 0., 0., 0.,
          8.51422083e-005, 9.21389656e-005, -2.31334940e-004,
          4.95509812e-005, -9.41012695e-005, 1.02345533e-004,
          -1.03104481e-004, 1.98105317e-006, 1.47136830e-004,
          -2.71590980e-004, -2.21180089e-004, 1.52457738e-004,
          2.46792362e-004, -2.92509594e-005, 1.59679359e-004,
          -1.14183538e-004, -1.73337670e-004, 2.39423811e-004,
          -3.62043397e-006, 3.69488786e-004, 2.92827404e-004,
          -1.10802786e-004, 0., 0., 0., 0., 0., 0., 8.54774189e-005,
          9.70394321e-005, -1.16504874e-004, -5.77655510e-006,
          -6.34675916e-006, -2.87397241e-004, -1.32219080e-004,
          -6.15260797e-005, -2.15525375e-004, -1.97191490e-004,
          1.34313872e-004, 1.42143312e-004, 5.85855996e-005,
          -4.06702835e-004, -2.21360417e-004, 3.88199842e-005,
          2.04978933e-004, 2.05968812e-004, 2.28496720e-004,
          1.95240020e-004, 6.52862218e-005, 7.26722574e-005,
          1.95748653e-005, 0., 0., 0., 0., 0., 7.57564558e-005,
          1.29735374e-004, -4.35291695e-005, -1.11012487e-004,
          -6.81901874e-005, -1.47695071e-004, -1.52237408e-004,
          -2.10761224e-004, -7.93583604e-005, -1.68644721e-004,
          -3.30007722e-004, -3.75378819e-004, -1.00712787e-004,
          5.46279007e-005, 3.82567996e-005, 8.25938041e-005,
          9.73911301e-005, -1.01342855e-004, 2.56529329e-005,
          5.84293921e-005, -2.77550353e-005, -2.04150318e-004,
          1.85848421e-005, 0., 0., 0., 0., 0., 0., 1.07228465e-004,
          -1.02280152e-004, 7.42594493e-005, 2.22104558e-004,
          -7.13795816e-005, -4.43886493e-005, -1.12355403e-004,
          -1.71162988e-004, -2.77081621e-004, -9.65231302e-005,
          -3.22427135e-004, -3.13901808e-004, -3.18838982e-004,
          -1.22665006e-004, 3.47897323e-004, 3.66763743e-005,
          -3.98432676e-005, 2.36192700e-005, -1.06484746e-004,
          3.94369592e-004, 3.44329819e-005, -5.73433390e-005, 0., 0., 0.,
          0., 0., 0., 1.96647932e-004, -7.49341852e-005,
          -2.46788477e-005, 1.43990241e-004, 1.17836629e-004,
          2.65179377e-004, 1.33880822e-004, -3.31150717e-004,
          -1.02741426e-004, -1.87256242e-004, -2.08136640e-004,
          -1.03410603e-004, -2.25543714e-004, -3.35842429e-004,
          3.55546334e-004, -6.01000502e-005, 2.50402063e-005,
          -2.19091206e-004, 1.08787564e-004, 9.21923638e-005,
          2.44388735e-004, -1.01591104e-004, 0., 0., 0., 0., 0., 0.,
          2.40968686e-004, -5.63575595e-005, 7.63333592e-005,
          9.03490145e-005, 3.02648667e-004, 4.46959639e-005,
          -6.94290648e-005, -3.31800256e-004, -4.08448250e-006,
          -3.30309471e-004, -2.80936976e-004, -9.47109875e-005,
          -4.95541433e-004, -2.12200102e-005, 2.25304932e-004,
          1.82275398e-004, 2.66229443e-004, 5.23943600e-005,
          1.60358701e-004, 2.73876303e-005, -1.11150121e-005,
          -2.01407238e-004, 0., 5.26461145e-006, 0., 0., 0., 0.,
          1.66725818e-004, -6.39325492e-007, 5.98194310e-005,
          7.40221294e-005, 1.22675308e-004, 2.59375229e-004,
          2.73448927e-006, 2.78607658e-005, 2.52294063e-004,
          -1.11119756e-004, -6.48380883e-005, -1.63059856e-004,
          -1.94149150e-004, 2.06106139e-004, -2.92175304e-004,
          1.65639925e-004, 1.42267105e-004, 2.63663416e-004,
          3.38429061e-004, -5.12504776e-005, 1.47120381e-005,
          -6.46978015e-006, 0., 4.56266353e-005, 0., 0., 0., 0.,
          1.23312144e-004, -6.70511581e-005, -2.35182233e-004,
          3.89708403e-005, 1.33692243e-004, -1.14172901e-004,
          1.77199254e-004, 2.03599411e-004, 5.39694593e-005,
          -4.59919625e-004, -2.59932585e-005, 4.43640492e-005,
          -8.46510957e-005, -9.45244319e-005, -1.14776296e-004,
          -1.36510862e-004, -5.64334732e-005, -2.52617865e-005,
          1.97451445e-004, -3.39722319e-005, -9.63127604e-006,
          7.66907906e-005, 0., 0., 0., 0., 0., 0., 1.18913122e-005,
          5.08235680e-005, -1.77619717e-004, -1.10331755e-004,
          1.23367528e-004, -4.91382671e-005, 7.67766614e-005,
          -3.09407915e-004, 1.14700510e-004, -1.69507053e-004,
          1.32246088e-004, 1.95917994e-004, -8.24878080e-005,
          -1.35023933e-004, 3.29803675e-004, -1.57269853e-004,
          -1.50578417e-005, -1.27765097e-005, -4.05718783e-005,
          -2.57773994e-004, -5.10729751e-006, 2.31784561e-005, 0., 0.,
          0., 0., 0., 0., -7.85034354e-005, 1.07836704e-005,
          -3.96152500e-005, -1.87722966e-004, 2.18518726e-005,
          -2.27734970e-004, -3.33198725e-004, -1.24315411e-004,
          1.57582363e-005, 5.37987980e-005, -3.34986922e-004,
          -1.12148089e-004, -2.36887587e-004, 2.58074142e-004,
          2.19401081e-005, -1.34900751e-004, 1.20693716e-004,
          2.73334863e-005, -1.40461689e-005, 1.05202416e-005,
          4.74798653e-005, 0., 0., 0., 0., 0., 0., 0., 1.46100092e-005,
          2.04317621e-004, 4.77160029e-005, -9.22524196e-005,
          -1.20041848e-004, -2.19795824e-004, -3.76669137e-004,
          -1.61818665e-004, -3.89978741e-005, 1.91423896e-004,
          -2.77735497e-004, 3.61324019e-005, -1.59650939e-004,
          -7.22348850e-005, -9.42571278e-005, -2.33831423e-004,
          -1.24135331e-004, -1.07458094e-004, 1.26897896e-004,
          1.10208675e-004, 1.84224082e-005, 0., 0., 0., 0., 0., 0., 0.,
          0., 8.94800833e-005, 2.90154450e-004, -1.34068658e-004,
          1.64092737e-004, 1.39050724e-004, -2.21056660e-004,
          -5.01590373e-004, 2.65267154e-004, 5.87849827e-005,
          -2.85269547e-004, -6.71474481e-005, 1.47227793e-005,
          1.46928694e-004, 2.17325287e-005, -4.52113163e-005,
          9.55940413e-006, -5.91795724e-005, 1.15006173e-004,
          6.30917639e-005, 3.69451845e-006, 0., 0., 0., 0., 0., 0., 0.,
          0., 0., 6.50303191e-005, -1.14206610e-004, -1.18252887e-004,
          -4.99938287e-005, 1.57046597e-004, -5.89971714e-005,
          -4.85127430e-006, -9.29412199e-005, -2.04045864e-004,
          -5.48464777e-005, 1.24415776e-004, 2.27521901e-004,
          -7.25963400e-005, -1.09651060e-004, -6.81624297e-005,
          4.20776705e-005, 3.73436233e-005, 9.23629614e-006, 0., 0., 0.,
          0., 0., 0., 0., 0., 0., 0., 0., 0., 0., 4.85381861e-006,
          4.30776417e-005, -1.24115031e-004, -8.91488671e-005,
          1.10127963e-004, 3.69670714e-004, 3.24586465e-004,
          1.26103914e-004, 1.07624168e-004, 2.60541401e-005,
          5.90339187e-005, 5.03374395e-006, 0., 0., 0., 0., 0., 0., 0.,
          0., 0., 0., 0., 0., 0., 0., 0., 0., 0., 0., 0., 0., 0., 0., 0.,
          0., 0., 0., 0., 0., 0., 0., 0., 0., 0., 0., 0., 0., 0., 0., 0.,
          0., 0., 0., 0., 0., 0., 0., 0., 0., 0., 0., 0., 0., 0., 0., 0.,
          0., 0., 0., 0., 0., 0., 0., 0., 0., 0., 0., 0., 0., 0., 0., 0.,
          0., 0., 0., 0., 0., 0., 0., 0., 0., 0., 0., 0., 0., 0., 0., 0.,
          0., 0., 0., 0. ]
      - [ 0., 0., 0., 0., 0., 0., 0., 0., 0., 0., 0., 0., 0., 0., 0., 0.,
          0., 0., 0., 0., 0., 0., 0., 0., 0., 0., 0., 0., 0., 0., 0., 0.,
          0., 0., 0., 0., 0., 0., 0., 0., 0., 0., 0., 1.03347928e-004,
          2.82484340e-004, 1.34352304e-004, 0., 0., 0., 0., 0., 0., 0.,
          0., 0., 0., 0., 0., 0., 0., 0., 0., 0., 0., 0., 0., 0., 0., 0.,
          0., 0., 0., 5.16739638e-005, 2.29662055e-006, 0., 0., 0., 0.,
          0., 0., 0., 0., 0., 0., 0., 0., 0., 0., 0., 0., 0., 0.,
          1.19643300e-006, 5.18454317e-006, 3.31013143e-005,
          6.77978678e-005, 0., 0., 0., 0., 3.57059726e-005,
          5.15302127e-005, 2.02874844e-006, 0., 0., 0., 0., 0., 0., 0.,
          0., 0., 0., 0., 0., 0., 0., 0., 0., 0., 1.99405495e-005,
          1.01297999e-004, 1.47827654e-004, 2.26734264e-004,
          1.86421239e-004, 2.38925961e-004, 7.83155410e-005,
          -1.65680358e-005, 1.26039609e-004, 2.40966387e-004,
          9.45030188e-005, 0., 0., 0., 0., 0., 0., 0., 0., 0., 0., 0.,
          0., 0., -1.27339779e-004, -2.71494559e-004, -1.11549249e-004,
          -2.52648111e-004, -2.03602249e-004, -4.65431585e-005,
          2.53602571e-004, 1.08155611e-004, -2.28131976e-004,
          -1.96468463e-005, 2.60669127e-004, 3.90991947e-004,
          2.17227556e-004, 1.41915298e-004, 2.13394713e-004,
          3.04053101e-004, 2.26653399e-004, 2.18906280e-004,
          1.50779277e-004, 2.16471544e-005, 0., 0., 0., 0., 0., 0., 0.,
          0., -1.37743686e-004, -2.18490633e-004, -3.54520016e-004,
          -3.53105832e-004, -1.79482857e-004, -6.14632227e-005,
          -6.04212764e-005, -1.36153918e-004, 6.08488990e-005,
          4.31321059e-005, 3.29636940e-004, 5.13569219e-004,
          4.04411316e-004, 6.49105496e-005, -9.96323142e-005,
          4.46382073e-005, 3.73638213e-005, -4.07102889e-005,
          2.45080912e-004, 9.47004301e-005, 0., 0., 0., 0., 0., 0., 0.,
          0., -1.12524103e-004, -1.88005128e-004, -3.22935783e-004,
          -2.17108856e-004, -2.55065359e-004, 1.28708547e-004,
          1.72324901e-004, -1.40699904e-005, -3.00022657e-004,
          -4.53233224e-005, 1.55139103e-004, -4.50130319e-004,
          -2.78991847e-005, 6.60315709e-005, -3.53380456e-004,
          -2.14855681e-004, -1.23842925e-004, -4.25945735e-004,
          1.38438088e-004, 2.76775536e-004, 1.28244676e-004,
          6.38669153e-005, 0., 0., 0., 0., 0., -1.49539892e-005,
          -2.29195299e-004, -1.77895330e-004, -1.28073560e-004,
          -2.26368429e-004, -7.07514555e-005, 2.00993090e-004,
          -9.36591678e-005, -1.55257767e-005, 1.14984563e-004,
          -3.02763772e-004, 1.10040746e-004, 1.52846274e-004,
          4.01971512e-004, 7.62317432e-005, 1.19810538e-004,
          -4.75782348e-004, -1.78562623e-004, -5.22774528e-004,
          -1.56107941e-004, 1.40917327e-004, 9.59196404e-005,
          -2.57438533e-005, 0., 0., 0., 0., 0., -7.74284345e-005,
          -3.36250785e-004, -1.66128142e-004, 6.37161065e-005,
          -2.34849904e-006, -6.53195893e-005, -1.02843194e-004,
          -2.59652934e-005, 1.07647822e-004, 1.62662414e-004,
          2.85775139e-004, -9.40403479e-005, -5.99902414e-005,
          4.37201961e-004, -9.40313112e-005, -4.88428166e-004,
          -2.81211309e-004, -1.95020781e-004, -2.57353444e-004,
          -5.89311647e-004, -4.80242190e-004, -1.05585845e-004,
          -8.53080637e-005, 0., 0., 0., 0., 0., -8.44069655e-005,
          -2.39188841e-004, -4.07872576e-005, 5.57900639e-005,
          1.70563450e-004, 5.17171575e-005, 6.86754220e-006,
          4.51995547e-005, 2.38834327e-004, -4.79152586e-005,
          1.67388178e-004, 2.46063079e-004, -2.42410664e-004,
          -7.71592531e-005, -2.32766644e-004, -4.78496630e-004,
          -2.68131407e-004, -3.11540178e-004, -3.65556712e-004,
          -3.16585822e-004, -4.19281878e-006, 4.37415219e-005,
          -7.06693972e-005, 0., 0., 0., 4.17386436e-005, 0.,
          -8.11235295e-005, -9.31546238e-005, -2.91495991e-004,
          8.79018116e-005, 4.05552302e-004, 2.66605610e-004,
          -3.09412309e-004, 3.23162501e-004, -7.73781794e-005,
          -2.84512120e-004, 1.67551028e-004, -5.46874835e-005,
          -1.56937720e-004, 7.22965924e-005, 5.20331787e-006,
          -1.16485608e-005, 1.73844746e-004, -1.60226409e-004,
          -1.33751702e-004, -1.28843545e-004, 1.36810177e-005,
          -1.67943417e-005, -1.26195355e-005, 0., 0., 0., 0., 0.,
          -7.76917732e-005, 1.49685555e-004, -2.54671526e-004,
          5.03533265e-005, -1.56890659e-004, 5.33973362e-005,
          1.40696618e-004, 1.97308967e-004, -8.23894952e-005,
          3.27474612e-004, 4.72177402e-004, 2.67099007e-004,
          -2.35075218e-004, -2.72397912e-004, -1.74262677e-004,
          -8.26308024e-005, -1.06006737e-004, -5.49509423e-005,
          -1.24291400e-004, 1.44265621e-004, 1.72011481e-004,
          -1.14138733e-004, 9.81361791e-006, 0., 0., 0., 0., 0.,
          -5.03811352e-005, 2.32070044e-004, -9.92961213e-005,
          -2.15041175e-004, 1.84104993e-005, 5.29466313e-004,
          8.41328074e-005, 6.49361100e-005, 1.41735451e-004,
          4.17635631e-004, 6.12250369e-005, -6.27215253e-004,
          -5.31081285e-004, -2.43318442e-004, -8.75150436e-005,
          3.41000632e-005, 1.36515282e-005, -2.82061403e-004,
          -1.15717165e-004, 2.12019469e-004, 1.97408590e-004,
          -7.38589733e-005, 1.67584005e-006, 0., 0., 0., 0., 0.,
          -3.68110559e-005, 2.27056007e-004, 1.69925595e-004,
          3.87231208e-004, -1.28031825e-005, 9.12102551e-005,
          2.01720104e-004, -1.61997799e-004, 2.05352364e-004,
          1.14169481e-004, 5.20877948e-005, -6.39901613e-004,
          -6.19895814e-004, -3.36641271e-004, -2.70454213e-004,
          -1.00247729e-004, -3.57297278e-004, -3.33464763e-004,
          1.84630146e-004, 2.48505262e-006, 1.81600379e-004,
          -2.16723260e-004, -6.21788422e-005, 0., 0., 0., 0., 0.,
          -8.44190799e-005, 2.71262514e-004, 2.94262689e-004,
          -1.90328228e-005, -9.91119377e-005, 8.80029620e-005,
          -5.62955283e-005, -1.99609040e-005, 1.90109582e-004,
          2.92605982e-005, -5.36592706e-005, -4.66937025e-004,
          -7.44256598e-004, -4.45389189e-004, -1.36064788e-004,
          8.56710394e-005, -2.92121458e-005, -9.87947569e-005,
          -1.42529258e-004, 4.90453313e-005, 3.09455441e-004,
          1.66092359e-004, 4.62971620e-005, 0., 0., 0., 0., 0.,
          -3.95504576e-005, 1.87078054e-004, 1.42720368e-004,
          1.87285768e-004, 1.85317258e-004, 2.33059793e-004,
          -1.96269648e-005, 4.35084570e-004, -8.88806535e-005,
          -2.45676696e-004, -4.68335027e-004, -2.09584367e-004,
          -6.77375239e-004, -2.31455822e-004, 1.28798682e-004,
          -1.88600883e-004, -2.31949052e-005, 1.77686379e-005,
          1.61656993e-004, 1.17211996e-004, 1.60280426e-004,
          1.53616114e-004, 1.02225185e-005, 0., 4.46093463e-006, 0., 0.,
          0., -4.77505382e-005, 6.66007472e-005, 2.91064373e-009,
          4.26324317e-004, -8.02861905e-005, 7.52812484e-005,
          6.41259190e-004, 5.19961002e-004, 2.19566442e-004,
          2.78089399e-004, -1.59795381e-005, -2.41364352e-004,
          -3.55613825e-004, -6.32731171e-005, -1.77174472e-004,
          -4.00750607e-004, 2.74433143e-004, -1.46026083e-004,
          1.25591585e-004, 2.79973669e-004, -1.87360056e-005,
          6.40667859e-005, 0., 0., 3.86614338e-005, 0., 0., 0.,
          9.03094115e-005, 6.92205722e-005, 5.03924784e-005,
          6.04670960e-004, 2.03519070e-004, 1.71934487e-004,
          5.68093092e-004, 6.08306669e-004, 3.56986624e-004,
          1.31752124e-004, -2.88390584e-005, 1.92802632e-004,
          1.07095866e-005, -1.91002749e-004, -2.13466061e-004,
          -3.00520100e-004, -1.73401524e-004, -5.95971476e-004,
          -2.10655053e-004, 2.02812138e-004, -7.99545305e-005,
          3.03935394e-005, 0., 0., 0., 0., 0., 0., 1.98624970e-004,
          1.68576862e-005, 9.67193773e-005, 3.14177712e-004,
          4.15208866e-004, 7.98259789e-005, 3.20012681e-004,
          2.38634369e-004, 2.11346211e-004, 2.46581185e-004,
          2.27002878e-004, 2.39557790e-004, 3.41481442e-004,
          -1.89859333e-004, -2.57582451e-005, 3.77642835e-004,
          1.51885106e-004, -3.58520891e-004, 3.45760491e-005,
          3.18384235e-004, 6.54525211e-005, -1.25520150e-004,
          -6.55792537e-005, 0., 0., 0., 0., 0., 3.10368108e-004,
          3.86267406e-004, 5.30859652e-005, 2.96960468e-004,
          3.96756746e-004, 1.72239852e-005, 5.79748419e-004,
          2.45493749e-004, 4.16202849e-004, 1.78722694e-004,
          -2.45422179e-005, 2.47672670e-005, 7.16324939e-005,
          1.05464438e-004, 3.30480892e-004, -1.80039642e-005,
          8.47287592e-005, -9.45026040e-005, -4.51577871e-005,
          3.91953508e-004, 1.43399855e-004, 2.74385402e-005, 0., 0., 0.,
          0., 0., 0., 3.09546449e-004, 2.07083023e-004, -4.14879527e-004,
          1.94978420e-004, 3.29533010e-004, 2.29645753e-004,
          3.66907974e-004, 2.57825828e-004, -4.20777042e-006,
          2.14598287e-004, 5.52743695e-005, -3.50040318e-006,
          -8.31487196e-005, 2.52619066e-004, -1.43565433e-006,
          -1.66532584e-004, 3.41783481e-004, -3.30385446e-005,
          -2.50765763e-004, 3.35732329e-004, 1.26672458e-004,
          6.19722559e-005, 0., 1.00691206e-004, 0., 0., 0., 0.,
          1.33667432e-004, -1.31129309e-006, 6.47966374e-007,
          2.30193895e-004, 2.43282819e-004, 4.37650997e-005,
          -7.84632812e-006, 1.53488276e-004, 5.10229438e-004,
          5.25694166e-004, 4.97187022e-004, 2.73730664e-004,
          2.05046221e-004, 1.69547420e-004, -7.72440762e-005,
          -1.88369340e-005, 1.64164139e-005, -2.20042552e-004,
          -2.36974767e-004, 1.93752436e-004, 7.30250977e-005,
          3.43477732e-005, 0., 1.03805369e-005, 0., 0., 0., 0., 0.,
          -2.96933751e-004, -1.69417661e-004, -4.07052517e-004,
          -3.04528279e-004, -1.51524509e-004, 2.05400545e-004,
          4.65118123e-004, 6.72497699e-005, 4.34611284e-004,
          2.65613868e-004, 1.29860608e-004, 2.55800376e-004,
          -1.97618327e-004, 9.73560236e-005, 7.11857792e-005,
          -2.45096511e-004, -3.13547178e-004, -2.67453779e-005,
          8.92904209e-005, 3.86773245e-005, 5.77273511e-007, 0., 0., 0.,
          0., 0., -3.83989791e-005, -5.19300484e-005, -1.74882793e-004,
          -3.88901157e-004, -5.11159596e-004, -3.13488272e-004,
          -3.80452489e-004, -9.36569995e-006, 5.58300690e-006,
          -9.82581696e-005, 9.56568965e-006, -1.15888550e-004,
          1.87721816e-004, 2.24472838e-004, -1.98455222e-004,
          2.69693119e-005, -1.73281369e-004, -5.10404876e-004,
          -8.95190242e-005, -1.97245652e-004, 1.76068406e-005, 0., 0.,
          0., 0., 0., 0., 0., 0., 0., 0., -5.98375191e-005,
          -9.71754271e-005, 8.00118942e-005, -1.40740792e-006,
          -2.11536360e-004, -2.39925823e-004, -4.17643663e-004,
          -4.32482397e-004, -5.81311760e-004, -8.80825275e-004,
          -5.83011424e-004, -4.03413724e-004, -4.96327819e-004,
          -5.67325158e-004, -1.21402983e-004, -1.53854693e-004,
          -2.67855328e-004, -6.33284362e-005, -2.12199993e-005, 0., 0.,
          0., 0., 0., 0., 0., 0., 0., 0., 0., 0., -2.08766214e-005,
          -7.85210286e-005, -2.46157178e-005, 0., 0., -1.23351478e-004,
          -2.61720008e-004, -1.37332638e-004, -1.45182639e-005,
          -1.65729245e-004, -1.11391790e-004, 0., -7.64835422e-005,
          -2.75450497e-004, -1.15728602e-004, -4.24399987e-005, 0., 0.,
          0., 0., 0., 0., 0., 0., 0., 0., 0., 0., 0., 0., 0., 0., 0., 0.,
          0., 0., 0., 0., 0., 0., -4.39720270e-006, -9.59724493e-005,
          -6.87897409e-005, 0., 0., 0., 0., 0. ]
      - [ 0., 0., 0., 0., 0., 0., 0., 0., 0., 0., 0., 0., 0., 0., 0., 0.,
          0., 0., 0., 0., 0., 0., 0., 0., 0., 0., 0., 0., 0., 0., 0., 0.,
          0., 0., 0., 0., 0., 0., 0., 0., 0., 0., 0., 3.24323628e-005,
          8.86484559e-005, 4.21620716e-005, 0., 0., 0., 0., 0., 0., 0.,
          0., 0., 0., 0., 0., 0., 0., 0., 0., 0., 0., 0., 0., 0., 0., 0.,
          0., 0., 0., 1.62161814e-005, 7.20719186e-007, 0., 0., 0., 0.,
          0., 0., 0., 0., 0., 0., 0., 0., 0., 0., 0., 0., 0., 0., 0.,
          2.83394857e-005, 4.20946380e-005, 6.27465197e-005,
          2.99571889e-006, -1.73406705e-004, -2.11201012e-004,
          -8.35078681e-005, -4.71142403e-006, 0., 0., 0.,
          2.65037124e-005, 1.00301688e-004, -5.68762471e-006,
          -1.12163012e-004, -8.74341567e-005, -1.85466397e-005, 0., 0.,
          0., 0., 0., 0., 0., 0., 3.32609102e-006, -3.42628555e-005,
          -9.18605874e-005, 1.03797160e-004, 3.24743742e-004,
          -5.33771563e-005, -1.88251885e-004, 2.23997980e-004,
          1.38379226e-004, -1.96571680e-004, -1.04105020e-005,
          -1.06552070e-004, -5.24691950e-006, -1.51375163e-004,
          -5.71915625e-005, 7.63380467e-006, 9.27308429e-005,
          2.33268020e-005, -5.38735731e-005, -1.85466397e-005, 0., 0.,
          0., 0., 0., 0., 0., -2.06988316e-005, -6.32133233e-005,
          -2.05850127e-004, -3.71683127e-005, 1.18581156e-004,
          3.58847872e-004, -2.44119045e-004, -3.38111189e-004,
          -1.05206498e-004, 3.54507356e-005, -4.32909910e-005,
          2.41753558e-004, -1.25725419e-004, 1.60544500e-004,
          2.54167739e-004, -2.37092201e-004, -1.60310257e-004,
          -2.43264276e-005, 1.98648577e-005, -6.78702854e-005, 0., 0.,
          0., 0., 0., 0., 0., 2.14112629e-006, -3.99762075e-006,
          -1.23849837e-004, 1.69262385e-005, -7.82333518e-006,
          -1.74861871e-005, -6.22346852e-005, -2.10392478e-004,
          -1.73331846e-005, -8.58666390e-005, -1.92441694e-005,
          -3.67320899e-004, 1.44689824e-004, -1.65935009e-004,
          -2.38639754e-004, -1.56594746e-004, -1.48675666e-004,
          3.41007581e-005, -5.14517487e-005, 8.40879875e-005,
          -5.30104880e-005, 0., 0., 0., 0., 0., 0., 0., 7.27982933e-006,
          -4.64895857e-005, -7.80268674e-005, -1.10137888e-004,
          -1.51139597e-004, -1.01133723e-004, -3.33659758e-004,
          1.02257880e-004, 1.61651304e-004, -6.05348141e-005,
          8.65139591e-005, -2.98238774e-005, 8.41511501e-005,
          -8.97590144e-005, -3.62558421e-005, 1.35237915e-005,
          9.07617577e-005, 8.92254175e-005, -1.54379304e-004,
          1.55692309e-004, 2.71264260e-004, 0., 0., 0., 0., 0., 0., 0.,
          8.13627958e-006, -7.54223875e-005, -2.30960097e-004,
          -3.18458187e-004, 7.39279931e-005, 2.40666472e-004,
          -1.60788986e-004, 2.17020061e-005, 1.05549647e-004,
          -2.11692794e-004, 1.12616828e-004, -3.94342860e-005,
          3.08598654e-004, -1.31744295e-004, -2.19170091e-004,
          -2.70557852e-004, -6.97580763e-005, -2.63408583e-004,
          1.83643016e-004, -4.28881496e-004, 7.14555863e-005,
          -2.64722512e-005, 0., 0., 0., 0., 0., 0., 6.51412629e-005,
          -1.02787824e-004, -3.84952902e-004, -3.24140477e-004,
          1.06362728e-004, 3.70766589e-004, 4.85569908e-005,
          -3.08064773e-004, 9.27868023e-005, -9.94320071e-005,
          -9.00943542e-006, 4.02597419e-004, 8.84522015e-005,
          6.75793053e-005, -1.34606467e-004, -4.55731824e-005,
          -4.43933459e-005, -2.39966874e-004, -5.23681119e-005,
          -2.98592226e-006, -2.27085737e-004, -1.96454930e-004,
          -2.70091768e-005, 0., 0., 0., 0., 0., -7.09551432e-006,
          -5.20986650e-005, -1.86828343e-004, -1.21394085e-004,
          -2.33272847e-004, 9.41491817e-005, -2.00750469e-006,
          -5.08494675e-004, -1.75017514e-004, 1.16379388e-005,
          2.36742068e-004, 3.38166457e-004, 1.94694832e-004,
          1.01486046e-004, 1.25142295e-004, -4.60937226e-005,
          -7.44142426e-006, 1.08744553e-005, -1.07030624e-004,
          -1.06582389e-004, -4.40231088e-004, -9.45071370e-005, 0., 0.,
          0., 0., 0., 0., 1.15904641e-005, -2.81560533e-005,
          -1.80642950e-004, -1.01835998e-004, 3.12951452e-005,
          -1.88717517e-004, -7.59325485e-005, -1.14513859e-004,
          -8.42392619e-005, -1.27773514e-004, -3.02697590e-004,
          -2.50202836e-004, -2.15666005e-004, 1.42663499e-004,
          3.69879504e-004, -5.32583363e-005, -1.29448104e-004,
          -1.59347604e-004, -8.75919886e-006, 4.18102209e-005,
          -2.70435576e-005, -9.63646889e-005, 0., 0., 0., 0., 0., 0.,
          2.02667343e-005, 1.22027646e-004, 3.48827562e-005,
          9.20239327e-005, -5.42761372e-005, 2.71961617e-005,
          -9.63266848e-006, 1.66453072e-004, 1.55878690e-004,
          -6.96532297e-005, -2.44757830e-004, -3.62512423e-004,
          1.06637424e-004, -5.15063903e-006, 3.76598327e-004,
          -1.71902029e-005, 1.16899573e-004, 1.79882074e-004,
          -5.26068980e-005, 5.71935088e-005, 1.41946337e-004,
          -4.50852849e-006, 0., 0., 0., 0., 0., 0., 1.42180812e-004,
          2.53077247e-004, -5.25158939e-005, 2.59281078e-004,
          2.62336252e-004, 1.99050046e-004, -1.90330014e-004,
          -1.51783592e-004, -3.06891598e-004, -1.70374449e-006,
          -1.57489878e-004, -5.30584890e-004, -2.54904269e-004,
          -2.37452870e-004, 5.32988415e-005, -2.26159391e-005,
          -2.13882697e-004, 1.07308741e-004, -9.51427573e-005,
          1.36303963e-004, 3.55578348e-004, 2.64713046e-004, 0., 0., 0.,
          0., 0., 0., 1.97768735e-004, 2.39672256e-004, 2.20981427e-004,
          2.19677022e-005, -2.23889292e-004, -1.14046474e-004,
          -6.22006773e-005, 8.64267292e-007, 8.22440852e-005,
          3.77844961e-004, -2.80685781e-004, 1.37250245e-004,
          -2.63930822e-004, -1.09916269e-004, -2.46159034e-004,
          -1.22683719e-004, 3.10632822e-005, -5.15258798e-005,
          2.43679358e-004, 1.70100029e-004, 3.68735520e-004,
          2.00850336e-004, 0., 0., 0., 0., 0., 0., 2.62083340e-004,
          1.58819923e-004, 2.73160695e-004, 1.14259587e-004,
          -7.50673134e-005, -1.07685395e-004, -2.85048145e-006,
          5.43456590e-005, 9.65250219e-005, -1.33837879e-004,
          -4.70545725e-004, -1.03834835e-004, -1.05660263e-004,
          8.43239177e-005, -6.26657638e-005, -1.41551354e-004,
          -7.66516969e-005, 2.41918038e-004, 9.58842138e-005,
          7.00232267e-005, 2.25747775e-004, 1.27959602e-005, 0., 0., 0.,
          0., 0., 0., 2.86350085e-004, 3.14890844e-004, -1.31495171e-005,
          4.47114871e-005, 1.21630888e-004, -1.92130945e-004,
          1.54221689e-005, -1.42767647e-004, -1.14541217e-004,
          -4.17921634e-004, 1.84672434e-004, -1.37975323e-004,
          -4.06649997e-005, 1.57815113e-004, -5.63572439e-006,
          9.01359235e-005, 2.26640681e-004, 4.62998323e-005,
          8.58751227e-005, 3.31055780e-004, 2.26914184e-004,
          -7.27721708e-005, 0., 0., 0., 0., 0., 0., 1.10609057e-004,
          1.20898650e-004, -3.69039590e-005, 1.73255554e-004,
          -1.09817222e-004, -7.98344809e-006, -4.89589183e-005,
          -3.87115200e-004, 1.99813454e-004, -1.86107092e-004,
          1.01146630e-004, 1.29852677e-004, 2.96733342e-004,
          1.51432250e-004, 1.42065095e-004, 1.74556568e-004,
          4.62172829e-005, -3.05492467e-005, 4.60655487e-004,
          5.32836157e-006, -9.59299141e-005, 1.82816748e-005, 0., 0., 0.,
          0., 0., 0., -6.51231167e-005, 1.41567521e-004, 6.84017650e-005,
          2.37512446e-004, -7.38270028e-005, 1.34303671e-004,
          1.02717502e-004, 4.28234081e-004, 1.98119931e-004,
          2.46652053e-004, 1.67016151e-005, 1.35839204e-004,
          -3.68444598e-005, 3.38582555e-004, 3.28727998e-004,
          8.26106916e-005, 9.75267831e-005, 6.12736912e-005,
          2.43722519e-004, -7.96881941e-005, -2.00714683e-004,
          4.43770296e-005, 0., 0., 0., 0., 0., 0., -9.09618320e-005,
          1.07034255e-004, 2.24357791e-004, 3.60179780e-004,
          1.94596651e-004, 2.30678401e-004, 1.60817872e-004,
          2.63962633e-004, 5.18881832e-004, 2.12304862e-004,
          1.52257999e-004, 4.10823035e-004, 3.25365836e-004,
          4.06688778e-004, 6.54151008e-005, 1.66069731e-004,
          2.23497365e-004, -1.32236761e-004, 5.20119575e-005,
          -1.75059304e-005, -5.22944538e-005, 4.42368255e-005, 0., 0.,
          0., 0., 0., 0., -1.18558957e-004, 2.79804255e-004,
          -2.07742851e-004, -1.79980954e-004, 2.55656869e-005,
          -3.58986908e-005, -1.35323149e-004, -1.65593101e-005,
          1.61302756e-004, 9.44514541e-005, 1.24212776e-004,
          2.81704888e-005, 3.18994746e-004, 1.64047640e-004,
          -1.40744654e-004, 1.57567905e-004, -8.66420596e-005,
          -1.00036696e-005, 8.99277002e-005, -4.89322083e-005,
          2.95799437e-005, 0., 0., 0., 0., 0., 0., 0., -1.78741422e-004,
          9.38993708e-006, -2.04781227e-005, -1.06855128e-004,
          -3.75763339e-004, -5.11810322e-005, 6.82555110e-005,
          2.08305122e-004, 1.40557197e-004, -5.95723286e-005,
          2.32571707e-004, -8.98434082e-005, 7.03750920e-005,
          -1.51535569e-004, -7.63276475e-005, -2.32550170e-004,
          1.16057308e-004, 2.71067314e-004, 2.90908374e-005,
          -5.02083712e-005, -3.55950215e-006, 0., 0., 0., 0., 0., 0., 0.,
          -1.91843923e-004, -1.06824125e-004, -1.09121247e-005,
          5.82280773e-005, 5.54285762e-005, 1.27705222e-004,
          -2.27789627e-004, -2.88190524e-004, 1.51171189e-004,
          1.48023290e-004, 6.23303379e-007, 3.72070994e-004,
          2.44011433e-004, 1.09665152e-005, -1.69370469e-004,
          1.38371006e-005, 5.07864534e-005, -1.33679241e-005,
          2.69257835e-005, -4.64003278e-005, 0., 0., 0., 0., 0., 0., 0.,
          0., -4.48732317e-005, -2.18450878e-005, 1.62695491e-004,
          7.94184889e-005, -4.59014060e-004, 1.19178469e-006,
          1.27315376e-004, -1.66086138e-005, 1.50395310e-004,
          8.97037753e-005, 9.93334324e-005, 1.07483298e-004,
          -8.03181611e-005, 1.49104380e-004, -4.22956917e-004,
          -2.29947036e-004, -4.59426956e-005, -6.30175200e-005,
          -4.30127366e-005, 0., 0., 0., 0., 0., 0., 0., 0., 0.,
          1.16235969e-005, 7.98412802e-005, 8.69566502e-005,
          4.76168316e-005, 1.67706326e-004, -9.71156551e-005,
          -2.00009978e-004, -3.25449306e-004, 8.70641088e-005,
          -7.38507806e-005, 1.97951413e-005, 3.51085968e-004,
          1.28248779e-004, 2.49447417e-004, 4.91241699e-005,
          -7.94352454e-005, -8.32651422e-005, -4.30127366e-005, 0., 0.,
          0., 0., 0., 0., 0., 0., 0., 0., 0., -2.15520795e-005,
          -9.26361245e-005, -1.13346519e-004, -1.79819981e-004,
          -1.79354276e-004, -1.75157416e-004, -9.01326348e-005,
          -9.34208438e-005, -2.41695947e-004, -2.16723347e-004,
          -8.61096341e-005, -1.09830267e-004, -5.01663999e-005, 0., 0.,
          0., 0., 0., 0., 0., 0., 0., 0., 0., 0., 0., 0., 0., 0., 0., 0.,
          0., 0., 0., 0., 0., 0., 0., 0., 0., 0., 0., 0., 0., 0., 0., 0.,
          0., 0., 0., 0., 0., 0., 0., 0., 0., 0., 0., 0., 0., 0., 0., 0.,
          0., 0., 0., 0., 0., 0., 0., 0., 0., 0., 0., 0., 0., 0., 0., 0. ]
      - [ 0., 0., 0., 0., 0., 0., 0., 0., 0., 0., 0., 0., 0., 0., 0., 0.,
          0., 0., 0., 0., 0., 0., 0., 0., 0., 0., 0., 0., 0., 0., 0., 0.,
          0., 0., 0., 0., 0., 0., 0., 0., 0., 0., 0., 1.18578551e-004,
          3.24114691e-004, 1.54152120e-004, 0., 0., 0., 0., 0., 0., 0.,
          0., 0., 0., 0., 0., 0., 0., 0., 0., 0., 0., 0., 0., 0., 0., 0.,
          0., 0., 0., 5.92892757e-005, 2.63507877e-006, 0., 0., 0., 0.,
          0., 0., 0., 0., 0., 0., 0., 0., 0., 0., 0., 0., 0., 0.,
          9.49352568e-007, 4.11386100e-006, 2.62654212e-005,
          5.37966444e-005, 0., 0., 5.78977706e-005, 1.67622915e-004,
          1.38692587e-004, 8.00150519e-005, 0., 0., 0., 0., 0., 0., 0.,
          0., 0., 0., 0., 0., 0., 0., 0., 0., 0., 0., 2.62781286e-005,
          1.01517457e-004, -3.01953369e-005, -2.08735655e-005,
          1.47630290e-005, 1.24459621e-004, 3.29418253e-005,
          -2.25771902e-004, -1.29136033e-005, -2.74790364e-005,
          7.99533809e-005, -8.01359929e-005, -5.89337506e-005,
          1.25396793e-004, 3.55570228e-005, 0., 0., 0., 0., 0., 0., 0.,
          0., 0., 0., 0., 0., 1.34275469e-005, 6.52980380e-005,
          -1.33820155e-004, -7.32439294e-005, 1.86612015e-005,
          -8.08048862e-005, 2.44856812e-004, 1.92083942e-004,
          3.77252494e-004, 7.26095532e-005, -3.75605770e-004,
          1.09970526e-004, 2.33045852e-004, 7.36801740e-005,
          9.86275263e-005, 2.20926187e-004, 7.42869088e-005, 0., 0., 0.,
          0., 0., 0., 0., 0., 0., 0., -3.49797374e-005, 1.20174424e-004,
          6.70665831e-005, -9.28884183e-005, -4.14912893e-006,
          -2.30997553e-004, 1.57384784e-004, 1.48749197e-004,
          -5.92361357e-005, -2.71458470e-004, 1.19582226e-004,
          -2.39301007e-004, -3.03654204e-004, -1.85060038e-004,
          3.49805887e-005, -7.94876396e-005, 2.20065514e-004,
          -6.00870521e-007, -6.37397025e-005, -6.55597159e-006, 0., 0.,
          0., 0., 0., 0., 0., 9.77870695e-006, 1.42262224e-005,
          1.19932683e-005, -1.81697309e-004, -3.07246091e-006,
          1.45743878e-004, 2.67121359e-004, -1.70290907e-004,
          -9.76552383e-006, -1.02093290e-004, -2.47789634e-004,
          -7.24685560e-006, 1.78523245e-004, -1.38596850e-004,
          -2.39411776e-004, 5.35427262e-006, 5.76323655e-005,
          1.94170672e-004, 1.40089396e-004, -1.25303326e-004,
          -6.90898523e-005, 0., 0., 1.80465559e-005, 0., 0., 0.,
          -1.53724322e-005, -5.24907534e-007, 8.46542607e-005,
          -7.69237522e-005, 2.89240543e-005, 4.78748261e-004,
          1.90426814e-004, -3.69310990e-004, 3.99772747e-004,
          8.06089156e-005, -6.74381299e-005, -9.25030035e-005,
          -7.35207686e-006, 1.23676116e-004, 4.88501828e-005,
          -1.49883592e-004, 2.56435189e-004, -1.02313570e-004,
          -3.39032667e-005, 2.35543659e-004, -1.51217639e-004,
          -5.84009322e-005, 0., 0., 0., 0., 0., 0., -1.47642480e-004,
          -8.55615726e-005, -8.58088097e-005, 7.01170575e-005,
          1.97431145e-004, 3.68056571e-005, 2.19766283e-004,
          2.06782497e-005, 3.27771850e-004, 1.52974098e-004,
          1.87704063e-004, 3.11726617e-005, 1.82703152e-004,
          3.18125858e-005, -2.69972807e-004, 2.93545512e-004,
          -3.34495121e-006, 1.53973117e-004, 1.00134370e-004,
          1.33529713e-004, -7.54423381e-005, -4.20445358e-005, 0., 0.,
          0., 0., 0., 1.56734877e-005, -1.72199274e-004,
          -1.82738891e-004, -9.89281179e-005, -2.05499455e-005,
          7.36634975e-005, 4.74148474e-005, -2.85128372e-005,
          7.58496753e-005, 4.35074116e-006, 3.22205073e-004,
          4.14084963e-004, 1.97449903e-004, 1.24861035e-004,
          3.08044167e-004, -1.80974050e-004, 2.56614643e-004,
          2.50108104e-004, 6.45547334e-005, 7.59563045e-005,
          -1.80036062e-004, -1.12623413e-004, -6.00885760e-005, 0., 0.,
          0., 3.80136553e-005, 0., 1.99053306e-004, -7.86584060e-005,
          -3.10589996e-004, -4.12887166e-005, 1.15232935e-004,
          -6.48535643e-005, -1.19586686e-004, -1.22844314e-004,
          -3.77947654e-005, -3.53945972e-004, -4.30517030e-005,
          2.37773376e-004, -1.91823965e-005, -1.15562667e-004,
          2.41241549e-004, 1.59759293e-004, 1.43294281e-004,
          -2.62454214e-005, -7.75487861e-005, -2.88022704e-007,
          -2.22449471e-005, 8.61339231e-006, -6.81105375e-005, 0., 0.,
