%YAML:1.0
my_svm: !!opencv-ml-svm
   svm_type: C_SVC
   kernel: { type:LINEAR }
   C: 1.
   term_criteria: { epsilon:2.2204460492503131e-16, iterations:4500 }
   var_all: 784
   var_count: 784
   class_count: 10
   class_labels: !!opencv-matrix
      rows: 1
      cols: 10
      dt: i
      data: [ 0, 1, 2, 3, 4, 5, 6, 7, 8, 9 ]
   sv_total: 45
   support_vectors:
      - [ 0., 0., 0., 0., 0., 0., 0., 0., 0., 0., 0., 0., 0., 0., 0., 0.,
          0., 0., 0., 0., 0., 0., 0., 0., 0., 0., 0., 0., 0., 0., 0., 0.,
          0., 0., 0., 0., 0., 0., 0., 0., 0., 0., 0., 0., 0., 0., 0., 0.,
          0., 0., 0., 0., 0., 0., 0., 0., 0., 0., 0., 0., 0., 0., 0., 0.,
          0., 0., 0., 0., -1.44131482e-05, -2.33645245e-04,
          -5.57045169e-05, 0., -1.67664795e-04, -3.92861606e-04,
          -9.36950310e-05, 0., 0., 0., 0., 0., 0., 0., 0., 0., 0., 0.,
          0., 0., 0., 0., 0., 0., -2.95879036e-05, -2.63003585e-05, 0.,
          0., -1.18473290e-04, -1.97176516e-04, -1.32190426e-05,
          1.03332764e-04, -4.64547629e-04, -7.89906480e-04,
          -4.28881147e-04, 0., 0., 0., 0., 0., 0., 0., 0., 0., 0., 0.,
          0., 0., 0., 0., 0., 0., -2.53140955e-04, -3.51767318e-04,
          -1.50570777e-04, -1.40726508e-04, -1.44754231e-04,
          -4.14965645e-04, -8.31097932e-05, -4.78647125e-04,
          2.37153500e-07, -3.44537344e-04, 2.26773191e-04,
          -1.20747718e-04, -4.29600128e-04, -1.22070878e-05,
          -5.37211563e-05, -1.87879232e-05, 0., 0., 0., 0., 0., 0., 0.,
          0., 0., 0., 2.80158474e-06, 6.24049499e-05, -3.00208951e-04,
          -2.99864274e-04, 1.79057952e-05, 3.21431908e-05,
          -2.76755629e-04, -6.47087698e-04, 1.36558921e-03,
          7.79341557e-04, -3.90433503e-04, -9.17421785e-05,
          4.35440452e-04, -2.72281668e-05, -8.26390693e-04,
          -7.99765927e-04, -1.17805484e-03, -7.32661982e-04,
          -1.37215932e-06, 0., 0., 0., 0., 0., 0., 0., 0., 0.,
          -1.94928234e-05, 3.38557547e-05, -5.48399221e-05,
          -5.49689139e-05, 1.43453086e-04, 3.71398695e-04,
          -8.52425801e-05, 2.92855566e-05, 1.33789552e-04,
          4.70204046e-04, 5.25424781e-04, 2.80033040e-04,
          -5.75508966e-05, -7.24367928e-05, -7.14676338e-04,
          -3.99865909e-04, -3.60265491e-04, 5.54417238e-05,
          2.81450684e-05, 0., 0., 0., 0., 0., 0., 0., -1.20788194e-04,
          -1.38860269e-04, -2.30964451e-05, -1.35128168e-04,
          -7.66106677e-05, 2.94838712e-04, 4.35771188e-04,
          7.19601812e-04, -3.12646531e-04, 3.17934988e-04,
          1.54289868e-04, 3.44273401e-04, 2.62782618e-04, 7.73887907e-04,
          4.90610662e-04, 4.10192501e-04, -3.28438211e-04,
          2.99367442e-04, 4.22778830e-04, 5.07504446e-04, 3.94993869e-04,
          1.34305010e-04, 0., 0., 0., 0., 0., 0., -1.13683003e-04,
          -1.38419055e-04, 3.48534522e-05, -9.36203651e-06,
          6.76304307e-06, 1.45051832e-04, 2.35137049e-04, 3.30724666e-04,
          -7.66348036e-04, 1.08439141e-04, -3.11343465e-04,
          -2.87424395e-04, 8.98120867e-04, 8.23592360e-04,
          -2.33935527e-04, -2.04305223e-04, 4.17782227e-04,
          5.44785347e-04, 4.89105994e-04, 2.14955551e-04, 1.17117299e-04,
          4.83273361e-05, 0., 0., 0., 0., 0., 0., -1.40165968e-04,
          -1.08871609e-04, 1.75245892e-04, 6.85994892e-05,
          -8.87451024e-05, -1.24098602e-04, 1.15885341e-04,
          1.22685175e-04, -1.61006072e-04, -4.60588897e-04,
          -6.49521651e-04, 3.51598079e-04, 1.81910102e-04,
          2.80008098e-04, -6.61824073e-04, -5.02578507e-04,
          6.54767035e-04, 8.14521103e-04, 6.59483543e-04, 2.07273697e-04,
          1.49227799e-05, 8.82499226e-05, 0., 0., 0., 0., 0., 0.,
          -1.40165968e-04, 9.83860537e-06, 2.53085396e-04,
          2.22871851e-04, 1.83798882e-04, -3.24027438e-04,
          1.68735074e-04, 1.56656126e-04, 8.51829918e-06,
          -6.49858266e-04, 6.22423468e-05, 1.36351824e-04,
          -3.17158527e-04, 4.17955307e-04, -1.11789152e-04,
          4.74639710e-05, 4.02614591e-04, 4.77309368e-04, 5.12664847e-04,
          3.05322610e-04, 3.40799270e-05, 8.86001144e-05, 0., 0., 0., 0.,
          0., 0., -1.20165627e-04, 1.42535413e-04, 3.08942021e-04,
          4.19042306e-04, 3.55543481e-04, -1.48646403e-04,
          3.63934319e-04, 2.50017212e-04, -2.44895145e-05,
          -4.20913217e-04, 3.25463363e-04, -5.98140992e-04,
          -5.55255450e-04, 4.16535098e-04, 2.80623237e-04,
          4.30606189e-04, 2.28635530e-04, 5.08167839e-04, 5.72389457e-04,
          2.14125539e-04, 9.81420817e-05, 9.22964318e-05, 0., 0., 0., 0.,
          0., 0., 3.51447852e-05, 2.33931714e-04, 3.06452013e-04,
          3.39553488e-04, 4.37390932e-04, 4.97304718e-04, 2.48858152e-04,
          2.70633172e-04, 2.62585847e-04, -4.48496896e-04,
          -1.48058796e-04, -4.41040262e-04, -3.43056628e-04,
          1.72618296e-04, 4.53696150e-04, 5.20089641e-04, 8.07308788e-06,
          6.49114256e-04, 5.00624359e-04, 2.25875061e-04, 1.07500549e-04,
          1.00052246e-04, 0., 0., 0., 0., 0., 0., 1.23910242e-04,
          3.12436983e-04, 2.39053770e-04, 5.12972474e-04, 4.99717251e-04,
          2.67412688e-04, 3.14637466e-04, 3.79366800e-04, 3.11676326e-04,
          -1.01376674e-03, -8.07943288e-04, -9.65183077e-04,
          -2.98884872e-04, 2.45805568e-04, 1.17154617e-03,
          1.92858439e-04, -7.78523899e-05, 6.08775357e-04,
          6.25945046e-04, 3.42358690e-04, 1.13160662e-04, 1.05312713e-04,
          0., 0., 0., 0., 0., 0., 1.56028298e-04, 2.90892407e-04,
          3.71011585e-04, 5.87726419e-04, 4.42209945e-04,
          -3.38825572e-04, 5.11139864e-04, 2.83197005e-04,
          -3.39473154e-05, -8.15807492e-04, -1.54315901e-03,
          -1.06602721e-03, -6.12320728e-04, 5.63666108e-04,
          1.59448455e-03, 2.09643040e-05, 1.96714143e-04, 5.42811758e-04,
          5.75737620e-04, 4.76593821e-04, 2.30797887e-04, 1.02817365e-04,
          0., 0., 0., 0., 0., 0., 2.21757713e-04, 4.17404954e-04,
          4.05710452e-04, 4.81086259e-04, 3.07757931e-04, 1.02907143e-04,
          5.56255458e-04, 4.21679462e-04, -3.95598676e-04,
          -1.03508262e-03, -1.30535266e-03, -1.97349087e-04,
          9.06708738e-05, 1.05015561e-03, 2.88932235e-04, 6.44090178e-05,
          4.24060912e-04, 5.36305888e-04, 3.31230200e-04, 4.88704245e-04,
          2.91173870e-04, 5.15150896e-05, 0., 0., 0., 0., 0., 0.,
          2.76251056e-04, 3.97916738e-04, 4.37083858e-04, 1.04220654e-03,
          3.22939333e-04, 5.28161880e-04, 6.78431301e-04,
          -1.32063733e-05, -8.56253901e-05, -9.09516530e-04,
          -9.48567351e-04, -2.51959980e-04, 7.84061674e-04,
          1.19925209e-03, 2.75613857e-04, 2.22009141e-04, 9.46704415e-04,
          3.93610972e-04, 2.70025484e-04, 3.15544545e-04,
          -7.01711178e-05, -1.14070484e-04, 0., 0., 0., 0., 0., 0.,
          3.03217035e-04, 3.38552083e-04, 4.39435535e-04, 4.73486783e-04,
          3.22715379e-04, 8.57409672e-04, 9.11348441e-04, 3.80896294e-04,
          -1.93831977e-04, -4.91634884e-04, -2.44250812e-04,
          -2.68698292e-04, 4.32379647e-06, 7.79168564e-04,
          8.67734663e-04, 4.39612166e-04, 6.76597061e-04, 9.99127806e-05,
          2.37348388e-04, 3.69293703e-04, -2.70489138e-04,
          -5.30603458e-04, 0., 0., 0., 0., 0., 0., 2.11045495e-04,
          3.57851764e-04, 2.10120386e-04, 6.82230602e-05, 1.80829913e-04,
          5.88500174e-04, 5.87755989e-04, 2.53852748e-04,
          -4.21799487e-04, -4.12585068e-04, -4.75661742e-04,
          -1.28350395e-04, -6.09367737e-04, 5.42667171e-04,
          1.66148995e-04, 6.81034522e-04, 1.39684882e-04, 3.54691474e-05,
          2.63312308e-04, 1.95157510e-04, -5.26690332e-04,
          -5.38337626e-04, 0., 0., 0., 0., 0., 0., 2.09816353e-04,
          4.22123587e-04, 1.32252128e-04, 1.97079542e-04, 4.24909347e-04,
          9.06660498e-05, -5.73894533e-04, -5.65021110e-05,
          1.32353554e-04, -9.80057011e-05, -2.81438333e-05,
          -1.18841912e-04, -2.55713268e-04, -1.90512110e-05,
          1.06176187e-04, 3.15197627e-04, 1.12368696e-04, 1.11394198e-04,
          1.62273252e-04, -2.84131442e-04, -6.33713091e-04,
          -5.36226493e-04, 0., 0., 0., 0., 0., 0., 9.75865405e-05,
          9.95404771e-05, -1.99435060e-04, 2.50619836e-04,
          -6.08354458e-05, -5.51937206e-04, -4.77882480e-04,
          4.21535624e-05, 7.74488901e-04, 5.53379767e-04,
          -2.67691677e-04, -3.87473614e-04, -7.16369599e-04,
          -1.05037249e-03, -6.56104647e-04, -2.50198966e-04,
          -1.96041292e-04, -3.39303224e-05, -3.44906817e-04,
          -6.72594993e-04, -5.98125160e-04, -3.54669493e-04, 0., 0., 0.,
          0., 0., 0., 4.97365218e-05, -1.28740241e-04, -2.83213129e-04,
          -3.79302335e-04, -4.69411643e-05, -9.26769426e-05,
          3.40138417e-04, 8.50177952e-04, 8.28975230e-04, 5.72979683e-04,
          -1.94407461e-04, -2.75925529e-04, -6.85586419e-04,
          -3.14004603e-04, -5.28437318e-04, -3.69559712e-04,
          -6.73917704e-04, -5.67251176e-04, -3.81910475e-04,
          -3.57368641e-04, -4.66559257e-04, -7.60006078e-05, 0., 0., 0.,
          0., 0., 0., -9.10395393e-05, -1.46300517e-04, 1.39922224e-04,
          -2.37148808e-04, -1.22157333e-04, -4.33324574e-04,
          1.96737252e-04, 7.92267732e-04, 1.29688450e-03,
          -3.19422252e-04, 3.46269400e-04, 1.74537374e-04,
          2.13988678e-04, -7.53731510e-05, -2.00734867e-04,
          1.05454630e-04, -3.87951994e-04, -3.46365938e-04,
          -5.33142447e-05, -2.53335347e-05, -4.43336867e-05, 0., 0., 0.,
          0., 0., 0., 0., -4.66333222e-05, 1.99870003e-04,
          4.60814394e-04, 4.55781497e-04, 2.12940606e-04,
          -6.85564766e-04, 3.53570358e-04, 6.87495107e-04,
          2.35163054e-04, -3.56268632e-04, 2.63321883e-04,
          8.87150818e-05, -3.18203412e-04, -2.37838394e-04,
          -1.31503170e-04, 4.54007532e-05, -2.27426848e-04,
          -3.24961475e-05, -2.90730600e-06, 0., 0., 0., 0., 0., 0., 0.,
          0., 0., 4.37675262e-05, 3.78128781e-04, 3.72157025e-04,
          2.80990353e-04, 3.57626472e-04, -2.19621477e-04,
          -7.59032264e-04, -1.22890895e-04, 7.24955695e-04,
          1.61893302e-04, 2.25185329e-04, -1.93149070e-04,
          -1.57912393e-04, -2.12423067e-04, 1.17121919e-04,
          -7.54554321e-06, -6.85489522e-06, -5.61487332e-06,
          -3.35116943e-06, 0., 0., 0., 0., 0., 0., 0., 0., 0., 0., 0.,
          0., 0., 0., 1.70712283e-05, 4.58077957e-05, 2.01238436e-05,
          -4.67724225e-04, -6.37185411e-04, 3.38579339e-05,
          8.53561403e-07, 0., 0., 0., 0., 0., 0., 0., 0., 0., 0., 0., 0.,
          0., 0., 0., 0., 0., 0., 0., 0., 0., 0., 0., 0., 0., 0., 0., 0.,
          0., 0., 0., 0., 0., 0., 0., 0., 0., 0., 0., 0., 0., 0., 0., 0.,
          0., 0., 0., 0., 0., 0., 0., 0., 0., 0., 0., 0., 0., 0., 0., 0.,
          0., 0., 0., 0., 0., 0., 0., 0. ]
      - [ 0., 0., 0., 0., 0., 0., 0., 0., 0., 0., 0., 0., 0., 0., 0., 0.,
          0., 0., 0., 0., 0., 0., 0., 0., 0., 0., 0., 0., 0., 0., 0., 0.,
          0., 0., 0., 0., 0., 0., 0., 0., 0., 0., -2.73626705e-04,
          2.94791709e-04, 1.82094530e-03, 9.86414263e-04, 0., 0., 0., 0.,
          0., 0., 0., 0., 0., 0., 0., 0., 0., 0., 0., 0., 0., 0., 0.,
          -4.21004952e-05, -1.31404580e-04, -3.24046239e-04,
          -5.87316405e-04, -6.49507041e-04, -8.33107100e-04,
          -7.51164218e-04, -1.91764979e-04, -4.60715994e-04,
          -2.02875119e-04, -2.76679566e-06, 0., 0., 0., 0., 0., 0., 0.,
          0., 0., 0., 0., 0., 0., 0., 0., 3.16914055e-04, 9.20782099e-04,
          -6.85988343e-04, -9.47003020e-04, -3.57974018e-03,
          1.66398648e-04, 7.65156408e-04, -2.69123062e-04,
          -2.97823315e-03, -2.06333832e-04, 2.18452117e-03,
          -1.46457937e-03, -9.29652248e-04, 1.38608541e-03,
          -1.27632753e-03, -9.28598820e-06, 0., 0., 0., 0., 0., 0., 0.,
          0., 0., 0., -3.69963964e-04, -1.83013547e-03, -1.03654282e-03,
          1.51161425e-04, 1.10768131e-03, -2.95196252e-04,
          -5.62848581e-04, -1.89835043e-03, 3.03854118e-03,
          -1.45104318e-03, -7.98188150e-04, 2.38173525e-03,
          -2.11263774e-03, 1.02572364e-03, 1.26161525e-04,
          2.39276979e-03, 3.17231310e-03, 2.73794634e-03, 1.09252532e-03,
          4.00646299e-04, 0., 0., 0., 0., 0., 0., 0., -8.02967065e-07,
          -2.22943444e-03, -7.41631840e-04, 1.63616176e-04,
          6.32945812e-05, 4.03771061e-04, 8.24704708e-04,
          -4.37450617e-05, -2.75559677e-03, -1.49912934e-03,
          -9.44403524e-04, 2.08450109e-03, -3.41056264e-03,
          -1.08572865e-04, -5.13449777e-04, 9.44548883e-05,
          -3.99692100e-04, -3.72144184e-03, -8.71549128e-04,
          -7.42852746e-04, 1.35333650e-03, 0., 0., 0., 0., 0., 0., 0.,
          1.97113732e-05, -2.63832975e-04, 8.80028587e-04,
          2.63281935e-03, 6.00783911e-04, -3.83423874e-03,
          -1.17339630e-04, 8.52444151e-04, -2.26692515e-04,
          3.73499142e-03, -2.93275370e-04, -1.47301657e-03,
          5.92022028e-04, 1.24785374e-03, -2.29317360e-04,
          1.03192148e-03, 4.94641392e-03, -1.93781254e-03,
          1.40935672e-03, 1.73568109e-03, 5.36510954e-04,
          -1.94360022e-04, 0., 0., 0., 0., 0., 0., -5.79346786e-04,
          2.31718586e-04, -1.43630034e-03, -1.33458685e-04,
          -6.58116071e-04, 7.04497274e-04, 5.32081584e-04,
          5.72638644e-04, -1.05702516e-03, -3.52943316e-03,
          2.98253028e-03, -1.71493960e-03, -2.71580910e-04,
          8.37109168e-04, -2.33777046e-05, 7.47964426e-04,
          -1.43425541e-05, -4.75389068e-04, -1.16032967e-03,
          1.95274467e-03, 2.73893820e-03, -3.31000047e-05, 0., 0.,
          2.85778497e-05, 0., 0., 0., -3.31997336e-03, -7.61439383e-04,
          1.62604498e-04, -1.51129252e-05, 2.02719145e-03,
          9.58882214e-04, 1.30807410e-03, -3.39621049e-03,
          3.16776079e-03, -4.90649079e-04, 4.16873954e-04,
          8.77955288e-04, 2.72089429e-03, -8.57459789e-04,
          2.35138810e-03, -2.43273401e-03, -8.46850511e-04,
          5.45771210e-04, 3.36779724e-03, -1.12925691e-03,
          3.22172395e-03, 8.02291208e-04, 0., 0., 0., 0., 0., 0.,
          -1.55275711e-03, -1.03315513e-03, -1.25483260e-03,
          -9.26298089e-04, -7.06162886e-04, 1.15345255e-03,
          -4.53395187e-04, 6.56745047e-04, 9.01874912e-04,
          1.38131424e-03, -1.07826712e-03, -3.00515164e-03,
          -1.80924567e-03, 8.69867916e-04, -1.96631881e-03,
          1.85948983e-03, 2.09129808e-04, 8.88994487e-04,
          -5.59211615e-03, 6.25782588e-04, 5.68997348e-05,
          1.44421845e-03, -4.63000197e-06, 0., 0., 0., 0.,
          -3.29715549e-05, 1.79089082e-03, 8.11217251e-05,
          6.15667523e-05, 2.99182558e-03, -1.47010072e-03,
          2.38034379e-04, -8.59192689e-04, -5.94961748e-04,
          -2.31611286e-03, 2.49160593e-03, 2.47649942e-03,
          1.16946409e-03, 3.07633542e-03, -1.29733782e-03,
          -5.57972562e-05, 8.78123465e-05, -4.83850483e-04,
          -9.50569869e-04, 2.44434900e-03, 1.43335445e-03,
          2.80236447e-04, 9.37248871e-04, -1.73625071e-04, 0., 0.,
          4.85394412e-05, 0., -1.72000786e-04, -1.67640368e-03,
          -2.22245115e-03, -2.22026347e-03, -1.16907142e-03,
          2.22622370e-03, -9.07412141e-06, 2.83109210e-03,
          8.67640541e-04, -1.70446036e-03, 3.19223595e-03,
          -2.38049519e-03, -1.07174960e-03, 1.93468854e-03,
          3.17795109e-03, 2.53537996e-03, 1.86823308e-03, 1.01875141e-03,
          2.46929424e-03, 2.37090886e-03, -3.06089896e-05,
          5.65575494e-04, 4.57647606e-04, 0., 0., 0., 0., 0.,
          -7.69510691e-04, -9.53551440e-04, 1.73208828e-03,
          -2.77894840e-04, 6.54342875e-04, 2.10118899e-03,
          -2.60016677e-04, 4.74389904e-04, 4.10954095e-03,
          3.57081578e-03, -1.35518890e-03, -3.63783503e-04,
          -3.96344985e-04, -1.52459997e-03, 2.25381157e-03,
          1.38651743e-03, -1.34638918e-03, 2.51649442e-04,
          9.17048965e-05, -9.09848779e-04, 3.97811551e-03,
          2.70185131e-03, 1.09939533e-03, 0., 0., 0., 0., 0.,
          -8.21242458e-04, 2.24398612e-03, 3.89387552e-03,
          3.93227302e-03, 1.68751169e-03, 4.16586874e-04, 1.68669235e-03,
          -3.11661349e-03, -2.26552715e-03, -1.81818590e-03,
          -1.11340417e-03, -1.48635346e-03, -1.01121573e-03,
          -4.47171740e-04, -3.02399881e-03, 1.28416496e-03,
          1.43408682e-03, 8.65795373e-05, 6.45782857e-04, 1.14102068e-03,
          4.80814255e-04, -2.18416634e-03, 2.05332806e-04, 0., 0., 0.,
          0., 0., -2.86511931e-04, 2.48671020e-03, 1.06206024e-03,
          1.64903386e-03, -8.60001892e-04, 1.62430503e-03,
          1.85127568e-03, 1.88259140e-03, 1.17855158e-03, 2.15466181e-03,
          2.59959325e-03, -6.58849906e-03, 2.23291921e-03,
          -3.27294343e-03, -1.11843471e-03, 1.33599108e-03,
          -1.08411966e-03, 1.69032626e-03, 3.32360098e-04,
          2.07831943e-03, -6.55397482e-04, -1.36763696e-03,
          -2.07793852e-03, -4.92664985e-04, 0., 0., 0., -2.80953063e-05,
          -1.02084782e-03, 3.66800092e-03, -3.01098428e-03,
          -5.60611894e-04, 3.30713764e-03, 2.74810009e-04,
          3.03317473e-04, 1.81250856e-03, -3.28887813e-03,
          7.43332203e-04, -1.89252594e-03, -3.42433876e-03,
          5.56104060e-04, -5.50142177e-05, -1.24203929e-04,
          5.39123954e-04, -7.18789874e-04, 1.20482279e-03,
          1.00925460e-03, 1.92964426e-03, 2.26634089e-03,
          -4.51317756e-04, -1.68390630e-03, -2.50342675e-03,
          -1.08612803e-04, 0., 0., -1.98673952e-04, -1.25986862e-03,
          -1.82442530e-03, 3.85347614e-03, 8.65257403e-04,
          -4.46350401e-04, 6.17271988e-04, -1.35199132e-03,
          8.63088644e-04, 3.00376234e-03, -1.70616410e-03,
          -1.10556546e-03, -2.07411870e-03, -7.89221376e-04,
          -2.37630331e-03, 3.06661183e-04, -4.50126734e-03,
          3.24875204e-04, -2.58147088e-03, -2.10129563e-03,
          -2.63599725e-03, 6.16074773e-04, -7.35143607e-04,
          -3.57137504e-03, -2.98111048e-03, -2.91000353e-04, 0., 0.,
          -3.41157283e-04, -1.14498904e-03, -1.84560532e-03,
          -8.76203936e-04, -4.58350347e-04, -4.96795110e-04,
          -1.54768131e-04, 3.49453883e-03, -1.41545956e-03,
          -2.30115978e-03, 2.89742547e-06, -5.25423232e-03,
          2.94422178e-04, -1.49599940e-03, -9.12789255e-05,
          2.59579683e-04, 1.31735054e-03, 2.13270559e-05, 3.12942360e-03,
          1.63402492e-05, -6.94170711e-04, 1.20797404e-03,
          -2.54823174e-03, -2.42403662e-03, -9.48624162e-04,
          -2.21594179e-04, 0., 0., -9.23131447e-05, -1.09764514e-03,
          -2.39006151e-03, -3.09525500e-03, -8.91484844e-04,
          -2.66764080e-04, -5.42624621e-04, -1.82702381e-04,
          1.83139415e-03, 1.03312416e-03, 6.30111783e-04,
          -1.26121438e-03, 2.04875972e-03, -2.72998400e-03,
          -1.30767189e-03, -7.48226186e-04, -1.27647957e-03,
          1.52792665e-03, -3.75784351e-03, 1.40598509e-03,
          -1.43431069e-03, 1.82916338e-04, -1.30196917e-03,
          -1.80208497e-03, -7.62211159e-04, -4.53373272e-04, 0., 0.,
          -2.01464172e-05, 1.72817323e-04, -4.52349515e-04,
          1.66616053e-03, 5.45960153e-04, -7.24190206e-04,
          2.47920351e-03, -1.59325928e-03, -1.85512111e-03,
          1.06786203e-03, 5.07580233e-04, -7.60611321e-04,
          -4.04277787e-04, -1.61115802e-03, -2.78901862e-04,
          -4.10711276e-04, -1.15836307e-03, -2.38222347e-04,
          1.02530210e-03, -1.49934110e-03, -7.65126097e-05,
          5.09240665e-04, -4.62504613e-05, -3.07978690e-03,
          -1.93619926e-03, 0., 0., 0., -1.50323263e-04, 2.07608900e-04,
          1.55924354e-03, 6.38684258e-04, -9.35385120e-04,
          -1.02744007e-03, 6.18091959e-04, -3.30473762e-04,
          4.81122464e-04, -1.51611876e-03, 1.43252034e-03,
          1.75953435e-03, 1.24106964e-03, -3.51997162e-03,
          1.81887444e-05, 4.17414820e-04, 2.17329618e-03,
          -3.02212220e-03, 6.18727208e-05, -2.52205296e-03,
          1.14625739e-03, 3.38477606e-04, -3.86050408e-04,
          -7.94577820e-04, -4.21592675e-04, 0., 0., 0., -2.77965330e-04,
          -1.37104676e-03, -8.94055702e-04, -1.50312216e-03,
          -3.59691121e-03, 1.77114061e-03, -5.26081072e-04,
          -4.40908043e-04, 3.66199267e-04, 2.14227452e-03,
          -7.29237800e-04, 9.63515195e-05, -1.01708458e-03,
          7.56042544e-04, -1.45893998e-03, -2.98363506e-03,
          -1.15405594e-03, 2.26047239e-03, -2.29934929e-03,
          7.07971631e-04, -2.86833337e-03, -1.49655237e-03,
          -2.75202305e-03, -3.02465371e-04, 1.28176369e-04, 0., 0., 0.,
          -3.87431101e-05, -4.14704875e-04, -2.42947903e-03,
          -1.00021926e-03, 2.57273600e-03, -3.01084551e-03,
          -2.12622387e-03, -1.23925041e-03, 2.75322213e-03,
          -2.81369523e-03, 2.82644760e-03, 1.95228425e-03,
          1.18275057e-03, -2.56006169e-04, 1.71296147e-03,
          -1.24244345e-03, -2.11848156e-03, 1.45824172e-03,
          6.34292606e-04, -5.07871213e-04, -4.67595091e-04,
          1.81041961e-03, -3.91967129e-04, -2.05052012e-04,
          -3.61130810e-06, 0., 0., 0., 0., -1.44710921e-05,
          -2.94920616e-03, 2.72303208e-04, -3.00725154e-03,
          2.89234333e-03, 3.00695916e-04, -1.98380498e-04,
          1.70332752e-03, -4.30132262e-04, 1.53320900e-04,
          2.13912944e-03, -2.09966718e-04, -9.36302749e-05,
          -2.68934667e-03, -7.15901842e-04, -1.79155497e-04,
          -2.41513760e-03, -9.58577672e-04, -4.67821432e-04,
          -3.93516151e-03, -6.46962551e-03, -1.94848957e-03,
          1.17327445e-05, -6.42423111e-05, 0., 0., 0., 0., 0.,
          2.66349735e-03, 5.44448383e-03, -1.79094041e-03,
          1.18557880e-04, -1.62810110e-03, -1.34221232e-03,
          1.08634529e-03, -1.22004421e-03, 4.95654123e-04,
          2.75817583e-03, -7.23730045e-05, 4.63069417e-04,
          -7.41441734e-04, 1.33682194e-03, 1.32401194e-03,
          -2.15129601e-03, -2.24201311e-03, -1.48608419e-03,
          -1.06199004e-03, -2.14553904e-03, -1.03295979e-03,
          -1.39415424e-04, 0., 0., 0., 0., 0., 0., 0., 0.,
          -1.24534403e-04, -8.42955254e-04, -8.48590571e-04,
          -5.90437441e-04, -2.98247178e-04, -2.24596573e-04,
          2.43545383e-05, -6.98769931e-04, -4.53380519e-04,
          -3.96033807e-04, -9.23351326e-04, -1.00069994e-03,
          -1.54362677e-03, -1.39967259e-03, -6.13172480e-04, 0., 0., 0.,
          0., 0., 0., 0., 0., 0., 0., 0., 0., 0., 0., 0., 0., 0., 0., 0.,
          0., 0., 0., 0., 0., 0., 0., 0., 0., 0., 0., 0., 0., 0., 0., 0.,
          0., 0., 0., 0., 0., 0., 0., 0., 0., 0., 0., 0., 0., 0., 0., 0.,
          0., 0., 0., 0., 0., 0., 0., 0., 0., 0., 0., 0. ]
      - [ 0., 0., 0., 0., 0., 0., 0., 0., 0., 0., 0., 0., 0., 0., 0., 0.,
          0., 0., 0., 0., 0., 0., 0., 0., 0., 0., 0., 0., 0., 0., 0., 0.,
          0., 0., 0., 0., 0., 0., 0., 0., 0., 0., 0., 2.09740159e-04,
          5.73289755e-04, 2.72662204e-04, 0., 0., 0., 0., 0., 0., 0., 0.,
          0., 0., 0., 0., 0., 0., 0., 0., 0., 0., 0., 0., 0., 0., 0., 0.,
          0., -1.66417696e-04, -5.45100949e-04, -5.95070829e-04,
          -1.38158095e-04, 0., 0., 0., 0., 0., 0., 0., 0., 0., 0., 0.,
          0., 0., 0., -1.19137648e-03, -1.18670438e-03, -1.20703166e-03,
          -8.64348433e-04, -2.97759223e-04, -2.19710125e-03,
          -1.94982428e-03, -1.55601243e-03, 2.62475945e-03,
          9.54526477e-04, -9.36517084e-04, -2.96638370e-03,
          -2.27419613e-03, -3.05319647e-03, -2.44628196e-03,
          -1.85504800e-03, -2.45965843e-04, 2.30433179e-05,
          1.30805684e-05, 0., 0., 0., 0., 0., 0., 0., 0., 0.,
          -1.22114155e-03, -9.56122531e-04, -3.46734712e-04,
          -9.92210698e-04, -1.20771397e-03, -1.71603984e-03,
          2.75273371e-04, -1.13779004e-03, 3.51489172e-04,
          3.52493487e-04, -1.54293340e-03, -6.01800508e-04,
          -9.12541465e-04, -1.39354292e-04, 8.15679901e-04,
          9.73688730e-04, -2.13111495e-03, -1.56214158e-03,
          -6.40048063e-04, 3.65619693e-04, 0., 0., 0., 0., 0., 0., 0.,
          -4.22115962e-04, -1.91965408e-03, 1.07037820e-04,
          -1.14106445e-03, -9.78190452e-04, -2.52005388e-03,
          5.93668956e-04, 6.26192545e-04, -4.25600447e-03,
          -1.33367057e-03, 2.12283549e-03, -2.39009387e-03,
          -1.70875713e-03, 5.62819943e-04, 9.50038084e-04,
          6.90968998e-04, -9.21060215e-04, 8.54867627e-04,
          -5.94195095e-04, -3.40305758e-03, -4.84386808e-04, 0., 0., 0.,
          0., 0., -1.44189225e-05, 0., -3.48303874e-04, -8.10199825e-04,
          -6.40884100e-04, 7.01354202e-06, 2.54980056e-03,
          -3.17832921e-03, -1.02354679e-03, 1.45843090e-03,
          -2.15238048e-04, -1.16231316e-03, 2.34373802e-04,
          -1.62682962e-03, 1.75609940e-03, -2.98658013e-03,
          -9.79759265e-04, -1.53605139e-03, -9.27998393e-04,
          -2.51003238e-03, 1.43365317e-03, -1.44104706e-03,
          -7.98426161e-04, 0., 0., 0., 0., 0., 0., -1.47267235e-06,
          -4.26421582e-04, -1.70712476e-03, -7.35178590e-04,
          -1.31145981e-03, -1.08037912e-03, -6.82069105e-04,
          8.88104551e-04, 5.91788732e-04, -2.90595391e-03,
          6.51999871e-05, -6.78740966e-04, -8.58857893e-05,
          2.65617655e-06, 8.20995134e-04, 2.27792747e-03, 6.64099702e-04,
          2.90951505e-03, -1.76391812e-04, 2.97279190e-03,
          -9.45714128e-04, -1.37639348e-03, 7.64882425e-05, 0., 0., 0.,
          0., 0., -7.16700524e-05, -8.09240155e-04, -2.85705226e-03,
          -1.29701788e-04, -5.27974800e-04, 1.88350573e-03,
          1.60775019e-03, 9.30874259e-04, -2.50470545e-03,
          1.35811942e-03, 7.20982731e-04, 6.00662897e-04,
          -6.65237778e-04, -1.01191399e-03, -1.49769871e-03,
          6.44509913e-04, -1.04258861e-03, -4.67146136e-04,
          -9.40706697e-04, -2.42051994e-03, -4.87697951e-04,
          -1.11600023e-03, 3.21949010e-05, 0., 0., 0., 0., 0.,
          -5.27153257e-04, -1.93808472e-03, -2.72099208e-03,
          9.73294256e-04, -1.48130825e-03, 2.26202843e-04,
          -2.95192614e-04, 1.46921538e-03, -8.00786365e-04,
          9.85255116e-04, -6.53783150e-04, -9.53200215e-04,
          -9.12924064e-04, 4.99396061e-04, 6.40497601e-04,
          -1.92371442e-03, -1.82840379e-03, -1.24910567e-03,
          -3.07007367e-03, -3.16994754e-03, -1.34278322e-04,
          1.54302642e-03, 5.87906907e-05, 0., 0., 0., 0., 0.,
          -7.10066175e-04, -1.18132506e-03, 4.64465847e-04,
          2.51911045e-03, 3.93068563e-04, 1.24665059e-03,
          -3.43518041e-04, 2.19297642e-03, 4.53797955e-04,
          1.23900594e-04, -1.41369921e-04, -1.19062890e-04,
          -6.93696784e-05, 1.32877531e-03, 1.45147531e-03,
          1.16968900e-03, 3.72241740e-03, 1.21735060e-03, 2.15583481e-03,
          7.99703121e-04, -1.59817678e-03, -1.47638260e-04,
          5.90239870e-05, 0., 0., 0., 0., 0., -5.53191057e-04,
          -1.01745548e-03, 3.90528439e-04, 2.60471040e-03,
          -5.73532830e-04, -1.42942381e-03, 2.13178108e-03,
          1.25630759e-03, 3.75513802e-04, 1.57818897e-03,
          -2.12079729e-04, 4.19378688e-04, -2.00480712e-03,
          -1.84530800e-03, -1.61549216e-03, -9.11644078e-04,
          5.08035824e-04, 1.87346165e-03, 1.43387564e-03, 5.55009721e-03,
          4.30974353e-04, 1.40742725e-03, 5.87906907e-05, 0., 0., 0., 0.,
          0., 0., -1.39460608e-04, -8.30480247e-04, 3.21992789e-03,
          -4.21539735e-04, 1.12665875e-03, 2.82473583e-03,
          -1.65060570e-03, -1.65061513e-03, 1.41580962e-03,
          -1.47863093e-03, -2.66738283e-03, -2.48034205e-03,
          -1.46081718e-03, 6.73808914e-04, 4.99951188e-04,
          -1.49559893e-03, -6.26684690e-04, 1.96625153e-03,
          2.85253278e-03, 2.32855510e-03, 2.17055366e-03, 5.87906907e-05,
          0., 0., 0., 0., 0., -2.91077042e-04, 1.72381708e-03,
          -1.28824636e-03, 5.45303279e-04, 1.73256185e-03,
          1.03304000e-03, 1.52506621e-03, 1.63013116e-04, 2.04803469e-03,
          -2.93159363e-04, -1.42534077e-03, -1.18200784e-03,
          -2.37992220e-03, 5.86437352e-04, -2.22632568e-03,
          -1.40989805e-03, 1.26439042e-03, -1.36518339e-03,
          8.10978236e-04, 3.18641635e-03, 1.12294615e-03, 2.58413120e-03,
          9.09591618e-05, 0., 0., 0., 0., 0., -7.16439914e-04,
          6.21668645e-04, 1.09972770e-03, 6.71311165e-04, 8.25905416e-04,
          1.53826390e-04, 2.44820512e-05, 2.15573818e-03, 1.34377399e-06,
          1.90484815e-03, 1.10206380e-03, -4.80313180e-03,
          1.02552853e-03, -1.96000305e-03, -2.74914782e-03,
          7.97715271e-04, 1.31470780e-03, 1.83626951e-04, 1.65474718e-03,
          2.86291397e-05, 2.90193711e-03, 1.98895647e-03, 9.73928545e-05,
          0., 0., 0., 0., 0., -2.92216391e-05, 1.33678259e-03,
          6.42212341e-04, -1.89526007e-03, 1.45943917e-03,
          -5.24045645e-05, 1.15869776e-03, 3.01699899e-03,
          1.20744843e-03, 1.41287374e-03, -1.25899061e-03,
          -3.69465933e-03, 1.24316465e-03, -2.24496494e-03,
          1.50008965e-03, 2.23819818e-03, -2.25522253e-03,
          7.90339836e-04, -8.13206134e-04, -2.69896886e-03,
          2.73710262e-04, -1.10470559e-04, 6.86973945e-05, 0., 0., 0.,
          0., 0., -1.28575217e-03, -1.00046120e-04, 1.32295338e-03,
          1.86948327e-03, 2.34538037e-03, -6.11207040e-04,
          6.92052417e-04, -2.00295588e-03, 1.03932049e-03,
          1.40911562e-03, -4.51042503e-03, -2.52413709e-04,
          1.02498067e-04, 6.84267361e-05, 2.75153900e-03,
          -2.65806401e-03, 5.68843097e-04, -6.71704591e-04,
          1.82206021e-03, -1.23805250e-03, -2.85175949e-04,
          -2.79828254e-03, 4.84006123e-05, 0., 3.01655418e-05, 0., 0.,
          0., -2.36046757e-03, -2.10479018e-03, 2.32260511e-03,
          1.43121544e-03, -6.64280262e-04, 6.00073952e-04,
          3.01165786e-03, 3.00400890e-04, 1.58700545e-03, 1.70029677e-03,
          -2.36465456e-03, 1.42661831e-03, 1.32238097e-03,
          1.36768585e-03, -1.10006449e-03, 2.95188482e-04,
          -3.11704352e-04, 3.23051558e-04, -1.14051637e-03,
          1.80705881e-03, -7.30847300e-04, -1.99365034e-03,
          3.95353491e-05, 0., 2.61434703e-04, 0., 0., 0.,
          -1.78322708e-03, -1.07276649e-03, 2.76420033e-04,
          -1.94064429e-04, -8.66519753e-04, 5.88309893e-04,
          2.51854677e-03, 1.23581651e-03, 2.28934747e-04,
          -1.95692082e-05, -2.35645613e-03, -2.36723339e-04,
          -2.12783157e-03, -4.56355745e-03, 2.16861677e-04,
          -6.42467581e-04, -2.76108418e-04, -2.71790545e-03,
          -6.40975893e-04, -9.57797922e-04, -3.65100423e-04,
          -7.62295967e-04, 6.43369367e-06, 0., 0., 0., 0., 0.,
          -1.50182284e-03, -8.68676871e-04, -1.34521397e-03,
          -5.54541126e-04, 1.67084439e-03, 9.96523886e-04,
          -5.92520460e-04, -1.09817265e-05, 6.46713597e-04,
          2.07329565e-03, 2.72620423e-03, -2.69350257e-05,
          2.10763211e-03, 1.84391101e-04, -2.08927901e-03,
          3.66578228e-04, -1.08462479e-03, -1.07229187e-03,
          -7.08701788e-04, -8.27850658e-04, -2.33884435e-03,
          3.77966528e-04, 0., 0., 0., 0., 0., 0., -9.43796360e-04,
          -1.96100655e-03, -3.97831434e-04, -1.31347775e-03,
          1.55944028e-03, -4.09509055e-04, -9.82986996e-04,
          9.78342374e-04, 7.03151280e-04, 1.79302506e-03, 5.61945548e-04,
          -3.80570558e-03, 1.53433962e-03, -1.82265037e-04,
          -1.01869076e-03, 4.90573948e-05, -4.05758503e-04,
          4.48334496e-04, -2.32921229e-04, 7.45029422e-04,
          -2.16912176e-03, 1.09123741e-03, 0., 0., 0., 0., 0., 0.,
          -2.80698878e-04, 8.53301244e-05, 1.63042510e-03,
          -1.49973697e-04, 4.14426642e-04, -1.05901097e-03,
          1.18773372e-03, 7.46242004e-04, 1.55098189e-03,
          -7.99113186e-04, 2.23812880e-03, 6.88506931e-04,
          -2.42741592e-03, 2.39490834e-03, -2.30702819e-04,
          -1.39528059e-03, -1.83366974e-05, 1.71231385e-03,
          -1.35351252e-03, -4.37270763e-04, 6.30412891e-04,
          5.29128418e-04, 0., 0., 0., 0., 0., 0., -5.18071174e-04,
          -1.35803036e-03, 2.59677036e-04, 1.02009845e-03,
          -6.96470146e-04, -1.13876791e-04, 1.68034821e-04,
          -6.79904537e-04, 1.82426869e-04, 4.73230099e-03,
          8.76066624e-04, 3.45859502e-04, -5.68497169e-04,
          4.64488403e-05, -5.88045979e-04, -2.14776213e-04,
          -2.44984694e-04, 8.52058474e-06, 9.45925538e-04,
          -1.45421305e-04, 1.71434321e-03, 1.37181443e-04, 0., 0., 0.,
          0., 0., 0., -6.09469658e-04, -2.46494659e-03, -8.86806629e-06,
          -9.84788130e-05, -4.09804226e-04, 4.90551989e-04,
          3.61525046e-04, -8.22046481e-04, 1.01126230e-03,
          -2.34916457e-04, 8.96974088e-05, 3.16528650e-03,
          9.17434460e-04, -2.42948649e-03, 1.10168286e-04,
          -1.53990369e-03, 4.44877776e-04, -2.41547124e-04,
          -5.19103545e-04, 9.43664461e-04, 3.42953601e-04, 0., 0., 0.,
          0., 0., 0., 0., -5.74494061e-06, 4.72607790e-04,
          1.20592467e-03, -1.96927972e-03, -1.48796348e-03,
          -3.31571186e-03, 1.01710169e-03, 3.16894802e-05,
          5.26058757e-05, 6.13748969e-04, 1.05338695e-03, 1.88074645e-03,
          -3.37984588e-04, 1.35988870e-04, 4.40893404e-04,
          -9.47662746e-04, -3.07857292e-04, -8.35146813e-04,
          -3.45099310e-04, -1.82498072e-04, 0., 0., 0., 0., 0., 0., 0.,
          0., 0., 0., -1.11864181e-03, -1.66922319e-03, -2.28839484e-03,
          -2.40800716e-03, -2.50098133e-03, -2.66278139e-03,
          -2.65371287e-03, -2.91101588e-03, -2.26245681e-03,
          -1.35221658e-03, -5.97863283e-04, -5.08514175e-04,
          -5.22705493e-04, -1.50981621e-04, 0., 0., 0., 0., 0., 0., 0.,
          0., 0., 0., 0., 0., 0., 0., -5.59320906e-04, -1.11864181e-03,
          -1.11864181e-03, -1.11864181e-03, -1.11864181e-03,
          -1.22595334e-03, -1.34093012e-03, -1.49666041e-03,
          -1.09106151e-03, -4.65508580e-04, -1.92586012e-04,
          -1.89141821e-04, -4.19762102e-04, -1.50981621e-04, 0., 0., 0.,
          0., 0., 0., 0., 0., 0., 0., 0., 0., 0., 0., 0., 0., 0., 0., 0.,
          0., 0., 0., 0., 0., 0., 0., 0., 0., 0., 0., 0., 0., 0., 0., 0.,
          0., 0. ]
      - [ 0., 0., 0., 0., 0., 0., 0., 0., 0., 0., 0., 0., 0., 0., 0., 0.,
          0., 0., 0., 0., 0., 0., 0., 0., 0., 0., 0., 0., 0., 0., 0., 0.,
          0., 0., 0., 0., 0., 0., 0., 0., 0., 0., 0., 9.65334882e-04,
          2.63858191e-03, 1.25493528e-03, 0., 0., 0., 0., 0., 0., 0., 0.,
          0., 0., 0., 0., 0., 0., 0., 0., 0., 0., 0., 0., 0., 0., 0.,
          -5.33163693e-05, -3.48607020e-04, -3.34252632e-04,
          5.06414217e-04, 4.51986380e-05, 0., 0., 0., 0., 0., 0., 0., 0.,
          0., 0., 0., 0., 0., 0., 0., 0., -1.61956268e-05,
          -1.32699657e-04, -1.32699657e-04, -2.83433383e-05,
          1.34919210e-05, 7.78458925e-05, 1.22002195e-04,
          -2.02124502e-05, 7.86528180e-05, 5.41432877e-04,
          5.27981902e-04, 4.31013788e-04, 1.06984354e-03, 3.82930128e-04,
          -1.10938051e-03, -7.74602231e-04, -2.39066343e-04,
          -6.90977758e-05, 0., 0., 0., 0., 0., 0., 0., 0., 0.,
          -1.04487913e-06, 3.97608055e-05, 2.39981950e-04,
          3.98557400e-04, -5.48469361e-05, -1.83932934e-06,
          1.11921900e-03, 3.25935776e-04, -7.18864845e-04,
          -6.37733378e-04, 3.80000216e-04, 1.83822273e-03,
          -5.17600158e-04, -1.29252626e-03, 8.49542674e-04,
          4.38492367e-04, -6.10861869e-04, 1.60175114e-04,
          5.39822329e-04, -1.56918960e-03, -1.14892982e-03, 0., 0., 0.,
          0., 0., 0., 0., 8.22206639e-05, 5.97854436e-04, 3.11186741e-04,
          -5.02663665e-04, -1.96290377e-04, 3.91320616e-04,
          -6.10332820e-04, 2.00966722e-04, 1.16143795e-03,
          -4.49945568e-04, -4.98211848e-05, 5.72900986e-04,
          8.27344600e-04, -1.46684048e-04, 2.30852980e-04,
          -6.26044057e-04, 5.90846175e-04, -9.20667138e-04,
          -2.00987840e-03, -1.41392427e-03, 0., 0., 0., 0., 0., 0., 0.,
          0., 2.07524681e-06, 6.65263215e-04, 4.57961520e-04,
          -1.28989675e-04, -6.58821256e-04, 3.30526265e-04,
          -1.66692844e-04, -8.69728217e-04, 1.28186517e-03,
          1.46924937e-03, -1.45507234e-04, 6.29976275e-04,
          -2.27467535e-04, -7.03493424e-04, -4.36646151e-05,
          -3.16972961e-04, 4.60624142e-05, 9.03688779e-04,
          -6.11014431e-04, -1.23189879e-03, -1.12357782e-04, 0., 0., 0.,
          0., 0., 0., -1.01585712e-04, -9.97088267e-04, -2.49934907e-04,
          -8.76234262e-04, -2.86081631e-04, 1.29799679e-04,
          4.99460366e-05, -8.13727791e-04, -1.55587404e-04,
          1.40970119e-03, 1.22979097e-03, -6.32170937e-04,
          2.51056626e-04, 1.27553870e-03, 3.00831220e-04,
          -3.26126901e-04, -8.60037631e-04, -1.25327765e-03,
          -4.51878768e-05, 1.72166780e-04, 1.43048455e-04,
          8.12412763e-04, 0., 0., 2.76585895e-04, 0., 0., 0.,
          -4.93916741e-04, -6.55314943e-04, 9.71656846e-05,
          2.00964932e-04, 1.00328238e-03, 1.80513842e-03,
          -6.96393181e-05, -4.27024614e-04, -1.08948618e-04,
          -1.07798132e-03, 5.51722827e-04, 1.50841218e-03,
          1.33037660e-03, 9.56321252e-04, 4.78698086e-04,
          -1.26000406e-04, -8.45815404e-04, 3.54911492e-04,
          7.49150466e-04, -7.58001770e-05, -1.18865166e-03,
          -2.48038705e-04, 0., 0., 0., 0., 4.39365904e-05,
          9.76368665e-06, -8.23274313e-05, -1.34181810e-05,
          1.87898858e-03, 5.40776236e-04, -5.23310911e-04,
          9.50901158e-05, 1.77668931e-03, 5.38198336e-04, 1.46762643e-03,
          -1.76609436e-04, -4.90291277e-04, 9.44582163e-04,
          2.12194188e-03, -1.34802272e-03, -6.83619059e-04,
          1.92224176e-03, 1.26250205e-03, -1.13987527e-03,
          -5.95682999e-04, 1.74245652e-04, -2.27465076e-04,
          -4.07453947e-04, 0., 0., 0., 0., 2.26192089e-04,
          1.98528302e-04, 5.61991590e-04, 5.17491659e-04, 6.60306890e-04,
          1.26068189e-04, 4.85772878e-04, 1.43344470e-04, 2.89175514e-04,
          2.51645775e-04, -1.41040382e-05, 2.26061186e-03,
          1.55360566e-03, 4.32111905e-04, 1.25071092e-03, 2.49968696e-04,
          1.82013272e-03, 4.11795801e-04, 4.77862748e-04,
          -3.62617517e-04, 2.91803590e-04, -2.03266274e-04,
          -7.12480338e-04, -4.39607131e-04, 0., 0., 0., 2.84736074e-04,
          0., 0., 5.83699555e-04, -3.17767190e-05, -5.88040217e-04,
          1.30462926e-04, 1.56578154e-03, -1.23343908e-03,
          -1.16041431e-03, 7.13661779e-04, -2.46449094e-03,
          1.66605227e-04, 8.62293877e-04, 1.56336359e-03, 7.52879307e-04,
          1.44932570e-03, 1.49922169e-04, -7.89839658e-04,
          1.64687983e-03, 2.82693421e-04, 2.68945075e-03, 1.61045487e-03,
          1.80239533e-03, -1.74537723e-04, 0., 0., 0., 0., 0., 0.,
          2.98153987e-04, -5.09783567e-04, 2.59443914e-04,
          -3.51498165e-04, -1.00121324e-04, -4.41312237e-04,
          8.65005190e-04, 1.00737358e-04, -7.46279198e-04,
          -1.00933095e-04, 7.66473589e-04, 7.16465438e-05,
          7.44826742e-04, 4.99656308e-04, 3.47542547e-04, 6.88872824e-04,
          6.78456039e-04, -1.13269198e-03, 1.50852173e-03,
          1.48226274e-03, 7.00096251e-04, -8.87899660e-04,
          -4.24205064e-04, 0., 0., 0., 0., 0., 2.84233160e-04,
          -2.43572140e-04, 8.15993641e-04, 4.46396385e-04,
          -2.77037994e-04, 1.56563660e-03, -8.79042258e-04,
          -1.17139611e-03, 2.74331163e-04, -9.33738425e-04,
          -3.54643236e-03, 5.51720332e-05, -2.11067454e-04,
          -1.57108495e-03, -2.16822591e-04, 1.15106313e-03,
          -2.56185362e-04, 7.24015350e-04, 1.60583411e-03,
          3.44324741e-04, -5.23268944e-04, -1.25022989e-03,
          -9.01993946e-04, 0., 0., 0., 0., 0., -1.25621655e-03,
          1.55973900e-03, -4.38048388e-04, -1.20387028e-03,
          -1.20599160e-03, 9.52352886e-04, -9.18178994e-04,
          3.34288954e-04, 3.48006055e-04, 7.60764698e-04,
          -3.64480796e-03, -1.79505406e-03, -3.58513510e-03,
          -1.05039962e-03, 2.55698105e-04, -8.36807827e-04,
          -1.39348922e-04, 1.07356603e-03, 3.90650355e-04,
          -1.75360427e-03, 6.05817942e-04, 6.30670693e-05,
          -1.88740130e-04, 0., 0., 0., 0., 0., -1.85984405e-04,
          2.88227777e-04, -1.22507045e-03, -3.71334812e-04,
          -1.22592086e-03, -7.44937395e-04, 4.76338901e-04,
          -5.10296552e-04, -2.83019559e-04, 2.19263573e-04,
          -3.14672152e-03, -7.23533391e-04, -2.80993583e-04,
          -1.28750945e-03, -7.91894345e-05, 8.43552625e-05,
          7.06698993e-05, 1.16820251e-04, 3.28212685e-04, 4.87946963e-04,
          1.79964071e-03, 1.96822453e-04, -9.00967047e-04, 0., 0., 0.,
          0., 0., -5.39976521e-04, -2.88525480e-04, 5.18542831e-04,
          1.04205013e-04, 6.58885343e-04, -2.10949825e-03,
          1.10863708e-03, 2.23254581e-04, -2.34764404e-04,
          -2.14939239e-03, 4.23924503e-04, -1.68898958e-03,
          -1.10549293e-03, -5.96519792e-04, 2.61553942e-04,
          -1.29817135e-03, -7.02710589e-04, -5.82300068e-04,
          4.68499289e-04, 7.13875925e-04, 6.54871343e-04,
          -7.16729672e-04, -9.00967047e-04, 9.73988208e-05, 0., 0., 0.,
          -1.27061954e-04, -1.78418166e-04, 4.62576747e-04,
          -8.40663706e-05, 3.20138934e-04, 1.71729352e-03,
          8.86697322e-04, 1.41946913e-03, 7.67669408e-04,
          -2.12484179e-06, -1.90723408e-03, -4.25406208e-04,
          -9.00906452e-04, 2.55070016e-04, 5.40058390e-05,
          -1.21035939e-03, 9.27532616e-04, -2.63950089e-04,
          -1.24035974e-03, 3.60838661e-04, -5.81432309e-04,
          -3.01327178e-04, -4.77159192e-04, -3.24063236e-04,
          8.44123075e-04, 0., 0., 0., -3.99706885e-04, 1.75988453e-03,
          -5.87209361e-04, -8.65517359e-04, -7.47378799e-04,
          1.22563390e-03, -7.66851881e-04, 3.31852236e-04,
          -6.29747112e-04, -1.31405762e-03, -1.25301804e-03,
          -1.26112578e-03, -1.36847503e-03, -1.15157536e-03,
          2.12359533e-04, -1.69512199e-03, -7.19067233e-04,
          -2.01897603e-03, -5.64994334e-05, 2.73686659e-04,
          1.33731883e-04, -4.12692229e-04, 9.46320506e-06, 0., 0., 0.,
          0., 0., -1.13313727e-03, 9.25480039e-04, 8.79904619e-05,
          9.94299888e-04, 2.08570459e-03, -2.19361915e-04,
          1.00706518e-03, 1.37243827e-03, 6.60633261e-04, 1.50196778e-03,
          1.15506654e-03, -9.79035976e-04, -5.18376881e-04,
          -6.66789478e-04, 6.32557378e-04, -8.26278876e-04,
          -3.01790104e-04, -6.05813577e-04, -6.03336957e-04,
          -1.32299028e-04, -8.38500491e-05, -1.83982309e-04, 0., 0., 0.,
          0., 0., 0., -6.09021052e-04, 2.22866060e-04, 5.29873359e-04,
          6.34742784e-04, 6.33096439e-04, 1.11105712e-03, 8.46577750e-04,
          3.32952157e-04, 1.06115197e-03, 1.45361072e-03,
          -5.41189685e-04, -8.28716322e-04, -9.32181487e-04,
          -1.28200173e-03, -4.11429501e-04, -4.71135223e-04,
          -2.25855241e-04, -1.30052899e-03, -4.41090233e-04,
          -1.17879186e-03, -6.66581967e-04, -2.74439139e-04, 0., 0., 0.,
          0., 0., 0., -2.49742443e-04, 3.46863162e-05, -6.60096470e-04,
          9.48936737e-04, 1.92020019e-03, -1.94469118e-03,
          1.95642654e-03, 5.23633033e-04, 5.13717066e-04, 9.51316848e-04,
          9.70114314e-04, -5.77339903e-04, -6.35533943e-04,
          -1.59998643e-04, -3.59793543e-04, 1.10469607e-03,
          -4.62744443e-04, -1.25693530e-03, -9.19136393e-04,
          -1.49537355e-03, -2.88113370e-04, -3.17917758e-04, 0.,
          1.31376821e-03, 0., 0., 0., 0., 0., 6.10015821e-04,
          7.88025442e-04, 1.53472240e-03, 7.54280598e-04, 1.55191647e-03,
          1.90090714e-03, 7.39633862e-04, 1.35917129e-04, 2.16388097e-03,
          1.61544071e-03, 1.99315255e-03, 1.53277407e-03, 8.95388133e-04,
          -5.52679820e-04, -1.15294522e-03, -8.38853011e-04,
          -1.59040629e-03, -1.41252007e-03, -8.55512859e-04,
          2.45799805e-04, -2.47428281e-04, 0., 1.35440016e-04, 0., 0.,
          0., 0., 0., 3.73631541e-04, 8.93977529e-04, 1.27369945e-03,
          7.07992120e-04, -5.78749634e-04, 2.53298145e-04,
          6.84397586e-04, 4.02840000e-04, 2.63846392e-04, 3.97836586e-04,
          9.34474112e-04, -6.21261774e-04, -1.27052411e-03,
          -1.09171429e-04, 1.82237272e-04, -1.00082296e-04,
          -1.46015408e-03, -1.20782503e-03, 5.95265155e-05,
          -1.37672232e-05, -1.11491878e-04, 0., 0., 0., 0., 0., 0., 0.,
          3.73631541e-04, 3.49242298e-04, -8.70102434e-04,
          -1.52035407e-03, -2.82402942e-03, -1.22007669e-03,
          1.46057468e-03, -2.24295305e-03, -1.11970780e-06,
          -1.28035215e-04, 3.89921741e-04, 7.75661727e-04,
          -1.12199552e-04, 1.10395288e-03, 4.66115889e-04,
          -4.90759325e-04, -3.97823169e-04, -1.46867445e-04,
          -3.67168614e-05, 0., 0., 0., 0., 0., 0., 0., 0., 0.,
          -5.37267304e-04, -1.90048292e-03, -1.04263041e-03,
          -5.34935447e-04, -2.27256809e-04, -1.35494408e-03,
          -2.19631079e-03, -1.04262505e-03, -1.07639621e-03,
          -9.38571698e-04, -4.69582417e-04, -1.39324646e-03,
          -1.23104057e-03, -3.32172669e-04, -3.32317373e-04,
          -1.55288490e-05, 0., 0., 0., 0., 0., 0., 0., 0., 0., 0., 0.,
          0., -5.45286224e-04, -2.02878565e-03, -1.95661536e-03,
          -4.16983588e-04, 0., 0., 0., 0., 0., 0., 0., -9.81236553e-07,
          -1.68772676e-04, -1.98395181e-04, -2.67096213e-04,
          -1.55288490e-05, 0., 0., 0., 0., 0., 0., 0., 0., 0., 0., 0.,
          0., 0., 0., 0., 0., 0., 0., 0., 0., 0., 0., 0., 0., 0., 0., 0.,
          0., 0., 0., 0., 0., 0., 0., 0., 0. ]
      - [ 0., 0., 0., 0., 0., 0., 0., 0., 0., 0., 0., 0., 0., 0., 0., 0.,
          0., 0., 0., 0., 0., 0., 0., 0., 0., 0., 0., 0., 0., 0., 0., 0.,
          0., 0., 0., 0., 0., 0., 0., 0., 0., 0., 0., 7.00202014e-04,
          1.91388547e-03, 9.10262577e-04, 0., 0., 0., 0., 0., 0., 0., 0.,
          0., 0., 0., 0., 0., 0., 0., 0., 0., 0., 0., 0., 0., 0., 0., 0.,
          -1.31255321e-04, -7.61192525e-04, -4.86416655e-04,
          -7.50480802e-04, 0., 0., 0., 0., 0., 0., 0., 0., 0., 0., 0.,
          0., 0., -4.04039383e-05, -5.85857080e-04, 0., 0., 0.,
          -8.46450348e-07, 2.89811578e-04, 7.96030799e-04,
          1.20866951e-03, 1.38832571e-03, -2.85097572e-04,
          4.71127569e-04, 2.00905860e-03, -1.33659632e-03,
          -5.90956653e-04, -1.98770384e-03, -1.35710358e-03,
          -1.15862547e-03, -2.16537481e-03, -8.86774971e-04,
          -8.80513864e-04, -3.83052276e-04, 1.80257834e-04, 0., 0., 0.,
          0., 0., -7.07068903e-05, 0., 0., 2.11478822e-04,
          2.79888452e-04, 2.75465427e-04, -4.18205484e-04,
          7.72428699e-04, 8.27819458e-04, -6.32998534e-04,
          1.18599040e-03, -3.89997003e-04, -1.42913242e-03,
          -5.50089229e-04, 4.24749858e-04, -2.24589161e-03,
          5.64471178e-04, 9.84893180e-04, -1.16408418e-03,
          -6.06233254e-04, 5.40505105e-04, -2.68459483e-03,
          -8.18513126e-06, 0., 0., 0., 0., 0., -5.55554172e-04,
          -6.79235882e-06, -2.06567929e-04, 1.08342676e-04,
          3.00730579e-03, -3.65641521e-04, -6.93178969e-04,
          7.30386993e-04, -3.69533722e-04, -1.76881079e-03,
          5.29752870e-04, 1.17773621e-03, 9.70640220e-04, 1.32896312e-04,
          -7.68587575e-04, 1.83908141e-03, -1.64482160e-03,
          -6.67378248e-04, -4.66852478e-04, -4.78578906e-04,
          -1.86365796e-03, -3.28634604e-04, -3.28115188e-04, 0., 0., 0.,
          0., 0., 0., -2.96231126e-04, -1.15808682e-03, -9.63908024e-05,
          -1.17406831e-03, -2.17476394e-03, 9.77185904e-04,
          -1.59747782e-03, 1.70522463e-03, -1.17133569e-03,
          -9.61593236e-04, 1.16552575e-03, -1.17306714e-03,
          1.19180128e-03, -1.25116145e-04, -3.13955425e-05,
          4.14434588e-04, 1.63618606e-04, -4.23803082e-04,
          1.78480858e-03, -1.56114297e-03, -1.84552849e-03,
          -1.42231677e-03, -7.29565159e-04, 0., 0., 0., 0., 0.,
          -2.88675248e-04, 1.21909950e-04, 1.49739732e-03,
          -2.62159243e-04, -1.84785493e-03, 5.59343491e-04,
          -1.88323215e-03, 8.82847758e-04, 7.42131029e-04,
          -6.13363925e-04, 7.99014873e-04, -8.12628306e-04,
          1.39111216e-04, 8.10581434e-04, 1.36901322e-03,
          -5.88026887e-04, -7.17450806e-04, -3.60141101e-04,
          -9.80678131e-04, 3.05251364e-04, -7.07051659e-05,
          -1.66006805e-03, -7.92675361e-04, 0., 0., 0., 0., 0.,
          -3.31488700e-04, -5.16209460e-04, 1.19662960e-03,
          1.24665501e-03, 4.69381746e-04, 1.49506808e-03, 3.78577271e-04,
          -3.16118065e-04, 1.79420423e-03, -8.87604838e-04,
          8.62992136e-04, -8.62031156e-05, 4.83288284e-04,
          7.75405904e-04, 6.21040293e-04, -2.07096178e-04,
          3.39743739e-04, 1.74654473e-04, 1.09516678e-03,
          -1.06467027e-03, -2.31303368e-03, -2.45866831e-03,
          -5.66933304e-04, 0., 0., 0., 6.84459286e-04, 1.52102060e-04,
          3.19166371e-04, -2.07456271e-03, 1.70255487e-03,
          -3.16543458e-03, -1.19153969e-03, 2.32454724e-04,
          -8.09156627e-04, -3.15844431e-03, -2.89903925e-04,
          1.06768159e-03, -1.49276492e-03, -1.59476255e-03,
          3.29023786e-03, -2.09941505e-03, -3.79823818e-04,
          -7.70235725e-04, 2.91715004e-03, 8.48045864e-04,
          -1.83208915e-03, 1.70975702e-03, -7.33832829e-04,
          -1.90958986e-03, -7.90506892e-04, 0., 0., 0., 3.52369761e-03,
          3.20768473e-03, 1.94609421e-03, -1.47662813e-05,
          1.06195388e-04, 2.04313546e-03, -7.27013045e-04,
          4.29624692e-04, 2.07750141e-04, -2.97671477e-06,
          -2.95604521e-04, 3.77697201e-04, 7.98620458e-04,
          -1.45700265e-04, -1.80005110e-04, 1.77701015e-03,
          1.05669035e-03, 3.21512809e-04, 6.42976607e-04,
          -2.15516821e-03, 2.50135502e-03, 7.89380458e-04,
          -1.80707150e-03, -1.90767751e-03, -2.42303405e-03, 0., 0., 0.,
          0., 1.08959561e-03, -4.00510663e-03, -6.84310100e-04,
          -2.76075583e-03, 1.18012039e-03, 4.08124761e-04,
          -1.32473418e-03, 1.48953608e-04, -4.78162168e-04,
          -2.28319759e-03, -1.63191318e-04, 1.98043912e-04,
          -2.12505111e-03, 4.29812237e-04, -3.15238663e-04,
          -1.49200100e-03, 1.00688112e-03, 2.55249091e-04,
          5.14792977e-04, 1.14870595e-03, 3.43476509e-04,
          -1.15712162e-03, 8.69087176e-04, -1.25009113e-03, 0., 0., 0.,
          0., 6.52952876e-04, 1.20199300e-04, -7.02377642e-04,
          -4.33467852e-04, -1.32352603e-03, 5.83897869e-04,
          1.23641279e-03, 2.24734002e-04, -6.80851226e-04,
          7.13257119e-04, -8.11930571e-04, -1.18703298e-04,
          -1.80537195e-03, -8.03876203e-04, 2.04247845e-04,
          5.09871570e-05, -3.03869252e-04, 1.78170006e-03,
          2.22887890e-03, -1.05943787e-03, 8.65120033e-04,
          4.22920426e-03, -1.77989411e-03, -2.80904467e-03, 0., 0., 0.,
          0., 4.03857557e-04, 5.88710885e-04, -7.63886201e-04,
          2.73604784e-03, -3.15983966e-03, -5.79933403e-04,
          -1.33854931e-03, -8.69171869e-04, 7.34808098e-04,
          4.91116953e-04, -3.35676526e-03, -2.21730879e-04,
          1.26355837e-04, -1.01996842e-03, -1.70590112e-03,
          1.38093275e-03, 1.07694219e-03, -2.66442308e-03,
          3.47896799e-04, 2.61714985e-03, 3.48350056e-03, 1.33189908e-03,
          3.15434439e-03, -1.26917532e-03, 0., 0., 0., 0.,
          -1.10120373e-03, 5.06411243e-06, 2.09253584e-03,
          4.48029197e-04, 3.27766500e-03, 5.79799758e-04, 2.51066126e-03,
          -1.75112148e-03, 1.22137833e-03, -2.52936064e-04,
          1.29935623e-03, -2.91676563e-03, -6.80947735e-04,
          3.87096312e-04, 1.86597405e-03, 2.62947055e-04, 1.37467205e-03,
          7.76455214e-04, 3.35836341e-03, 2.87276256e-04, 8.77294806e-04,
          7.01381417e-04, 4.46037762e-03, 0., 0., 0., 0., 0.,
          -1.74863602e-03, -1.23575144e-03, 1.49249550e-04,
          -8.24840856e-04, 9.26388020e-04, -7.93392479e-04,
          -1.06502802e-03, 7.55877874e-04, -1.33216963e-03,
          1.61708007e-03, -7.15467380e-04, -3.36415740e-03,
          2.15476868e-03, -1.55876810e-03, 4.53662302e-04,
          -1.20623293e-03, -1.76903588e-04, 9.90648987e-04,
          -8.34514678e-04, 9.04619155e-05, 5.21257927e-04,
          1.16288837e-04, 4.42517136e-04, 0., 0., 0., 0., 0.,
          -1.86615624e-03, 3.16510559e-03, -6.91686932e-04,
          2.50611780e-03, -7.73277308e-04, 1.87569589e-03,
          2.30981750e-04, 3.56079487e-04, 2.85912392e-04, 7.33208202e-04,
          -3.19717196e-03, 1.63023558e-03, -4.34362213e-04,
          5.39306318e-04, 1.29238982e-03, -5.61407185e-04,
          1.12930813e-03, 4.47033381e-06, -2.71318160e-04,
          -8.36986757e-04, 3.95742536e-04, -1.52766833e-03,
          -7.04970036e-04, 0., 8.49653006e-05, 0., 0., 0.,
          -9.93696740e-04, 7.87937664e-04, 8.70126707e-04,
          -2.70361500e-03, 2.32042349e-03, -1.77104562e-03,
          1.55379169e-03, 2.94928998e-03, -2.37566931e-03,
          2.07649404e-03, -1.97030534e-03, 2.44515191e-04,
          6.83252467e-04, 2.50379759e-04, -3.22550972e-04,
          1.29078003e-03, -4.00628400e-04, 2.09689140e-03,
          1.37966972e-05, 8.41396046e-04, -1.48267834e-03,
          -1.08772377e-03, -1.62981602e-03, 0., 7.36365968e-04, 0., 0.,
          0., -7.36553222e-04, -1.10429316e-03, -1.18637935e-03,
          4.17973642e-04, -5.32935141e-04, 1.75788533e-03,
          3.64933949e-05, 4.87468205e-04, 4.99348505e-04,
          -4.51532425e-04, -7.80943315e-04, -4.36150760e-04,
          5.44001290e-04, -1.06254080e-03, 4.52198234e-04,
          -3.98574659e-04, -8.47216346e-04, -2.28357804e-03,
          4.28808882e-04, -3.75638454e-04, 1.09724730e-04,
          6.24358712e-04, -7.13691988e-04, 0., 0., 0., 0., 0.,
          -7.84935022e-04, 1.44727921e-04, 8.94191093e-04,
          7.31673092e-04, -6.44681422e-05, 8.19840760e-04,
          9.25794069e-04, -4.63677163e-04, 2.55132304e-03,
          -1.81275653e-03, 1.35470636e-03, -7.55431654e-04,
          1.69289910e-04, 8.67072304e-05, -4.07906307e-04,
          5.04618511e-04, 2.48268334e-04, -1.62419712e-03,
          4.71315347e-04, 1.10471155e-03, 1.66877476e-03,
          -9.90709523e-04, -3.62121733e-04, 0., 0., 0., 0., 0.,
          -2.46159063e-04, -2.28809728e-03, 1.21150202e-04,
          -2.23365729e-03, 7.14287336e-04, -7.39417796e-04,
          -5.46605675e-04, 7.14680878e-04, 5.92022727e-04,
          1.22659351e-03, -6.39830658e-04, 8.52951664e-04,
          -1.21330190e-03, -4.71140753e-04, 1.67838327e-04,
          -1.12493530e-04, 2.04608939e-03, -6.07771392e-04,
          2.19404860e-03, -8.95701232e-04, -1.48481061e-03,
          -2.36150969e-04, -3.09422583e-04, 0., 0., 0., 0., 0.,
          -3.45340755e-04, 1.52155012e-03, -3.96771560e-04,
          1.62347348e-03, 1.17052125e-03, -1.66910409e-04,
          -5.33874379e-04, 9.50771151e-04, 1.95991917e-04,
          1.08947116e-03, -5.87754301e-04, 8.41291621e-04,
          -2.12610947e-04, 2.77156068e-04, -3.40143708e-03,
          5.95204125e-04, -4.23107413e-04, -4.04823135e-04,
          -2.02659867e-03, 4.75434295e-04, -6.39871287e-05,
          6.90486049e-04, -4.31663590e-04, -3.43802858e-05, 0., 0., 0.,
          0., -4.12481284e-04, 4.41328099e-04, 4.52000997e-04,
          1.38319144e-03, -2.52819993e-03, 1.79552371e-04,
          1.22321455e-03, 9.40808153e-04, -2.26419186e-03,
          3.03095253e-03, -7.52624474e-04, -2.66302435e-04,
          8.23036651e-04, -1.77170659e-04, 1.34060986e-03,
          -3.82342376e-03, -9.90716857e-04, -5.83561545e-04,
          1.11442071e-03, 1.10560337e-04, 3.84582352e-04,
          -3.30389885e-04, -4.85144032e-04, -1.83361524e-04, 0., 0., 0.,
          0., -2.18585337e-04, -4.69972054e-03, -7.91467173e-05,
          2.45626346e-04, 1.21700915e-03, -4.24034166e-04,
          -1.22359008e-04, 4.10849199e-04, 9.26664856e-04,
          -1.54689071e-04, 3.37402860e-04, 1.05808419e-03,
          3.67103261e-04, -1.15817145e-03, 2.03792797e-03,
          1.21225242e-03, -4.69023641e-03, 1.04006485e-03,
          -6.78537996e-04, -3.16742604e-04, -4.97300120e-04,
          -4.82669973e-04, -4.85144032e-04, -1.10780922e-04, 0., 0., 0.,
          0., 0., -6.90017419e-04, -2.08900473e-03, -5.83701825e-04,
          7.68421625e-04, -2.12710747e-03, 9.93489055e-04,
          1.37765775e-03, -2.79392651e-03, 1.24350213e-03,
          -1.12696493e-03, 1.30346802e-03, -1.33311347e-04,
          -1.13157544e-03, 2.02705548e-03, 1.92697556e-03,
          -2.45595677e-03, -7.57448957e-04, -3.66737455e-04,
          -2.39524816e-04, 0., 0., 0., 0., 0., 0., 0., 0., 0., 0., 0.,
          -8.27141281e-04, -1.49758614e-03, 9.62018385e-04,
          -1.61834911e-03, -6.22073712e-04, -9.27835528e-04,
          -3.21373949e-03, 1.72887719e-03, 1.01308175e-03,
          -1.04894757e-03, -5.29272424e-04, -1.39526237e-04,
          -3.73487128e-04, -1.11468966e-04, -1.65895370e-04,
          -2.02761017e-04, -1.77115347e-04, 0., 0., 0., 0., 0., 0., 0.,
          0., 0., 0., 0., 0., 0., -6.21182699e-05, -5.93229488e-04,
          -4.53700253e-04, -5.27728116e-04, -6.56052143e-04,
          -4.26299113e-04, -4.62593773e-04, -6.96301460e-04,
          -7.07552070e-04, -1.12114684e-03, -2.60390254e-04, 0., 0., 0.,
          0., 0., 0., 0., 0., 0., 0., 0., 0., 0., 0., 0., 0., 0., 0., 0.,
          -4.15810937e-05, -9.30103415e-05, -9.30103415e-05,
          -3.13681958e-05, 0., 0., 0., 0., 0., 0., 0., 0., 0., 0., 0.,
          0., 0., 0. ]
      - [ 0., 0., 0., 0., 0., 0., 0., 0., 0., 0., 0., 0., 0., 0., 0., 0.,
          0., 0., 0., 0., 0., 0., 0., 0., 0., 0., 0., 0., 0., 0., 0., 0.,
          0., 0., 0., 0., 0., -2.18837140e-05, -4.84048214e-04,
          -9.53434967e-04, -3.71101545e-04, 6.95116323e-05, 0.,
          1.23810617e-03, 3.38415685e-03, 1.60953798e-03, 0., 0., 0., 0.,
          0., 0., 0., 0., 0., 0., 0., 0., 0., 0., 0., -5.76074090e-05,
          -3.60513368e-04, -3.63175262e-04, -2.18684741e-04,
          -4.53502958e-04, -1.05128763e-03, -1.90575095e-03,
          -1.19222724e-03, 4.68457321e-04, -2.56640255e-03,
          -3.65009508e-03, -2.25717924e-03, -2.62126769e-03,
          -1.10451051e-03, -1.25958119e-04, -4.98237147e-04,
          -2.12993080e-04, -1.86042933e-04, -2.17339875e-05, 0., 0., 0.,
          0., 0., 0., 0., 0., 0., 6.51079870e-04, -4.74165543e-04,
          -2.07107677e-03, -2.33861152e-03, 9.11668103e-05,
          -1.38029712e-03, -2.01454922e-03, -7.58888084e-04,
          -1.12617400e-03, 4.35324589e-04, -2.48969090e-03,
          2.80876248e-03, 1.06884551e-03, -2.32960354e-03,
          3.35406367e-04, 1.37399428e-03, -4.78523783e-04,
          8.23084789e-04, 1.38741254e-03, -4.39916505e-04,
          3.47460227e-05, 0., 0., 0., 0., 0., 0., -2.52980244e-05,
          -1.93573977e-03, -2.12008506e-03, 6.77916862e-04,
          -1.65632868e-03, -3.03168898e-04, -3.03883757e-03,
          2.20142095e-03, -3.34841432e-03, 5.51572768e-04,
          1.11977232e-03, -2.57401727e-04, -5.53293248e-05,
          3.53078078e-03, -5.91059390e-04, 5.91845426e-04,
          -9.60044621e-04, -3.38963140e-03, -2.85911374e-05,
          -2.15824140e-04, -1.30488665e-03, -1.77801485e-04, 0., 0., 0.,
          0., 0., 0., -1.15756389e-04, -1.17823796e-03, -1.05304120e-04,
          -2.86270725e-03, -1.84676447e-03, 1.53731831e-04,
          1.09284173e-03, 1.24975527e-03, 3.07570817e-03,
          -2.90882919e-04, -1.11839536e-03, 4.05975152e-03,
          -3.03790625e-03, -1.00113312e-03, -5.77588391e-04,
          -2.12740572e-03, 5.71079087e-04, -3.82691418e-04,
          -8.12095750e-05, -1.20954460e-03, -3.64482473e-03,
          1.24267186e-04, 0., 0., 0., 0., 0., 0., -1.82400254e-04,
          -1.47646386e-03, 2.23172549e-03, -6.27493195e-04,
          2.35276389e-06, 1.15716760e-03, -1.77324156e-03,
          1.24252145e-03, 1.64366138e-04, 3.39734717e-04, 8.43349029e-04,
          -1.65460876e-03, 2.28738901e-03, 2.42764549e-03,
          2.40622950e-03, 3.05952644e-03, -1.36287056e-03,
          4.14164457e-03, 5.59495471e-04, -4.05382307e-04,
          -2.66022794e-03, -2.01235394e-04, 0., 0., 0., 0., 0., 0.,
          -3.60002188e-04, -1.24765688e-03, 1.90346420e-03,
          -1.26363651e-03, 4.10743756e-03, 1.65686617e-03,
          -1.98882469e-03, 3.55741475e-04, 3.52132390e-03,
          1.40842889e-03, -9.31292481e-04, 4.61308693e-04,
          -7.81759678e-04, 2.31925980e-03, -7.98189081e-04,
          -8.02781549e-04, 3.20072722e-04, -4.10398905e-04,
          5.33202756e-03, 2.22796784e-03, -2.34179781e-04,
          -2.74506951e-04, 0., 0., 0., 0., 0., 0., -9.08716465e-04,
          -6.66027772e-04, -6.29974937e-04, -5.27708617e-04,
          -2.26424527e-04, -7.54189619e-04, 2.25963956e-03,
          -2.97077489e-03, 1.15184506e-04, 2.82769877e-04,
          4.44945693e-03, 1.14185235e-03, 2.65259412e-03, 2.38776417e-03,
          3.52349132e-03, 2.65656179e-03, 2.56570755e-03, 1.57883915e-03,
          -1.73509377e-03, -3.57263256e-04, 3.86583665e-03,
          9.82192141e-05, 0., 0., 0., 0., 3.97941621e-05, 8.84314704e-06,
          -1.42156717e-03, 2.97320919e-04, 2.49205926e-03,
          -3.30848712e-03, 1.78000293e-04, -4.49134604e-05,
          1.75858103e-03, -2.31220693e-04, 2.57732958e-04,
          -1.41609693e-04, -6.83975581e-04, 2.88652867e-04,
          5.49517514e-04, 2.95499293e-03, 3.71806673e-04,
          -9.17104408e-05, 1.89170288e-03, 5.30841353e-04,
          4.70148836e-04, 5.55752020e-04, 1.51398417e-03, 1.69929452e-04,
          0., 0., 0., 0., 2.04866243e-04, 3.02782631e-04,
          -1.05538219e-03, -1.26393046e-04, 1.56658690e-03,
          5.09738107e-04, 1.54163258e-03, 7.52496126e-04,
          -1.26488053e-03, 3.68634658e-03, -2.85497890e-03,
          8.78536084e-04, 4.43637138e-03, 1.69429055e-03, 4.31241654e-03,
          2.29935162e-03, 3.13827913e-04, 1.39140198e-03, 9.52733913e-04,
          2.33260728e-03, 5.35733253e-03, 7.08841311e-04,
          -1.06472382e-03, -6.75835036e-05, 0., 0., 0., 0., 0.,
          1.56174402e-03, 4.18549258e-04, -1.26516900e-03,
          -1.76595163e-03, -2.69582006e-03, 2.09239777e-03,
          -6.03927125e-04, 4.72349289e-04, 1.23938918e-03,
          -2.11323844e-03, -2.32410291e-03, -1.57788256e-03,
          -1.85434450e-03, -1.57735741e-03, 2.08992162e-03,
          1.90577193e-04, -2.03650398e-03, 2.10908009e-03,
          -6.14174700e-04, -4.92780120e-04, 4.16408712e-03,
          -1.02793518e-03, 2.50322366e-04, 0., 0., 0., 0., 0.,
          1.56789261e-03, 3.69009853e-04, -1.26317295e-03,
          1.34210859e-04, -2.07715901e-04, -3.85429407e-03,
          1.18672173e-03, 1.30864477e-03, 3.86764994e-04, 9.00338404e-04,
          3.91681737e-04, 7.38381816e-04, -4.14112554e-04,
          7.98215100e-04, 7.82326897e-05, 5.85979549e-04, 5.83801011e-04,
          3.73835745e-03, 1.54168135e-03, -1.38575851e-04,
          1.71288999e-03, -1.60780168e-04, -1.78000570e-04, 0., 0., 0.,
          0., 0., 1.38958322e-03, 2.47925031e-03, -1.31801248e-03,
          1.95592921e-03, -7.07000203e-04, 6.33835589e-05,
          -4.23222035e-03, -2.63149431e-03, -1.01808971e-03,
          1.51374465e-04, -4.37584985e-03, -4.53769974e-03,
          8.93417164e-04, -3.09260143e-03, 2.90549663e-03,
          2.39943317e-03, 1.49063335e-03, -1.21721625e-03,
          -5.78818086e-04, 1.14405283e-03, -3.08641815e-03,
          -2.61983066e-03, 6.43909967e-04, 0., 0., 0., 0., 0., 0.,
          9.37321398e-04, 7.49039871e-04, 8.07768607e-04, 2.87625310e-03,
          -2.61665927e-03, 3.47068621e-04, -3.47109768e-03,
          -3.99952056e-04, 5.20780100e-04, -1.82834559e-03,
          -1.98398205e-03, 6.01011328e-04, -3.81518970e-03,
          -1.49388786e-03, -3.91599984e-04, 2.91280739e-04,
          7.84306147e-04, 5.99111314e-04, 4.18626441e-04, 2.15389556e-03,
          6.96051400e-04, 1.97412795e-04, 0., 0., 0., 0., 0., 0.,
          1.32295152e-03, -5.97371138e-04, -2.16645212e-03,
          -7.18998417e-05, 1.33724452e-03, 1.44427153e-03,
          1.54116144e-03, -5.84935537e-04, -3.73026793e-04,
          -1.07810972e-03, -1.32872362e-03, -5.06682089e-04,
          5.62526693e-04, -2.17164983e-03, 1.80843240e-03,
          1.51992484e-03, -1.00889221e-04, -2.65624141e-03,
          7.26027007e-04, 9.88794141e-04, 3.75447515e-03,
          -1.71289046e-03, 0., 0., 0., 0., 0., 0., 2.16042274e-03,
          -1.50380703e-03, -3.78561308e-05, -2.33563478e-03,
          1.46866892e-04, -1.11248204e-03, 1.87180075e-03,
          -3.97471152e-03, 7.84821052e-04, -2.89196544e-03,
          -2.09097844e-03, -2.80701992e-04, -1.77444739e-03,
          -1.76511705e-04, -9.13068943e-04, 1.01712777e-03,
          1.43587578e-03, -6.14719756e-04, -1.37505773e-03,
          5.99574530e-04, 4.66244470e-04, -2.43346719e-03, 0.,
          1.18800657e-04, 0., 0., 0., 0., 4.73569889e-05, 2.74500781e-04,
          1.58180436e-03, 2.28366538e-04, 1.25909035e-04, 8.12193204e-04,
          -1.10663020e-03, -4.94255917e-04, -5.44815965e-04,
          -4.65109115e-05, 2.71917903e-04, -2.37729168e-04,
          -1.08080974e-03, 4.06215806e-03, -2.81492760e-03,
          -8.10890750e-04, 2.02735350e-03, 2.68790009e-03,
          -1.64252450e-03, -5.73146506e-04, 1.86496042e-03,
          -1.01507688e-03, 0., 1.02960563e-03, 0., 0., 0., 0.,
          -5.59934066e-04, 2.10958626e-03, -1.59474823e-03,
          -5.37966553e-04, 1.66689011e-03, -2.33298820e-03,
          2.33571418e-03, 2.10448238e-03, 1.66226237e-03,
          -5.01279719e-03, -3.11114290e-03, 1.62818620e-03,
          -2.51983851e-03, -1.07499596e-03, 1.09575922e-06,
          -3.40946764e-03, -1.35623384e-03, -2.56659958e-04,
          2.33481801e-03, -1.93459378e-03, -1.06184569e-03,
          1.97962261e-04, 0., 0., 0., 0., 0., 0., -7.43284763e-04,
          5.36074862e-04, -2.37638690e-03, 1.83469080e-03,
          4.10827488e-04, -2.37028324e-03, -1.24452473e-03,
          -4.20965441e-03, 3.11026350e-03, -1.29993912e-03,
          1.09167444e-03, -1.79079390e-04, 1.00137189e-03,
          -3.18688108e-03, 6.39309781e-03, -2.72455160e-03,
          9.73942922e-04, -1.10644987e-03, -1.36029010e-03,
          -1.34699617e-03, 4.81608382e-04, 1.59792704e-04, 0., 0., 0.,
          0., 0., 0., -2.21429416e-03, -1.75563409e-03, -9.53716401e-04,
          -2.92856828e-03, 8.68271338e-04, -1.36212434e-03,
          4.05609229e-04, 8.24156159e-04, -1.00160541e-03,
          -2.96557380e-04, -8.28572665e-04, -1.30439235e-03,
          8.20020563e-04, -2.02133181e-03, 9.56957520e-04,
          -3.29196162e-04, 8.11721955e-04, 3.30827455e-03,
          -8.48480384e-04, 2.74573278e-04, 6.49299123e-04,
          -3.71430870e-05, 0., 0., 0., 0., 0., 0., 4.66866040e-04,
          6.29935705e-04, 3.33177578e-03, 1.27941999e-03,
          -2.08146917e-03, -1.39392936e-03, -3.18371895e-04,
          1.08007551e-03, -1.70725200e-03, 1.97866396e-03,
          -4.75354306e-03, 2.66259187e-03, -1.94150046e-03,
          -1.98952667e-03, -7.45209341e-04, -1.69860735e-03,
          -4.09696484e-03, 1.33578025e-03, 1.24631333e-03,
          1.12059398e-03, 3.59512138e-04, 0., 0., 0., 0., 0., 0., 0., 0.,
          2.20788759e-04, 2.70589278e-03, -5.60667017e-04,
          8.15281004e-04, 9.23015905e-05, 1.23354234e-03,
          -3.09096137e-03, 3.62143922e-03, -1.26859464e-03,
          -7.18237425e-04, 6.50786795e-04, 1.04252354e-03,
          -3.78126315e-05, 1.21290283e-03, -7.76057568e-05,
          1.01622322e-03, -1.07367104e-03, 1.57728023e-03,
          1.13186776e-03, 1.69371724e-05, 0., 0., 0., 0., 0., 0., 0., 0.,
          0., 2.16704633e-04, -8.75975180e-04, 5.24598465e-04,
          -2.75635044e-04, 3.58509202e-03, 3.86846950e-04,
          1.83249195e-03, -5.13410836e-04, 4.33067122e-04,
          -1.62655010e-03, -7.60439871e-05, 4.32320358e-03,
          -4.05637734e-03, -4.32333164e-03, -1.19798831e-04,
          -1.61837990e-04, 4.17061528e-04, 1.80583695e-04, 0., 0., 0.,
          0., 0., 0., 0., 0., 0., 0., 0., 0., 2.42036360e-04,
          2.18087668e-03, 2.98527814e-03, -3.06609040e-03,
          -3.65551980e-03, -9.09722643e-04, 4.44453489e-03,
          4.20275098e-03, -1.90461602e-03, -3.71703354e-04,
          -1.24812615e-03, -2.66978255e-04, -8.19573106e-05, 0., 0., 0.,
          0., 0., 0., 0., 0., 0., 0., 0., 0., 0., 0., 0., 0., 0., 0., 0.,
          0., 0., 0., 0., 0., 0., 0., 0., 0., 0., 0., 0., 0., 0., 0., 0.,
          0., 0., 0., 0., 0., 0., 0., 0., 0., 0., 0., 0., 0., 0., 0., 0.,
          0., 0., 0., 0., 0., 0., 0., 0., 0., 0., 0., 0., 0., 0., 0., 0.,
          0., 0., 0., 0., 0., 0., 0., 0., 0., 0., 0., 0., 0., 0., 0., 0.,
          0., 0., 0., 0., 0., 0., 0., 0. ]
      - [ 0., 0., 0., 0., 0., 0., 0., 0., 0., 0., 0., 0., 0., 0., 0., 0.,
          0., 0., 0., 0., 0., 0., 0., 0., 0., 0., 0., 0., 0., 0., 0., 0.,
          0., 0., 0., 0., 0., 0., 0., 0., 0., 0., 0., 3.51912924e-04,
          9.61895334e-04, 4.57486807e-04, 0., 0., 0., 0., 0., 0., 0., 0.,
          0., 0., 0., 0., 0., 0., 0., 0., 0., 0., 0., 0., 0., 0., 0., 0.,
          0., 0., 1.75956462e-04, 7.82028746e-06, 0., 0., 0., 0., 0., 0.,
          0., 0., 0., 0., 0., 0., 0., 0., 0., 0., 0., 0., 2.35309426e-06,
          1.01967416e-05, 6.51022710e-05, 1.52135079e-04, 5.30232974e-05,
          8.52399826e-05, 8.52399826e-05, 0., 9.92359710e-05,
          1.43215540e-04, 5.63840740e-06, 0., 0., 0., 0., 0., 0., 0., 0.,
          0., 0., 0., 0., 0., 0., 0., 0., 0., 3.92182374e-05,
          1.99228642e-04, 3.38476180e-04, 6.25501852e-04, 2.68650823e-04,
          5.38709050e-04, 3.74193274e-04, 2.70710589e-04, 6.84004568e-04,
          6.10348012e-04, 1.78272108e-04, 1.50294927e-05, 1.74205488e-05,
          1.02473814e-05, 2.04947625e-07, 0., 0., 0., 0., 0., 0., 0., 0.,
          0., -3.67596134e-04, -5.72818506e-04, -2.67780793e-04,
          -8.52851081e-04, -6.56919146e-04, 1.94242966e-04,
          1.25724252e-03, 1.09911244e-03, -3.51028692e-04,
          -1.31314533e-04, 9.05037974e-04, 1.38663012e-03,
          2.04689815e-04, 4.30899498e-04, 6.55277923e-04, 5.64489281e-04,
          9.77500575e-04, 9.69362736e-04, 6.81707461e-04, 1.12963513e-04,
          0., 0., 0., 0., 0., 0., 0., 0., -3.67596134e-04,
          -4.05003375e-04, -1.18742185e-03, -1.40419730e-03,
          -4.56697191e-04, -5.45333256e-04, 3.72211536e-04,
          -4.01869067e-04, -5.56252082e-04, -4.37159411e-04,
          4.10089488e-05, 1.42703985e-03, 1.78521930e-03, 1.27359279e-04,
          -7.12913286e-04, 2.13613792e-04, 5.75149956e-04,
          1.58610346e-04, 7.66296696e-04, 1.99735747e-04, 6.57939745e-05,
          0., 0., 0., 0., 0., 0., 0., -2.43560629e-04, -1.66985046e-04,
          -1.24891021e-03, -8.64488422e-04, -7.14109978e-04,
          7.50107138e-05, 4.36714938e-04, -4.12702124e-04,
          -8.17156280e-04, 7.00195262e-04, 1.38163232e-04,
          -1.31794030e-03, -5.24831528e-04, 7.47967351e-05,
          -1.72926011e-04, -2.39338828e-04, -3.05715104e-04,
          -1.60361594e-03, 6.02910877e-04, 4.58695373e-04,
          1.66112368e-04, 1.10927489e-04, 0., 0., 6.95789786e-05, 0., 0.,
          -8.84361943e-05, -3.33101256e-04, -5.93700643e-05,
          -2.73126381e-04, 8.36660274e-06, -7.37858136e-06,
          -3.77197750e-04, -8.69145850e-04, 3.12691700e-04,
          1.35886786e-03, -1.35942525e-03, 2.92407756e-04,
          4.74638277e-04, 1.49068981e-03, 7.47791608e-04, 8.25163326e-04,
          -1.44095544e-03, -8.15184088e-04, -1.43812096e-03,
          -5.88623225e-05, 9.79645527e-04, 4.98009787e-04, 0., 0., 0.,
          0., 0., 0., -4.14678536e-04, -7.82352639e-04, -5.54553058e-04,
          -2.30462218e-04, 6.60700491e-04, -8.35093029e-04,
          -7.89134006e-04, 4.13916830e-04, -5.89062751e-04,
          1.35032483e-03, 4.48872626e-04, -6.56647549e-04,
          -3.46138899e-04, 1.20854902e-03, -7.21299497e-04,
          -1.14815379e-03, -6.36698795e-04, 6.74852752e-04,
          -4.92748106e-04, -1.27415347e-03, -1.19657267e-03,
          2.11741295e-04, -8.15959575e-05, -1.39878772e-04,
          -1.82918404e-04, 0., 0., -3.55128941e-05, -4.40182223e-04,
          -6.63589744e-04, -2.07189267e-04, -5.06731740e-04,
          -8.52281592e-05, 9.04346991e-04, -1.10641253e-04,
          3.09674106e-05, 5.58425148e-04, -4.69815423e-04,
          8.67760507e-04, 7.86668621e-04, -7.84521806e-04,
          -7.59909104e-04, -9.55795113e-04, -1.56272808e-03,
          -2.28052726e-04, -4.56622132e-04, -9.98993637e-04,
          -1.09364837e-03, -2.09892460e-04, 4.46428276e-05,
          -2.03541553e-04, -1.23738922e-04, -4.93162370e-05, 0.,
          3.49430629e-04, 0., -5.13068284e-04, -1.19489525e-03,
          -1.37296400e-03, 7.18435258e-05, 1.37691235e-03,
          5.47319010e-04, -1.61104405e-03, 7.52870576e-04,
          3.48452886e-04, -1.26958941e-03, 7.08091597e-04,
          -3.90435220e-04, -2.09524791e-04, 7.51189596e-04,
          3.82647675e-04, -3.48647707e-04, 8.23753187e-04,
          -5.39970468e-04, -7.55847432e-04, -5.23240364e-04,
          -8.73441750e-04, -7.44295494e-06, -1.25532233e-05, 0., 0., 0.,
          0., 0., -6.24801905e-04, -1.56476090e-04, -1.54694403e-03,
          2.39276778e-04, -1.09958858e-03, -3.46295536e-04,
          6.43591629e-04, 1.25240258e-04, -1.10996608e-03,
          6.37735066e-04, 1.68098416e-03, 8.09734745e-04,
          -6.68940367e-04, -1.54741912e-03, -3.30909417e-04,
          -7.34051573e-04, -5.20601054e-04, -9.06934787e-04,
          -2.70401943e-04, 1.76662725e-04, 7.97489774e-04,
          -6.08927163e-04, 3.87169057e-05, 0., 0., 0., 0., 0.,
          -4.21198929e-04, 3.36353783e-04, -1.16320024e-03,
          -3.22008040e-04, 3.65780550e-04, 1.50419096e-03,
          -1.87601516e-04, 5.96617065e-05, 6.86114363e-04,
          1.91619387e-03, 4.38847317e-04, -1.31408009e-03,
          -6.70940790e-04, -9.22433566e-04, 2.11080725e-04,
          5.37322077e-04, 4.20112076e-04, -1.01450125e-04,
          8.80488005e-05, 3.21063009e-04, 1.00341334e-03,
          -5.57907100e-04, 1.98721638e-04, 0., 0., 0., 0., 0.,
          -2.82211171e-04, 9.82640428e-04, 5.01304516e-04,
          2.29518837e-03, -1.13998176e-04, 1.69827894e-04,
          1.08787406e-03, -8.30443110e-04, 2.08281752e-04,
          2.62608955e-04, 5.40459063e-04, -1.72259531e-03,
          -2.09073490e-03, -1.13106519e-03, -4.93066153e-04,
          -6.13420736e-04, -9.71375412e-05, 2.75223108e-04,
          1.48697046e-03, 5.47985896e-04, 8.72434815e-04,
          -1.20997058e-04, 2.73414946e-04, 0., 0., 0., 0., 0.,
          -5.96601982e-04, 1.53323414e-03, 2.68381002e-04,
          -3.40662344e-04, -6.74391864e-04, 3.21373140e-04,
          3.28860071e-04, -4.81418945e-04, 6.06045942e-04,
          5.70825709e-04, -4.03843325e-04, -2.28009652e-03,
          -2.32533645e-03, -1.25904486e-03, -1.25253035e-04,
          -2.01889226e-04, -1.04178951e-04, 5.92088036e-04,
          -3.69740097e-04, 5.80065593e-04, 1.16899307e-03,
          4.98385984e-04, 2.18869376e-04, 0., 0., 0., 0., 0.,
          -4.09648404e-04, 1.09112321e-03, -4.36433125e-04,
          4.57630260e-04, 9.11255484e-04, 5.21907816e-04,
          -4.75613051e-04, 1.40876800e-03, -2.31363592e-04,
          -7.80287839e-04, -1.32499193e-03, -2.58697866e-04,
          -9.18499019e-04, -1.09130726e-03, -1.47179104e-04,
          -6.18567516e-04, 2.85997467e-05, 7.14866619e-04,
          1.09491266e-04, 2.64868344e-04, 5.69047523e-04, 7.37627925e-05,
          4.03301092e-05, 0., 0., 0., 0., 0., -1.25611346e-04,
          4.43524157e-04, 2.51471265e-05, 1.26801617e-03, 3.38893646e-04,
          1.08173292e-03, 1.53171108e-03, 1.29682559e-03, 6.38697675e-05,
          1.16742484e-03, 5.56164072e-04, -4.15110582e-04,
          -1.09630718e-03, 9.55416908e-06, -5.22835297e-04,
          -1.08612725e-03, 1.85867495e-04, 1.17703530e-04,
          2.89195566e-04, 7.41680269e-04, 1.54485242e-04,
          -4.98781330e-04, -7.64098295e-05, -5.04850650e-05, 0., 0., 0.,
          0., 4.23450547e-04, -8.68097486e-05, 6.71600865e-04,
          1.55352219e-03, 2.60829693e-04, 9.03754786e-04, 1.21032388e-03,
          1.50525349e-03, 9.46976943e-04, 7.80835166e-04,
          -2.76631385e-04, 1.30143977e-04, -3.74111725e-04,
          -5.35346102e-04, -6.56006296e-06, -1.27120176e-03,
          1.73976889e-06, -1.86368544e-03, -7.16410344e-04,
          7.33136665e-04, -5.50952449e-04, -2.13834096e-06,
          -1.18708129e-04, -1.18708129e-04, 0., 0., 0., 0.,
          7.89920974e-04, -5.94345729e-05, 1.04703759e-04,
          6.67077897e-04, 1.87148270e-03, 7.31696084e-04, 1.37116958e-03,
          1.96531299e-04, 2.07516583e-04, 4.71221982e-04, 4.40447795e-04,
          4.33056091e-04, 1.17542001e-03, -6.96433126e-04,
          -5.23265917e-04, 8.35890183e-04, 5.66822244e-04,
          -1.03857415e-03, 4.42493329e-04, 1.10287871e-03,
          2.38026463e-04, -3.47738351e-05, 0., 0., 0., 0., 0., 0.,
          1.20079517e-03, 2.02684570e-03, 5.56903717e-04, 7.21144432e-04,
          1.56835874e-03, 2.38650580e-04, 2.21981830e-03, 1.14333828e-03,
          2.36685318e-03, 3.74264666e-04, 3.24874651e-04,
          -2.27608398e-04, 5.35526429e-04, 1.26426850e-04,
          6.61075814e-04, -4.92246836e-05, 2.68161646e-04,
          -1.84900800e-05, 5.44819224e-04, 1.07833883e-03,
          2.86460388e-04, 1.57844159e-04, 0., 0., 0., 0., 0., 0.,
          1.03558542e-03, 7.48647784e-04, -1.09606609e-03,
          1.06149411e-03, 1.68262178e-03, 8.86386726e-04, 1.62449339e-03,
          1.87033307e-04, 5.49050164e-04, -1.14713657e-05,
          -5.82375906e-05, -1.70537125e-04, -3.78117751e-04,
          1.24684034e-03, -2.73068465e-04, -2.67243624e-04,
          1.17961457e-03, -1.63813980e-04, -5.83503279e-04,
          7.14574475e-04, 3.43534426e-04, 3.74885189e-04, 0.,
          2.15897046e-04, 0., 0., 0., 0., 7.50390813e-04, 4.04621998e-04,
          2.18998248e-04, 1.39918248e-03, 1.30292471e-03, 8.74937803e-04,
          2.43078292e-04, 6.10271818e-05, 1.53962895e-03, 9.79289412e-04,
          1.53408083e-03, 2.71683330e-05, 2.91431119e-04, 6.16922334e-04,
          -3.94720730e-04, -1.21053527e-04, 1.61357078e-04,
          -5.97503444e-04, -1.04977749e-03, 4.78681788e-04,
          4.24348254e-04, 1.84911522e-04, 0., 2.22574272e-05, 0., 0., 0.,
          0., 0., -8.30558478e-04, -2.87971430e-04, -1.13158440e-03,
          -8.45507544e-04, -3.25831876e-04, 4.34004149e-04,
          1.10505428e-03, -3.25576839e-04, 1.01916026e-03,
          1.05964195e-03, 7.28619925e-04, 8.23694572e-04,
          -4.09725675e-04, 4.13452071e-04, 1.14735775e-03,
          -4.90208331e-04, -1.23741233e-03, 1.27305464e-06,
          3.83888080e-04, 2.08219702e-04, 3.10775681e-06, 0., 0., 0., 0.,
          0., 0., 0., -2.56782165e-04, -1.49763317e-03, -1.43211894e-03,
          -3.39362625e-04, -1.07991707e-03, 5.47752541e-04,
          2.63449067e-04, -1.38668099e-03, -2.43874441e-04,
          -3.60522128e-04, 7.01907964e-04, 8.84254521e-04,
          -1.40105479e-03, 1.46287988e-04, -4.57545131e-04,
          -1.98087469e-03, -2.12321509e-04, -2.24317948e-04,
          5.57189487e-05, 0., 0., 0., 0., 0., 0., 0., 0., 0.,
          -1.26687864e-05, -4.91386105e-04, 1.40484597e-04,
          1.11332955e-03, 1.20015597e-04, -8.73991521e-04,
          -8.97222781e-04, -9.26912529e-04, -1.68626651e-03,
          -2.38189939e-03, -3.09524266e-03, -1.24298525e-03,
          -5.79766638e-04, -1.15970953e-03, -1.90665096e-03,
          -4.42239631e-04, -4.13030211e-04, -5.16616332e-04,
          -2.80529566e-05, 0., 0., 0., 0., 0., 0., 0., 0., 0., 0., 0.,
          0., -2.02978554e-05, -8.41861911e-05, -1.80239367e-04,
          -2.81716959e-04, -1.42150757e-05, 0., -1.17941046e-04,
          -4.52930108e-04, -3.25733010e-04, -9.38053563e-05,
          -6.38512603e-04, -4.29164182e-04, 0., -2.21732014e-04,
          -5.08324767e-04, -8.51632103e-06, 0., 0., 0., 0., 0., 0., 0.,
          0., 0., 0., 0., 0., 0., 0., 0., 0., 0., 0., 0.,
          -2.01570016e-04, -5.32720769e-05, 0., 0., 0., 0., 0., 0., 0.,
          0., 0., 0., 0., 0. ]
      - [ 0., 0., 0., 0., 0., 0., 0., 0., 0., 0., 0., 0., 0., 0., 0., 0.,
          0., 0., 0., 0., 0., 0., 0., 0., 0., 0., 0., 0., 0., 0., 0., 0.,
          0., 0., 0., 0., 0., 0., 0., 0., 0., 0., 0., 7.18496158e-04,
          1.96388946e-03, 9.34044947e-04, 0., 0., 0., 0., 0., 0., 0., 0.,
          0., 0., 0., 0., 0., 0., 0., 0., 0., 0., 0., 0., 0., 0., 0., 0.,
          0., 0., 3.59248079e-04, 1.59665815e-05, 0., 0., 0., 0., 0., 0.,
          0., 0., 0., 0., 0., 0., 0., 0., 0., 0., 0., 0.,
          -1.28334563e-03, -2.15871516e-03, -1.32319762e-03,
          -1.68760505e-03, -1.32567121e-03, -8.17019492e-04,
          -1.08193395e-04, 5.61767898e-04, -1.22766985e-04,
          -1.47634622e-04, -1.86182719e-04, -6.74999683e-05,
          -1.12663233e-03, -2.26208731e-03, -3.50622868e-04,
          -3.73530260e-04, -2.91177130e-04, -6.17648475e-05, 0., 0., 0.,
          0., 0., 0., 0., 0., 3.34079465e-04, -1.17866346e-03,
          -1.67988916e-03, 2.10240163e-04, 1.24019175e-03,
          4.28943749e-04, -2.63624103e-03, 1.48760027e-03,
          1.97987701e-03, -1.21792033e-03, 1.88139628e-03,
          -3.14337481e-03, 2.06402945e-03, -2.41346355e-03,
          -1.03101229e-04, -2.21735929e-04, 6.82126672e-04,
          1.91007537e-04, -1.23533444e-03, -4.44088946e-04,
          -6.00128224e-05, 0., 0., 0., 0., 0., 0., 1.17851647e-04,
          5.31063066e-04, -1.34759815e-03, 3.80769925e-04,
          5.91789256e-04, 2.35864287e-03, -1.46408577e-03,
          -2.08842917e-03, -1.67272112e-03, -7.50827719e-04,
          -1.80667615e-03, 3.06071131e-04, -9.12787393e-04,
          3.01399641e-03, 2.28166115e-03, -2.89878505e-03,
          -1.68015726e-03, -5.72279270e-04, -6.07985596e-04,
          -1.63414073e-03, -3.54302552e-04, -1.51106033e-05, 0., 0., 0.,
          0., 0., 0., -1.44048943e-06, -2.32949678e-04, -1.55054592e-03,
          3.60496750e-04, -3.25600756e-03, 7.94855237e-04,
          -1.59000442e-03, 1.82657546e-04, 1.59673940e-03,
          1.05638138e-03, -1.23258238e-03, 2.24702293e-03,
          -3.20047350e-03, -4.25816019e-04, -2.92825908e-03,
          7.83089432e-04, 9.79651348e-04, 1.33952638e-03,
          -1.82220450e-04, -4.51338990e-03, -7.53268600e-04,
          -1.04312639e-04, 0., 0., 0., 0., 0., -9.54054703e-05,
          -8.29221826e-05, 1.11253757e-04, -1.09300646e-03,
          -6.23436295e-04, -3.20705949e-05, -6.80656580e-04,
          2.96921609e-03, -1.60652329e-03, -1.21226255e-03,
          1.09567074e-03, -2.08676071e-03, 8.82643741e-04,
          4.06602136e-04, 1.79432693e-03, 7.84736476e-04,
          -6.64256921e-04, -7.53133732e-04, -1.60353153e-03,
          1.75059470e-03, 4.32793098e-03, -8.46327282e-04,
          -1.39924567e-04, -1.05029947e-04, 0., 0., 0., 0.,
          -1.74338056e-04, -4.12323803e-04, 2.97546992e-03,
          -2.64964509e-03, -1.18555350e-03, 2.46171490e-03,
          -1.11993402e-03, -9.87006701e-04, 4.19221731e-04,
          -2.67536030e-03, 5.24756266e-04, -1.46012532e-03,
          1.76317629e-03, -1.00458821e-03, 7.64383527e-04,
          -1.48886908e-03, -6.65686021e-05, 1.58003112e-03,
          9.10152157e-05, -3.96695174e-03, 1.78650708e-03,
          -1.34920084e-03, -2.78806750e-04, -1.87144266e-04, 0., 0.,
          1.84542623e-05, 4.10094708e-06, -3.47288791e-04,
          -1.03283173e-03, -1.27418013e-03, 5.68423362e-04,
          1.49112078e-04, -2.93406704e-03, 1.78488286e-03,
          -1.64673221e-03, 6.38913189e-04, 4.48928040e-04,
          1.80428455e-04, 2.36579380e-03, -1.77230802e-03,
          5.56312269e-04, -1.53493730e-03, 2.17944049e-04,
          -8.79924264e-05, -2.46427022e-03, -6.18307095e-04,
          7.79419905e-04, -4.04103147e-03, -1.58211158e-03,
          -6.66047199e-05, 0., 0., 0., 9.50052781e-05, 8.33859231e-05,
          -8.53150967e-04, -9.02612665e-05, -1.48065377e-03,
          4.70142724e-04, -3.14872805e-03, 1.00481207e-03,
          -1.70007654e-04, -2.27873703e-03, 1.15601237e-04,
          2.58475302e-05, 6.39371690e-04, 7.54268433e-04, 1.77121058e-03,
          3.57833179e-03, -1.04589781e-05, -1.88576989e-03,
          3.03918542e-03, 1.82043726e-03, -4.73486318e-04,
          5.78336942e-04, -6.34135306e-03, -1.79482403e-03, 0., 0., 0.,
          4.17415758e-05, 0., 0., -1.19733671e-03, -9.91805500e-05,
          -5.66781790e-04, -1.89125841e-03, 1.17161532e-03,
          -3.01011652e-03, -1.16682833e-03, 5.45693270e-04,
          -1.12011877e-03, 7.20113865e-04, -2.58254050e-03,
          6.59369049e-04, -2.94087757e-03, 2.09450402e-04,
          2.16186722e-03, 2.35193851e-03, -2.38327426e-03,
          -2.28604302e-03, 8.25686206e-04, -2.24984848e-04,
          1.58357655e-03, -3.13274958e-03, 0., 0., 0., 0., 0., 0.,
          -1.12490787e-03, 8.30252946e-04, 5.47953357e-04,
          -2.28218897e-03, -1.12907437e-03, 1.92962692e-03,
          8.84737645e-04, 1.17595727e-03, 2.57631717e-03,
          -2.34001968e-03, -2.05163844e-04, -2.14263727e-03,
          1.52649952e-03, -8.75538855e-04, 5.65228518e-04,
          3.02571425e-05, 2.33719754e-03, 3.47185368e-03,
          -5.02668729e-04, -3.10699688e-04, 1.92757300e-03,
          -2.32498138e-03, 0., 0., 0., 0., 0., 0., 9.29599861e-04,
          2.85247806e-03, 2.59089610e-03, 2.04878906e-03, 3.83570790e-03,
          -2.14625630e-04, -7.24532059e-04, -1.79093331e-03,
          -2.06105341e-03, -1.27563404e-03, -1.62591611e-03,
          -2.39280192e-03, -7.50500010e-04, -1.43814879e-03,
          -1.25197624e-03, -1.48305669e-03, -3.33772297e-03,
          -8.84011213e-04, 2.48637074e-03, 2.56661163e-03,
          2.98451609e-03, 6.25306740e-04, 0., 0., 0., 0., 0., 0.,
          1.63047132e-03, -2.67992262e-04, 7.44827994e-05,
          1.15086290e-03, -2.17788038e-03, 9.18567239e-04,
          2.54264596e-04, -7.27451639e-04, 1.23625796e-03,
          3.55852739e-04, -2.94091203e-03, 7.59367773e-04,
          -3.29424953e-03, -2.72581540e-03, 1.91618316e-03,
          -3.95357463e-04, 1.19951437e-03, -1.99069339e-03,
          1.67354138e-03, -5.82273002e-04, 1.98438065e-03,
          1.15829287e-03, 0., 0., 0., 0., 0., 5.12416091e-06,
          2.89324182e-03, -1.04383542e-03, 1.58596318e-03,
          1.42909738e-03, -1.61730696e-03, -1.93140714e-03,
          8.22300673e-04, -6.81812700e-04, -1.90888240e-03,
          -2.66141281e-03, -2.45952467e-03, 5.34114486e-04,
          -5.78133389e-04, 6.72032067e-04, 6.73685339e-04,
          -2.53855577e-03, 1.88085611e-03, 2.69261212e-03,
          -1.04928750e-03, -1.17732328e-03, -2.44376308e-04,
          1.33564719e-03, 0., 0., 0., 0., 0., 4.09932873e-05,
          1.85256440e-03, 1.73696771e-03, -2.05804268e-03,
          -5.92787364e-05, 2.69104331e-03, -1.20836357e-03,
          -8.04704439e-04, -6.94671064e-04, 1.62900018e-03,
          -2.19855364e-03, 4.55482368e-04, -1.51762075e-03,
          -2.83548655e-03, -3.15236655e-04, -5.61277557e-04,
          7.80881732e-04, -1.59897245e-04, -1.38446491e-03,
          -2.50372151e-03, 4.08087997e-03, 1.55267573e-03,
          -9.92007554e-04, 0., 0., 0., 0., 0., 1.10169458e-04,
          2.06001662e-03, 1.03425386e-03, 1.40654948e-03, 1.03677902e-03,
          7.41375770e-05, -1.84741220e-04, 2.03380152e-03,
          -4.07495815e-03, 1.72796031e-03, -3.59130092e-03,
          -4.73101318e-05, 1.28365983e-03, 1.49762572e-03,
          1.31679687e-03, 7.29203806e-04, 2.42694141e-03, 7.67140824e-04,
          2.11982150e-03, 4.29032836e-03, -1.32516969e-03,
          -5.12009137e-04, 1.41091339e-04, 0., 0., 0., 0., 0.,
          1.12091024e-04, 6.47627225e-04, -1.75998244e-03,
          1.49298157e-03, -1.52778579e-04, 1.76133669e-03,
          9.43464926e-04, 1.90994213e-03, 2.87627266e-03,
          -2.46874220e-03, 4.11307738e-05, -1.21586886e-03,
          1.56738097e-03, -3.34051484e-03, 1.59855676e-03,
          -8.62272689e-04, 1.96671579e-03, -2.67819501e-04,
          1.11159147e-03, 2.60549015e-03, -7.57813177e-05,
          -3.63576459e-03, -4.11259316e-06, 0., 0., 0., 0., 0.,
          1.05941814e-04, -6.79149583e-04, 1.03806844e-03,
          3.68228648e-03, 9.75740375e-04, 1.14959618e-03, 2.95232330e-03,
          5.00970164e-05, 1.77184516e-03, 3.78362741e-03,
          -4.18792042e-04, 6.20777777e-04, 1.81514933e-03,
          3.58230388e-03, 5.83569403e-04, 1.94257300e-03,
          -6.89172535e-04, 1.15281309e-03, -1.46728021e-03,
          -1.60716253e-03, -6.37856254e-04, -1.41714176e-03, 0., 0., 0.,
          0., 0., 0., 1.00397578e-04, 1.64575689e-03, 1.62009196e-03,
          -2.94444454e-03, 7.08104926e-04, -4.35611000e-04,
          -1.30277826e-04, -4.29654378e-04, 5.61858003e-04,
          2.55761901e-03, 1.41847518e-03, 3.31571465e-03,
          -1.85971218e-03, 8.36996653e-04, 1.45480142e-03,
          -8.52055964e-04, 2.64071696e-03, -9.05005028e-04,
          4.59104376e-05, 8.84001551e-04, -2.33099284e-03,
          -1.66764032e-04, 0., 0., 0., 0., 0., 0., 8.33825252e-05,
          -1.36694362e-04, -1.72471197e-03, -2.35290010e-03,
          -7.70110113e-04, -1.42483250e-03, 1.09018816e-04,
          2.05660984e-03, 1.70119503e-03, -1.77393423e-03,
          -1.26014801e-03, 5.24160976e-04, -2.36690650e-03,
          -2.41370188e-04, -5.25738229e-04, -1.83118484e-03,
          -8.47676594e-04, 1.81965507e-03, 6.63123617e-04,
          -3.86691274e-04, 4.18053300e-04, 2.31736703e-04, 0., 0., 0.,
          0., 0., 0., 0., -4.33831476e-03, -2.16648518e-03,
          3.69876914e-04, 7.55802554e-04, 3.78568744e-04, 2.09207484e-03,
          -9.75537929e-04, -3.76177416e-03, 3.52115859e-03,
          8.55916238e-04, 6.82038662e-05, 2.95618526e-03,
          -4.05755854e-04, -2.36090898e-04, -2.86363647e-03,
          3.16569558e-03, -1.52838975e-03, -8.55354941e-04,
          2.10452941e-03, 5.35940053e-04, 1.10594156e-04, 0., 0., 0., 0.,
          0., 0., 0., -1.13498548e-03, -8.60665052e-04, 2.16708076e-03,
          2.66192458e-03, -2.44908244e-03, 1.47315254e-03,
          1.28647534e-03, 3.12597898e-04, 3.13972565e-03,
          -2.31875107e-03, 1.06736447e-03, 1.59705919e-03,
          -1.35971373e-03, 3.15645081e-03, -4.83895326e-03,
          -2.97274604e-03, 1.73654535e-03, 1.27821171e-03,
          2.10921877e-04, -2.94254220e-04, -1.35425769e-04, 0., 0., 0.,
          0., 0., 0., 0., 6.21767016e-04, 2.61357473e-03, 1.85864733e-03,
          -3.10767995e-04, 8.77529092e-04, 5.73801342e-04,
          -1.74576789e-03, -2.99515761e-03, 3.00747273e-03,
          -1.95246667e-03, 7.44700548e-04, 2.29359674e-03,
          7.28778483e-04, 4.89300722e-03, -2.61917041e-04,
          -2.54320214e-03, 9.22022882e-05, 3.21187224e-04,
          -3.87001201e-05, 0., 0., 0., 0., 0., 0., 0., 0., 0., 0., 0.,
          6.18559134e-05, 2.43588394e-04, -6.71896676e-04,
          -1.15231273e-03, -6.58629753e-04, 7.08748645e-04,
          -1.37241639e-03, -3.41049349e-03, -2.34702276e-03,
          -1.27995259e-03, -3.78346676e-03, -2.03357567e-03,
          -1.78212955e-04, -1.50380074e-04, -1.02754006e-04,
          -2.32661569e-05, 0., 0., 0., 0., 0., 0., 0., 0., 0., 0., 0.,
          0., 0., 0., 0., 0., 0., 0., 0., 0., 0., 0., 0., 0., 0., 0., 0.,
          0., 0., 0., 0., 0., 0., 0., 0., 0., 0., 0., 0., 0., 0., 0., 0.,
          0., 0., 0., 0., 0., 0., 0., 0., 0., 0., 0., 0., 0., 0., 0., 0.,
          0., 0., 0. ]
      - [ 0., 0., 0., 0., 0., 0., 0., 0., 0., 0., 0., 0., 0., 0., 0., 0.,
          0., 0., 0., 0., 0., 0., 0., 0., 0., 0., 0., 0., 0., 0., 0., 0.,
          0., 0., 0., 0., 0., 0., 0., 0., 0., 0., 0., 8.48220370e-04,
          2.31846911e-03, 1.10268651e-03, 0., 0., 0., 0., 0., 0., 0., 0.,
          0., 0., 0., 0., 0., 0., 0., 0., 0., 0., 0., 0., 0., 0., 0., 0.,
          0., 0., 4.24110185e-04, 1.88493414e-05, 0., 0., 0., 0., 0., 0.,
          0., 0., 0., 0., 0., 0., 0., 0., 0., 0., 0., 0., 7.06175661e-06,
          3.06009460e-05, 1.95375265e-04, 4.00166202e-04, 5.39000554e-04,
          8.75446771e-04, 5.35334286e-04, 4.06592357e-04, 3.93669703e-04,
          6.17962447e-04, 6.17962432e-05, 0., 0., 0., 0., 0., 0., 0., 0.,
          0., 0., 0., 0., 0., 0., 0., 0., 0., 1.17695949e-04,
          4.52774373e-04, -9.31723276e-04, 2.02519295e-04,
          9.53268434e-04, 1.09810929e-03, 3.95863244e-05,
          -1.20967052e-04, 1.34399324e-03, -8.31030367e-04,
          1.14235608e-03, 4.27251012e-04, 7.16498704e-04, 1.76035496e-03,
          1.00792189e-04, 0., 0., 0., 0., 0., 0., 0., 0., 0., 0., 0.,
          1.83744894e-04, 3.83957551e-04, 9.89247579e-04, 3.37756530e-04,
          1.00495771e-03, -5.42690250e-05, -3.50235542e-03,
          -7.39678682e-04, 7.10121123e-04, 2.28854106e-03,
          -1.35820033e-03, -3.31843318e-03, 2.43787398e-03,
          8.51934077e-04, -6.78202254e-04, -6.34554308e-04,
          2.07384396e-03, 3.49059381e-04, 0., 0., 0., 0., 0., 0., 0., 0.,
          0., 3.53037933e-04, 5.65810551e-05, 1.24463870e-03,
          1.09326351e-03, -9.32762108e-04, 7.20681099e-04,
          -2.70448462e-03, 1.00557040e-03, -4.45793819e-04,
          -4.58711438e-04, -9.57103679e-04, 6.74674811e-04,
          -1.84589857e-03, -4.49812767e-04, -2.63045705e-03,
          -1.38480589e-03, -1.67819380e-03, 1.97884347e-03,
          3.41743347e-04, -4.69563878e-04, -5.23139788e-05, 0., 0., 0.,
          0., 0., 0., 0., 4.41248936e-04, -1.13523864e-04,
          7.61404226e-04, -3.17793293e-03, 1.89965696e-03,
          -1.36478769e-03, 4.01466247e-03, -3.88718140e-03,
          2.69304292e-04, -1.66346796e-03, -2.24276935e-03,
          -1.19420863e-03, -8.53086167e-05, 8.02390394e-04,
          -5.48186596e-04, -4.59745293e-04, -1.64104206e-03,
          -2.55125109e-04, 1.11528055e-03, -6.80201862e-04,
          -4.19615302e-04, 0., 0., 2.38983906e-04, 0., 0., 0.,
          -1.63932069e-04, 2.80657754e-04, 1.31160056e-03,
          -2.07005651e-03, 8.40527762e-04, 3.72195966e-03,
          2.45392457e-05, -1.56247686e-03, 3.15463962e-03,
          -8.62251210e-04, 6.19682425e-04, 1.22038892e-03,
          1.14997325e-03, -1.01231760e-03, 1.11457193e-03,
          -1.36338943e-03, 9.72656300e-04, 8.28541888e-05,
          3.52595700e-04, 2.58028554e-03, -1.56300422e-03,
          -4.78508678e-04, 0., 0., 0., 0., 1.32880159e-04,
          2.95289228e-05, -1.51782448e-03, -1.18467398e-03,
          -9.28905327e-04, 4.50153835e-04, 4.74483735e-04,
          -3.07079637e-03, 8.40327761e-04, -2.32997769e-03,
          1.29688904e-03, 1.36112073e-03, 1.16939389e-03,
          -1.29965763e-03, -2.91461271e-04, -8.63481895e-04,
          -8.95114674e-04, 8.07120057e-04, -8.42555542e-04,
          3.14555800e-04, 1.37431221e-03, 2.23217974e-03,
          -1.45540293e-03, -1.17599018e-04, 0., 0., 0., 0.,
          6.84086699e-04, 6.42558734e-04, -6.10308962e-05,
          -1.21458806e-03, -6.83248334e-04, -2.90402747e-03,
          -1.63062138e-03, 1.21625571e-03, 8.64574045e-04,
          3.93779657e-04, 1.13406699e-04, 1.88082131e-03, 1.24946283e-03,
          -2.13171449e-03, 1.42154063e-03, 2.35568732e-03,
          -1.08126027e-03, 1.98915158e-03, 2.30943770e-04,
          2.62582937e-04, 7.10277702e-04, -4.60784591e-04,
          -1.93410285e-03, -3.45879467e-04, 0., 0., 0., 3.81670659e-04,
          0., 5.35143656e-04, -6.47321867e-04, -1.69175223e-03,
          8.39406101e-04, 4.80625640e-05, -5.11473336e-04,
          -1.15115638e-03, -2.37564207e-03, -2.74313468e-04,
          -3.85185564e-03, -1.48547674e-03, 2.74148234e-03,
          -9.77362870e-05, -1.21201726e-03, 8.42956011e-04,
          1.52974459e-03, 4.12735564e-04, -1.87671452e-03,
          -1.26169599e-03, -9.35721968e-04, -1.14163943e-03,
          3.43968190e-04, -6.50253380e-04, 0., 0., 0., 0., 0.,
          5.37250540e-04, -7.16262381e-04, -3.11702210e-03,
          6.83844439e-04, -2.64652306e-04, -1.82620611e-03,
          -3.50054441e-04, 2.00299197e-03, -1.17493572e-03,
          8.04605661e-04, 2.46721343e-03, -2.43628537e-03,
          -3.21810576e-03, 4.98420384e-04, -8.84047477e-04,
          6.33844349e-04, -1.60879339e-03, 3.21404985e-03,
          2.89004587e-04, 1.47925239e-04, -1.45073369e-04,
          1.42814894e-03, 1.46657967e-05, 0., 0., 0., 0., 0.,
          4.76151443e-04, 1.19221932e-03, -1.61742733e-03,
          4.84110235e-04, -1.07822532e-03, 5.09804115e-04,
          1.85332145e-03, -2.54483684e-03, -2.74494814e-04,
          4.85728204e-04, -2.97108345e-04, -2.50907382e-03,
          1.14960107e-03, -1.86867092e-03, -1.66794355e-03,
          -6.56641088e-04, 3.55675555e-04, 4.97837085e-04,
          -2.34400807e-03, 9.30076523e-04, 4.73792257e-04,
          -5.62283327e-04, 1.62410128e-04, 0., 0., 0., 0., 0., 0.,
          -1.79899787e-03, 4.35569003e-04, -1.69173407e-03,
          -7.85612152e-04, -7.00718083e-04, -5.92286175e-04,
          1.61922339e-03, 1.38279330e-03, 5.18170127e-04, 1.68730912e-04,
          -5.46496361e-03, -1.49756626e-04, -1.78052543e-03,
          -2.13281950e-03, -4.22039680e-04, -1.76755839e-03,
          -1.77230535e-03, 1.02162652e-03, 1.96323358e-03,
          6.00396830e-04, 6.38702477e-04, 2.65102222e-04, 0., 0., 0., 0.,
          0., -9.76826050e-05, -2.53290124e-03, -6.87388179e-04,
          -9.73041577e-04, 6.83244318e-04, -7.21639604e-04,
          -8.98360973e-04, 1.41670258e-04, -1.05119405e-04,
          1.47556522e-04, 9.92252608e-04, -2.35324400e-03,
          -2.58868630e-03, -3.10643250e-03, 1.72445073e-03,
          -2.04765427e-04, -1.29370100e-03, -9.18670092e-04,
          2.70763761e-03, 6.71995454e-04, 1.10424380e-03, 1.79517246e-03,
          1.83141252e-04, 0., 0., 0., 0., 0., 3.38190730e-04,
          -8.32080084e-04, 2.00830470e-03, -1.99445314e-03,
          1.94803614e-03, 1.93478761e-03, 9.63340397e-04, 3.17554735e-03,
          1.81652431e-03, -2.73472699e-03, -4.83439740e-04,
          1.87987089e-03, -1.53012387e-03, -5.93579200e-04,
          -2.08865176e-03, 1.34914450e-03, 9.65779764e-04,
          1.23085571e-03, 9.02087137e-04, -5.07819583e-04,
          1.11778767e-03, 7.42191740e-04, 5.00752649e-05, 0., 0., 0., 0.,
          0., 7.81537674e-04, 9.12922133e-06, 2.17207125e-03,
          9.80127137e-04, 6.98863005e-04, -6.43196690e-04,
          5.22695598e-04, 1.08946010e-03, -5.35308800e-06,
          3.02774156e-03, -2.14864570e-03, 6.32266689e-04,
          3.85278618e-05, -1.49955356e-03, 2.57380336e-04,
          -2.43802511e-04, 1.88045786e-03, 2.43589820e-05,
          1.28956139e-03, 1.35047873e-03, 2.59493873e-03, 3.97559415e-05,
          8.64987396e-06, 0., 0., 0., 0., 0., 4.01149882e-04,
          -8.76825769e-04, 1.62890425e-03, 6.40593818e-04,
          4.39845113e-04, 1.41156954e-03, 2.75625987e-03, 1.42953300e-03,
          1.21461344e-03, 5.77666506e-04, -1.84454478e-03,
          -3.94392153e-03, 2.07268377e-03, 3.90395755e-04,
          -4.66464041e-03, 7.14722730e-04, -1.00248621e-03,
          -2.79332022e-03, -1.89969852e-03, 5.02582872e-04,
          1.10630516e-03, -4.65758290e-04, 0., 0., 0., 0., 0., 0.,
          1.09733344e-04, 1.63187622e-03, 2.14305287e-03, 8.05350777e-04,
          1.96017136e-04, -1.92043575e-04, 2.75391107e-03,
          -1.41990371e-03, -1.35245893e-04, 3.96139454e-03,
          -4.92445193e-04, -1.58010842e-03, 4.33553418e-04,
          -3.24541051e-03, 1.72008667e-03, -2.60189199e-03,
          3.31363553e-04, -2.11792998e-03, 1.29755319e-03,
          1.28173397e-03, -1.10144028e-03, -9.95729468e-04,
          -3.43927313e-05, 0., 0., 0., 0., 0., -6.00627973e-04,
          2.84077274e-03, -4.59687319e-04, 8.94118421e-05,
